4265 64
193 0.402083 -0.058713 0.270610 -0.167095 -0.294006 -0.233970 0.409040 -1.014912 0.359967 0.280582 0.576457 0.204599 0.396227 0.321276 0.241227 -0.208132 -0.162369 -0.024518 -0.039158 0.123532 -0.716544 0.117378 0.590709 0.744241 0.266425 0.299684 -0.039172 -0.188184 -0.113563 0.640130 0.028022 -0.097498 0.520902 0.429634 -0.709578 -0.380622 -0.070997 -0.676195 0.383996 0.155066 0.242286 -0.303482 -0.096361 0.119871 -0.315389 0.044733 0.454355 -0.367063 -0.252588 -0.026998 -0.267146 -0.136012 0.302058 -0.265817 0.174131 -0.361474 0.361081 -0.494379 0.142834 -0.400775 0.150831 -0.428555 -0.575292 -0.404164
81 0.100748 -0.015316 0.056942 0.241855 0.081992 0.439897 0.009874 0.259397 0.006547 -0.065289 0.138102 0.088173 -0.134604 0.073086 -0.210961 -0.538894 -0.637008 0.505149 0.320032 -0.257027 0.214512 0.075834 -0.209277 -0.157739 -0.081405 -0.156213 0.042915 -0.831447 -0.619975 0.625991 -0.120896 0.082507 -0.421164 0.452706 -0.017616 0.075095 -0.041656 0.275201 -0.063522 0.482139 -0.742145 -0.092022 0.295321 0.189542 0.463667 0.088480 0.108219 0.139365 -0.524171 0.542879 -0.160098 -0.162005 0.544430 -0.331580 -0.105753 -0.178890 -0.412122 0.051571 0.518168 -0.290451 0.493244 0.022043 0.070028 0.365648
250 -0.171273 -0.284689 0.519883 -0.318707 -0.116749 -0.200438 -0.694000 0.252135 0.137364 0.465582 -0.163038 0.469976 0.122378 0.272127 0.148589 -0.511939 0.147028 0.221122 0.388282 -0.229535 0.044837 0.085634 0.210777 0.136771 0.279044 0.093328 0.402011 0.230629 -0.033245 0.167536 0.107890 0.076052 -0.171846 0.291490 -0.222381 0.554065 0.227565 -0.072762 0.094988 -0.381626 -0.517075 -0.229538 0.120688 0.229492 0.352827 -0.144596 -0.382824 -0.468394 0.576547 0.088133 -0.454182 0.372973 0.144477 -0.423909 -0.273969 -0.202021 0.133081 -0.228988 0.152661 -0.260405 0.880472 0.217023 -0.219525 0.603885
107 -0.526735 0.130249 -0.009373 0.020319 -0.097557 -0.529646 0.460485 -0.159823 0.063607 -0.329047 0.798577 -0.258548 0.244931 -0.441671 0.057917 0.271441 0.097102 0.225499 0.247394 -0.441931 -0.215250 0.017071 0.321303 0.678196 0.763502 0.096841 0.189501 -0.240504 -0.873482 0.215265 0.120105 0.260809 -0.474390 -0.031858 -0.148346 0.672870 0.482742 0.177569 -0.420911 0.220528 0.261017 -0.255174 0.247601 0.112294 -0.427688 -0.171800 -0.148849 0.274953 -0.896982 -0.425400 0.180981 0.485711 0.239426 -0.340920 0.074368 0.335645 0.130485 -0.035517 -0.079026 -0.024677 0.029503 0.624712 -0.300826 0.486331
143 0.166734 0.107307 0.122778 0.072343 0.489700 0.467931 -0.555062 0.295164 0.332484 -0.229189 -0.171138 -0.083595 0.246143 0.590398 0.081480 0.308581 0.773660 0.215441 -0.023819 -0.453917 -0.523669 -0.020052 0.266391 -0.675688 -0.093668 1.044990 -0.504293 -0.466627 0.591337 1.007549 0.587783 -0.015781 -0.658556 0.606518 0.258372 -0.416448 0.281374 0.462715 -0.125785 -0.328584 0.362908 -0.474979 -0.137242 0.739120 -0.694193 -0.211604 0.375522 -0.046374 -0.525771 -0.437223 -0.198083 0.514125 0.333273 0.041487 -0.081925 -0.272387 -0.288068 0.684101 -0.270377 -0.469917 0.555538 0.132332 0.683538 -0.360686
228 0.046242 -0.626743 0.136058 0.291873 -0.305638 -0.189967 0.116656 -0.303127 -0.063587 -0.225814 -0.511864 -0.323547 -0.024903 -0.051322 0.018875 0.489182 -0.015885 0.368744 -0.030997 0.238975 0.210775 -0.381886 0.239509 0.232645 -0.085692 -0.143647 -0.261806 -0.094129 0.114925 0.274607 0.191719 0.002706 0.111610 0.352163 -0.119437 0.035222 0.162873 0.045209 0.373605 0.079345 -0.593083 0.538165 -0.245193 0.308657 0.079673 -0.713367 -0.426966 0.427190 0.182388 0.022993 0.666316 -0.024867 0.756380 0.411396 -0.327646 0.249455 0.380125 0.045784 0.446248 -0.381745 0.511387 0.092235 -0.240360 0.268322
50 0.345626 0.251528 -0.356182 -0.036854 0.186458 -0.142420 -0.336007 0.280398 -0.244756 -0.172715 0.216700 0.010790 0.213274 -0.460687 -0.181618 0.041944 0.139632 0.113827 -0.098520 -0.398833 0.498194 0.417076 0.074339 0.156518 0.240241 0.421778 -0.277522 -0.213077 0.652407 -0.402228 -0.122148 0.257388 0.497978 0.705217 -0.377028 0.529773 0.059332 0.087828 -0.493470 0.398114 -0.579118 0.118880 0.110686 -0.137358 -0.320261 -0.085047 0.237740 -0.117468 -0.292306 0.472413 -0.119372 0.204969 0.409419 -0.537017 0.026314 0.060355 0.655043 -0.150536 0.004554 -0.303486 -0.278844 -0.224069 -0.013607 0.220730
1993 -0.113507 -0.194716 0.095504 -0.023470 0.094640 -0.073983 0.031874 -0.091368 -0.023645 -0.052698 -0.018348 0.051330 0.010236 -0.057050 0.058211 -0.187060 -0.014708 -0.019545 0.105170 -0.037312 0.087263 0.006827 -0.169023 -0.044727 -0.085252 -0.073090 -0.039833 -0.079458 0.213955 -0.247996 0.137195 0.017030 -0.131319 -0.073673 -0.037323 -0.002115 -0.184075 -0.054604 0.083733 0.174920 0.146896 0.004501 0.016032 0.053148 0.006065 -0.153269 -0.027039 0.097152 0.060138 0.005252 0.034175 0.093277 -0.134081 0.099603 -0.158816 -0.021067 -0.059162 0.020233 0.024446 0.005091 -0.177861 0.001555 0.051493 -0.084514
252 0.061805 -0.508429 -0.209556 -0.276246 -0.573889 0.000079 0.317008 0.272108 0.181125 0.390784 0.249964 -0.160533 0.107487 -0.496333 -0.140792 0.340065 0.047568 0.000091 -0.174316 0.379931 -0.448917 -0.262748 -0.275827 -0.689955 -0.376968 -0.074906 -0.088981 -0.501202 0.011275 -0.254865 -0.291196 0.040181 0.007525 0.029551 -0.344251 0.130971 0.248396 -0.176734 -0.614515 -0.303320 -0.104297 -0.273770 -0.598334 -0.471412 0.143000 0.207825 0.029355 0.091372 -0.346614 -0.034947 0.379747 0.009808 0.257934 -0.440966 0.110963 -0.182192 -0.008602 -0.276375 -0.134191 -0.207510 0.279564 0.355865 0.074892 -0.368284
3732 -0.150589 -0.118671 0.015204 0.043182 0.116229 -0.084188 0.026753 0.032557 -0.028334 -0.037129 0.010524 0.049048 0.011455 -0.016197 0.030223 -0.203649 0.065082 -0.082867 0.134985 -0.050967 -0.056943 0.078968 -0.134013 -0.101765 -0.019566 -0.110721 -0.016902 0.006274 0.088030 -0.223373 0.038450 -0.021501 -0.178304 -0.076560 -0.008265 -0.041087 -0.182278 -0.095753 0.071409 0.109895 0.058433 0.071091 0.037668 -0.014822 0.034732 -0.069331 0.045926 -0.017233 -0.005415 -0.011994 -0.025743 0.031316 -0.142421 0.134432 -0.088086 0.070549 -0.116425 0.120389 -0.077298 -0.019672 -0.185992 -0.056388 0.047505 -0.055011
471 -0.059136 -0.058795 0.080402 0.002976 0.208921 0.018806 0.138206 -0.077516 0.021967 0.028149 -0.098776 0.027706 0.051559 -0.052603 0.023344 -0.224394 -0.074793 -0.120415 0.088571 0.020880 -0.012178 0.064379 -0.110941 0.024215 -0.023022 -0.102732 0.019598 -0.003932 0.168850 -0.233195 0.034036 -0.036230 -0.106133 -0.022929 0.017480 0.013231 -0.080070 -0.028017 0.111462 0.171871 0.064132 0.070359 0.050798 0.054488 -0.042515 -0.131306 0.038342 -0.027501 -0.057821 0.026126 0.023042 0.143359 -0.188788 0.076982 -0.050220 -0.024724 0.043958 -0.007164 0.011573 0.022453 -0.059708 0.014553 0.186503 -0.176418
52 0.270608 -0.021135 0.680032 -0.044705 0.175012 -0.331615 0.194850 -0.289711 0.376134 -0.525971 -0.109972 0.156520 -0.401035 0.201005 0.098505 0.665520 -0.519467 -0.664754 0.183894 0.481733 0.040625 -0.000627 0.367700 -0.606873 -0.086832 0.077704 -0.283246 0.113957 0.002223 0.176805 0.058413 -0.053068 0.247832 0.181343 0.030981 0.236113 0.040336 -0.051817 -0.029216 -0.024540 -0.162299 -0.287577 0.069488 0.599873 0.069408 0.291712 0.212618 0.447241 -0.080250 0.105852 -0.043171 0.199883 -0.186907 -0.327120 0.145330 0.312328 -0.227968 -0.218063 -0.633163 -0.283296 0.480953 0.071535 -0.406804 0.225952
4240 -0.091604 -0.100752 0.045807 -0.029267 0.092981 -0.076278 -0.034858 0.052530 -0.057466 0.077337 -0.128788 0.081301 0.041257 -0.088203 -0.043179 -0.325526 0.002142 -0.066773 0.062970 -0.026043 -0.117524 0.016951 -0.220314 0.008896 -0.031834 -0.114854 0.013845 0.062295 0.172252 -0.188411 -0.006450 -0.016573 -0.071680 -0.036579 -0.029812 -0.009127 -0.133428 -0.115559 0.125812 0.134914 0.094499 0.103881 -0.019819 0.011197 0.050255 -0.100984 -0.006775 -0.002095 -0.016395 -0.053674 0.058375 0.128184 -0.056021 0.103401 -0.171706 -0.008227 -0.065536 0.087600 -0.089978 -0.002999 -0.201631 -0.109256 0.127777 0.014311
3798 -0.139835 -0.104652 0.002825 0.083943 0.101529 -0.098659 0.088486 -0.018546 -0.109240 0.005838 -0.009042 0.056523 0.028173 0.020132 -0.014745 -0.227872 0.055237 -0.115464 0.066123 -0.060636 0.024761 -0.011841 -0.090305 -0.047933 -0.002095 -0.059902 0.034555 -0.134558 0.167329 -0.197102 0.100974 -0.025422 -0.094654 -0.070784 0.013336 0.016199 -0.190542 -0.115255 0.081817 0.070059 0.092116 0.013213 -0.038284 0.099509 -0.042064 -0.100504 0.004098 0.027076 -0.004510 0.017390 0.030659 0.129335 -0.070403 0.026127 0.014664 0.037731 0.009909 0.098762 -0.087574 -0.089177 -0.178699 -0.044399 0.001721 -0.072964
102 0.155706 0.369144 0.317650 -0.495505 -0.191279 -0.139250 0.582839 0.097575 -0.099150 0.122039 0.109611 -0.444538 0.033231 -0.220017 -0.198920 0.057282 0.054252 0.064439 0.415296 0.110538 -0.327909 -0.525386 -0.467610 -0.173078 -0.216496 0.404258 0.255577 0.213419 -0.130678 0.183320 -0.245133 0.119005 -0.193341 0.438263 -0.453724 0.226713 -0.207779 0.159491 -0.308120 -0.171083 -0.613245 0.088790 0.349287 -0.059392 -0.193392 -0.208377 0.015082 -0.352074 0.007229 0.235612 -0.407230 -0.248830 0.090662 -0.019598 0.103482 0.205956 -0.021335 0.050503 0.205464 -0.092965 0.108061 0.420240 0.342978 -0.519449
210 0.131148 -0.301525 -0.093271 -0.302945 -0.366639 0.184352 -0.188581 0.353167 -0.037309 0.030211 -0.341394 -0.556658 0.356495 0.071521 0.125164 -0.262664 -0.011479 -0.045136 0.221477 0.173832 -0.125236 0.257593 -0.304826 -0.077237 0.316874 0.078700 -0.287366 0.199123 -0.195288 0.223431 -0.181694 0.059821 0.174524 0.593169 0.132003 -0.033234 0.138910 0.365413 -0.844625 -0.512777 -0.126837 0.228491 0.704801 -0.062780 -0.343435 -0.197402 -0.382661 0.699148 -0.319928 0.265433 0.510320 -0.413548 -0.110526 0.138384 -0.380186 -0.147142 -0.612309 -0.218959 -0.280214 -0.441057 0.218051 0.045933 0.055366 -0.050068
184 0.087973 -0.324876 -0.670887 0.066003 -0.211897 -0.184651 0.124271 0.053816 0.266059 -0.334099 -0.122108 0.236325 0.320752 0.192290 -0.091591 -0.164997 0.158357 0.168425 0.535059 -0.118190 -0.151408 0.254983 -0.077216 0.150223 -0.337876 -0.256653 -0.092349 -0.569914 0.046512 0.148030 -0.527177 0.392067 0.721318 0.134868 0.069861 0.538626 0.363517 -0.104014 -0.052891 -0.042652 0.130943 -0.027426 -0.047023 0.032564 -0.486240 0.412039 -0.533356 0.062632 0.178024 0.140678 -0.422158 0.147872 0.349089 0.097636 -0.067386 0.525550 -0.602906 -0.189611 -0.189761 0.342010 0.223977 0.283806 0.137915 -0.203964
34 -0.112571 -0.213059 0.240724 -0.588246 0.376408 0.453108 -0.418230 0.596105 0.043210 -0.068587 0.388841 0.336090 0.155069 0.114830 0.296760 0.511467 0.304273 0.222112 0.168284 -0.046118 -0.357784 0.132022 -0.037084 -0.106834 -0.412415 -0.224529 -0.163145 -0.043045 0.341138 0.624839 0.517023 -0.239471 0.208254 -0.157354 0.043800 0.308725 -0.514659 -0.043814 0.077779 0.277139 -0.512142 -0.048545 -0.370353 -0.668221 -0.422763 0.346455 -0.676827 0.374899 -0.328338 0.125395 0.091873 -0.072482 -0.396456 -0.444406 -0.336159 0.659400 0.085268 -0.365456 0.029634 0.045982 0.360274 0.425596 -0.206297 -0.011208
309 -0.011780 -0.180493 -0.060205 0.025142 0.140842 -0.067460 0.078284 0.018763 -0.076010 0.015196 -0.112619 0.126629 0.026808 -0.082412 -0.010693 -0.189428 -0.029233 0.023998 0.083728 -0.017698 0.044873 0.017163 -0.153505 0.020277 -0.014186 -0.058764 0.051684 -0.055481 0.209323 -0.198824 0.039662 -0.023903 -0.150686 0.005391 0.078304 -0.043205 -0.157452 -0.085882 0.017133 0.259590 0.098226 0.115750 0.000060 0.110520 0.014656 -0.066073 -0.059110 0.019399 0.072161 0.005755 0.064948 0.054536 -0.115118 0.027254 -0.056323 -0.107235 0.026298 -0.001900 -0.072725 0.068946 -0.062135 -0.065334 0.102346 -0.118108
73 0.079520 0.391303 0.405771 0.101092 -0.358000 0.078046 -0.006576 0.074961 0.175603 -0.040709 -0.066736 -0.460977 0.465612 -0.234633 -0.110406 -0.103788 -0.440474 0.065347 0.389157 0.000401 0.006029 0.239456 0.009906 -0.052952 0.218097 -0.030264 -0.098580 -0.117879 -0.416764 -0.152199 0.139785 0.336132 0.417287 0.206994 0.021131 0.137336 0.272588 -0.100382 0.183413 -0.051256 -0.344125 0.374412 -0.281121 0.157659 0.034381 -0.097640 -0.109288 0.284969 0.185199 -0.366476 0.241029 -0.134793 0.105334 -0.179517 0.054883 0.060238 0.038636 -0.214142 -0.135245 -0.050518 0.478944 0.052971 0.425879 -0.279038
2076 -0.065193 -0.143461 0.148633 0.095483 0.073552 -0.069943 0.068322 -0.062415 -0.163361 -0.046418 0.002870 -0.002922 0.021787 -0.115216 -0.028516 -0.256300 -0.008167 -0.108879 0.133469 -0.038345 0.005263 0.001160 -0.127637 -0.071619 -0.143695 -0.069555 0.030648 -0.035942 0.200676 -0.258691 0.011460 0.049241 -0.117368 0.004325 0.066353 -0.069223 -0.228581 0.025157 0.037537 0.184030 0.119250 0.079280 0.007035 0.033196 0.074991 -0.039522 -0.000074 0.028999 -0.016855 -0.028179 -0.029791 0.076809 0.001800 0.058352 -0.131992 -0.025943 0.014841 -0.012831 -0.079462 -0.043480 -0.180710 -0.033179 0.098527 -0.022980
365 -0.007022 -0.159945 0.106036 0.065527 0.155265 -0.084649 0.049734 0.051163 -0.045422 0.079968 0.012434 -0.065231 -0.059992 0.032967 -0.066370 -0.121977 -0.017627 -0.052143 0.023076 -0.053807 0.009714 0.068155 -0.100565 -0.013589 0.007148 -0.074416 0.004810 -0.051755 0.154406 -0.173912 0.123947 -0.071179 -0.064469 0.022134 0.057762 0.003289 -0.079848 -0.113694 -0.011483 0.228472 0.099863 0.077063 0.062568 0.026729 -0.009328 -0.108776 -0.063969 0.064223 -0.024830 -0.091943 0.050099 0.022446 -0.133912 0.163200 -0.172970 -0.004081 -0.028894 0.006536 -0.014080 -0.003075 -0.066849 0.074908 0.124652 -0.138697
109 -0.140006 -0.184249 -0.173106 -0.137020 -0.222839 0.026389 0.084467 0.052407 0.102432 -0.173682 0.620070 -0.403596 0.383589 -0.165420 -0.235306 0.162138 -0.120132 -0.310284 0.498836 -0.190968 0.071346 -0.027143 0.070826 -0.358456 0.661905 -0.316352 0.194417 0.101721 0.061016 0.265263 0.277728 0.079734 -0.240226 -0.035720 0.141534 0.067071 -0.226475 -0.069880 -0.283455 -0.137451 -0.272905 0.295364 0.513379 0.196200 0.214969 0.403052 0.637971 0.133534 0.166180 0.208020 -0.376763 0.009077 0.059465 0.066694 -0.251036 -0.204202 -0.274077 -0.174812 -0.153965 0.472191 0.554780 -0.405646 -0.077062 -0.338525
2428 -0.065665 -0.227940 0.073935 0.004532 0.185931 -0.079373 0.072259 -0.094781 -0.027572 0.165650 -0.078101 0.113814 0.042598 -0.116467 0.074528 -0.146168 0.080556 -0.043330 -0.037174 -0.132816 0.010821 -0.038943 -0.241216 0.014041 -0.070818 -0.038982 -0.019609 -0.013317 0.138227 -0.180521 0.025117 0.063184 -0.031888 -0.052522 -0.057250 0.062043 -0.126672 -0.057436 0.070496 0.242195 0.095406 0.019742 0.037679 -0.091006 -0.073471 -0.187561 0.003204 0.080980 0.101454 0.011453 0.115533 0.182255 -0.086668 0.054962 -0.063886 0.007462 -0.099965 0.068264 -0.037889 0.036891 -0.119340 -0.016607 0.032023 -0.146088
2688 -0.077550 -0.114887 0.083371 0.111960 0.043291 -0.169215 -0.001027 -0.030706 -0.010451 -0.001341 0.053957 0.100453 -0.002977 0.029633 -0.047336 -0.199081 0.065864 -0.006171 0.095080 0.001044 0.020522 -0.036453 -0.101332 0.012955 -0.015940 -0.159422 -0.052030 0.041188 0.028020 -0.209664 0.033587 -0.111270 -0.130795 0.023948 -0.011294 -0.010522 -0.233912 -0.110217 0.000291 0.228263 0.121940 0.155207 -0.057289 0.069279 0.029677 0.031068 0.021785 -0.113164 0.055388 0.005201 -0.015218 0.091073 -0.062211 0.136344 -0.097785 -0.007925 0.023669 -0.007738 -0.039806 -0.001156 -0.160063 -0.058637 0.156988 0.059675
2026 -0.078439 -0.002936 0.128717 0.035968 0.134143 -0.090745 0.046317 -0.057827 -0.008157 0.029949 -0.008412 -0.079743 0.064527 0.053392 -0.005607 -0.188095 -0.007709 -0.151819 0.086979 -0.053131 -0.015650 0.058816 -0.143556 -0.044136 -0.075484 -0.055142 -0.066913 -0.130884 0.074970 -0.180599 -0.041892 -0.118416 -0.082921 -0.165970 0.073721 0.050876 -0.096401 0.015365 -0.012132 0.185478 0.090842 0.165650 0.005869 -0.063672 0.023807 -0.078738 -0.043442 -0.142819 -0.159478 -0.050901 -0.054181 0.050971 -0.094256 0.097849 -0.018426 -0.053507 -0.078484 -0.050468 0.026533 0.002096 -0.092500 -0.054869 0.132822 -0.061106
150 -0.056196 0.105527 0.504954 -0.253138 0.159427 -0.266791 -0.364334 0.550809 -0.094439 0.320565 0.316299 -0.550004 0.251092 0.215726 0.253042 -0.336838 -0.212827 -0.328000 -0.556178 0.074765 -0.714109 0.025266 0.039718 0.086045 0.105684 0.337257 0.005534 0.113768 -0.496106 0.023639 0.513843 -0.106190 0.016744 -0.235905 -0.085344 0.229560 -0.151267 -0.426113 -0.347006 -1.067301 -0.129112 0.219895 -0.642943 0.552133 0.314819 0.446777 0.069895 -0.025286 -0.226365 -0.130132 0.556494 0.249762 0.426341 0.646690 0.085834 0.513026 0.054478 -0.385865 0.474276 -0.194036 -0.175302 -0.216456 -0.610509 0.304333
264 0.512460 -0.495033 0.059066 0.042262 -0.333857 -0.458122 -0.048853 0.098411 -0.064002 -0.505971 0.139652 0.201627 0.011676 0.268496 -0.478617 0.254878 -0.194736 0.068675 0.267730 -0.099230 0.329751 0.141112 -0.158204 0.158077 -0.389349 0.247899 -0.283819 -0.074092 0.440910 0.316713 0.204003 -0.028037 0.198090 -0.066555 0.533239 0.427403 0.321255 0.284653 -0.213495 0.060659 -0.200149 -0.106125 -0.590020 0.179539 -0.403905 0.353446 -0.242641 -0.173962 0.485521 0.545350 -0.163362 -0.032157 0.734733 -0.172081 -0.073049 0.567959 -0.552691 -0.356895 -0.107608 -0.417524 -0.137136 0.686100 -0.073264 -0.273182
191 -0.199993 0.009834 0.054459 -0.035502 0.020695 0.227674 -0.324307 0.520469 -0.072012 -0.326960 -0.227057 0.027363 0.701866 -0.342496 0.372892 0.118553 -0.285446 0.164437 -0.012172 -0.042402 -0.376875 -0.318473 0.523589 -0.680119 -0.504206 0.068787 0.235452 -0.141901 0.335123 0.085113 0.294874 -0.197003 0.176239 0.242010 -0.440944 -0.089004 0.170138 0.192602 -0.625708 0.127449 0.473121 -0.498404 0.678294 -0.114240 0.480247 -0.220611 0.154556 0.102347 -0.241686 -0.188373 0.162675 -0.662692 0.120559 -0.088356 -0.138185 0.633328 0.359083 -0.248509 -0.147176 -0.064988 0.344940 -0.041958 0.344087 -0.347182
296 -0.194581 -0.138334 0.031987 0.000768 -0.011496 -0.118027 0.069546 -0.033891 0.063048 -0.032203 -0.080734 0.012819 0.002219 -0.067743 -0.055063 -0.266889 -0.058820 -0.146754 0.022091 -0.068638 -0.039505 -0.117665 -0.129863 0.041385 -0.018756 -0.153982 -0.080870 -0.088432 0.196496 -0.229204 -0.026801 0.054380 -0.027281 -0.023822 -0.081159 -0.063275 -0.209960 -0.031528 -0.010559 0.097474 -0.003924 0.075412 -0.138194 0.126020 -0.027802 0.007746 -0.000300 -0.039689 0.024495 -0.014514 0.088398 0.041575 -0.120012 0.055395 -0.110814 0.011690 0.047452 0.036240 -0.042246 -0.041760 -0.153383 -0.030539 0.121557 -0.069570
266 -0.591848 0.539783 0.265969 -0.241922 0.066362 0.632394 -0.293253 -0.172155 0.039293 -0.291853 -0.351953 0.178125 0.438438 0.261611 -0.479844 -0.271154 0.665040 -0.247006 0.063766 -0.048159 -0.517948 -0.474486 0.007396 -0.541399 0.161723 0.089978 0.125534 0.175408 0.028401 0.252514 0.014315 0.248161 0.044354 0.275663 0.191428 0.538408 0.129162 0.176402 0.009537 -0.163720 -0.193839 -0.490913 -0.361184 -0.058771 0.049182 0.034009 -0.157452 0.198791 -0.023391 0.769756 0.199718 0.410360 0.141032 0.019223 0.249696 0.212486 0.070021 -0.275267 0.462983 0.534612 -0.388696 -0.086726 -0.347108 -0.279794
3728 -0.190705 -0.156041 0.096268 -0.008925 -0.006752 -0.115576 0.095632 -0.095976 0.091246 0.032065 -0.134068 0.010166 -0.053651 -0.052494 -0.069709 -0.149036 -0.010888 -0.018926 0.067254 -0.126947 0.039607 -0.150352 -0.059753 -0.004961 0.146453 -0.002290 -0.049026 -0.041927 0.115669 -0.174265 -0.060628 -0.027037 -0.074294 -0.019011 -0.015062 -0.027992 -0.153126 -0.091479 0.124038 0.100748 0.110278 0.104657 0.020720 -0.012834 0.024990 -0.078640 -0.132212 -0.026390 -0.070715 0.082451 0.152360 0.099778 -0.170941 0.106881 -0.062601 0.042093 -0.043311 0.024280 -0.037570 -0.146146 -0.077654 -0.080814 0.110944 -0.085759
121 -0.018854 0.032672 -0.158350 0.295756 0.152701 -0.109691 -0.168310 0.330110 -0.109929 -0.107632 0.167188 0.142156 0.038974 -0.275678 0.112497 0.180778 -0.548856 0.359627 0.103010 0.293640 -0.106820 -0.693535 -0.344387 0.136739 0.111882 0.264311 0.053378 -0.185697 -0.301719 0.222714 -0.362627 0.123680 -0.026358 0.576082 0.077321 0.283044 0.331062 -0.081463 -0.009651 -0.250311 -0.163106 -0.176994 0.141017 -0.086205 -0.360366 -0.190702 -0.522327 0.115684 0.130126 0.200612 0.159152 -0.392979 -0.462368 0.331739 0.216881 0.202302 0.145001 -0.032957 -0.236108 -0.178825 0.085835 -0.190148 0.047362 -0.242889
2566 -0.111917 -0.168952 0.127286 0.025830 -0.000878 -0.020453 0.060146 -0.010015 -0.064366 0.061788 -0.040507 0.036490 0.109613 -0.062102 -0.032460 -0.195143 -0.078975 -0.127435 -0.016483 0.001097 0.088371 -0.015055 -0.168358 -0.000547 -0.077719 -0.195059 -0.051585 0.011654 0.151703 -0.138621 0.089679 -0.070947 -0.081160 -0.009653 -0.064128 0.057853 -0.075624 -0.089633 0.190695 0.161741 0.008953 0.059262 -0.091819 0.114752 -0.007465 -0.069129 0.012295 0.088097 -0.028110 0.155539 0.060007 0.102908 -0.212473 -0.017323 0.007561 0.033634 -0.038581 -0.035725 -0.044915 -0.091003 -0.126983 -0.082408 0.154373 0.063730
2560 -0.058445 -0.188995 0.097605 -0.080071 0.146862 -0.020369 0.105312 -0.102568 0.075062 0.076803 -0.053368 0.090949 0.070576 -0.154213 0.049551 -0.055915 -0.020674 -0.140854 0.069420 0.006834 -0.034314 -0.039767 0.005698 -0.029977 -0.010807 -0.072545 -0.041632 -0.139578 0.219746 -0.246395 -0.078445 0.066021 -0.026681 -0.166438 -0.033676 -0.006224 -0.185577 -0.033043 0.127971 0.153684 0.028708 0.117807 -0.018249 0.069713 0.014141 -0.134413 0.091985 -0.006475 -0.131298 0.006716 -0.069779 0.022354 -0.192642 0.133798 -0.003231 -0.026311 -0.091709 -0.022680 -0.048516 -0.063783 -0.124510 -0.115493 0.085458 0.015216
151 0.281934 -0.503309 -0.104575 -0.314998 0.091000 0.300588 0.137202 -0.136206 -0.280691 0.125111 0.268992 -0.271206 0.328121 -0.162752 -0.270534 0.211208 -0.142660 0.108034 0.121272 0.056197 -0.208121 -0.640466 0.410407 0.115924 -0.299287 -0.226992 0.193292 0.065123 0.281335 0.015787 -0.278740 0.364219 -0.016478 0.373368 -0.143391 -0.191876 0.070845 -0.102527 -0.208316 0.194916 -0.459866 -0.015065 0.021484 -0.095680 0.110728 0.271232 0.232101 0.366585 -0.196957 0.399680 -0.023273 -0.071432 -0.082704 -0.139411 0.205603 -0.301466 -0.054193 -0.295494 -0.121263 -0.055224 -0.118574 0.537651 0.133948 -0.093628
10 -0.144681 -0.523719 0.062202 0.002203 0.066468 -0.160282 -0.352956 -0.508584 -0.024061 -0.065946 0.602747 -0.070815 0.148682 -0.127941 -0.030614 -0.131932 -0.052014 0.543565 -0.300631 0.199110 -0.151920 -0.553213 -0.329966 -0.142519 -0.225662 0.198651 -0.271455 -0.308362 0.059443 -0.223086 0.046401 0.226980 -0.034542 0.299000 0.301223 -0.127049 0.152915 0.244707 -0.166316 -0.040950 -0.366339 0.058483 -0.418406 0.045300 -0.197461 0.110714 -0.096764 -0.112069 0.835335 -0.106971 0.363701 0.029131 0.093965 -0.513326 -0.281781 0.236710 0.079965 -0.111448 -0.005423 -0.030085 0.456608 0.059473 0.077238 0.219703
12 -0.802896 0.064362 0.158963 -0.170570 0.026738 0.428233 -0.453968 -0.338818 -0.354016 -0.608512 -0.036220 0.121409 0.030679 -0.163852 -0.386656 0.171295 -0.297710 0.281819 0.243246 0.480336 0.192332 -0.285134 0.137684 -0.393358 0.103787 0.728827 0.075212 0.098044 -0.055867 0.189983 -0.264493 -0.366180 0.245856 0.152502 -0.187481 0.242060 -0.087010 -0.143674 -0.294306 -0.046761 0.245706 0.338910 0.268014 -0.027468 -0.069623 -0.200649 0.125053 0.005350 0.054229 0.384771 -0.421578 0.010649 -0.013143 -0.281745 0.193734 -0.179695 -0.353309 0.371006 0.198850 -0.296013 -0.094172 -0.351936 0.269669 0.256426
2658 -0.150231 -0.126144 -0.031594 0.052920 0.133065 -0.027484 -0.012152 -0.028499 0.038714 0.096864 0.010526 0.012178 0.021780 -0.070019 -0.130216 -0.088114 0.099910 -0.203640 -0.022994 -0.077445 -0.055701 0.017088 -0.031798 -0.028222 0.064879 -0.092868 -0.016170 -0.079829 0.129567 -0.244177 -0.080002 -0.145178 -0.008871 0.019199 0.100421 -0.046530 -0.202223 -0.007063 0.068102 0.282659 0.060617 0.067270 -0.026203 0.072189 0.050093 -0.072464 -0.069749 0.025923 -0.001823 -0.007394 -0.126417 0.114736 -0.114132 0.135672 -0.022460 0.034381 -0.097859 -0.104725 0.002600 -0.072013 -0.142877 -0.054193 0.003140 -0.137435
106 0.687663 -0.067555 0.436481 0.094536 0.092796 -0.163728 0.077052 0.203804 -0.445096 -0.029550 0.265562 -0.145455 0.350245 -0.066396 -0.008789 -0.018552 0.194428 -0.256576 -0.304017 -0.206287 -0.208805 -0.443296 0.166548 -0.040580 0.511815 -0.524484 -0.345941 -0.706237 -0.462012 0.277567 0.091161 -0.492014 0.084176 0.134575 -0.520465 0.060403 -0.580050 0.467476 -0.065012 -0.342709 -0.312377 -0.203665 -0.551317 0.190942 -0.569691 -0.379792 -0.134933 0.028057 -0.019900 0.313151 -0.131995 -0.457425 0.556167 0.290958 0.230948 0.425134 0.047686 -0.103147 -0.498535 0.570192 0.052072 -0.138178 0.696742 -0.102498
435 -0.132632 -0.092908 0.026328 0.109150 0.094818 -0.041312 0.064059 0.052470 0.029347 -0.034433 -0.081270 -0.012691 -0.012002 -0.006869 -0.004643 -0.192152 0.013898 -0.118487 0.109620 -0.034852 0.064564 -0.086291 -0.029501 0.003238 0.007274 -0.039933 -0.079600 -0.041446 0.071609 -0.203571 0.002319 -0.083458 -0.177046 0.091333 0.144187 -0.016370 -0.024967 -0.028314 0.086831 0.157558 0.190614 0.177662 0.043687 -0.030600 -0.025002 0.058904 -0.111053 -0.082056 0.016187 -0.173378 -0.036147 0.139238 -0.089349 0.138583 -0.045172 0.063565 -0.011816 -0.060466 -0.069420 0.047843 -0.108197 -0.062890 0.100784 0.011789
218 -0.368464 -0.061944 0.305433 -0.009993 -0.031818 -0.310194 0.121542 -0.053289 0.066569 -0.033360 0.173499 -0.086382 -0.216839 0.286425 0.010369 -0.272034 0.017365 0.812995 -0.001230 0.198785 0.061684 0.060178 0.516815 0.042856 -0.208235 0.170090 0.041597 0.108235 0.102273 0.232753 -0.266928 -0.636244 0.088999 0.147841 0.328901 0.435646 -0.129268 0.107820 -0.597059 0.359443 -0.337035 0.013623 0.155407 -0.263218 0.351194 -0.114826 0.040093 -0.069319 -0.473337 0.423203 0.438916 0.301867 -0.115642 -0.184651 0.098624 0.502167 -0.013496 0.135475 0.095713 0.459250 0.244636 -0.138811 0.331126 -0.148933
246 0.446770 0.286167 -0.052271 -0.069575 0.027778 0.154761 -0.339137 0.306728 0.088804 -0.384249 0.366495 -0.028740 0.366681 -0.049302 -0.599426 -0.873567 -0.067139 -0.419459 -0.114159 -0.038287 -0.516662 -0.434768 -0.032753 -0.307476 0.323441 0.036592 -0.011658 0.321511 0.039397 -0.194774 -0.131563 -0.198305 0.160367 0.152820 0.300608 -0.082768 0.113709 -0.072062 -0.141666 -0.414068 -0.043162 0.258392 -0.192416 0.221373 0.069877 0.049611 -0.035552 -0.135002 -0.151107 0.532699 0.158873 0.653653 0.155973 -0.104375 -0.058071 -0.005450 0.275947 -0.625102 -0.023013 0.396124 0.587422 0.162872 0.286640 0.311672
111 0.095881 0.378356 -0.686306 0.151840 0.022421 0.223880 -0.046492 -0.128833 0.053317 -0.370317 0.386702 -0.092729 0.517014 0.755833 -0.198956 -0.195380 0.424388 -0.012682 0.208844 0.554572 0.158702 0.322632 -0.426583 -0.131911 -0.477737 0.841684 -0.217296 -0.418172 -0.143981 0.123268 -0.370365 -0.358677 -0.370735 -0.931008 -0.876581 0.827730 -0.139865 -0.151448 0.873697 -0.310156 -0.764474 -0.228434 0.303891 0.091170 0.473992 -0.234650 0.076987 0.527502 0.349912 -0.059808 -0.073301 0.062120 0.364110 0.213268 0.440992 0.256001 0.102302 0.290132 -0.029923 -0.318855 -0.165587 0.332544 0.004679 0.043376
63 0.356929 -0.213955 -0.052220 0.075003 -0.081039 -0.238884 -0.317952 0.319457 -0.219916 0.077194 0.581788 0.515178 0.435260 0.546757 -0.331456 0.551888 -0.164291 0.537866 0.453460 0.176026 0.016566 0.160648 0.108412 0.392635 -0.072459 0.421373 0.751372 -0.209659 -0.543696 -0.797188 0.104637 -0.059536 -0.123509 0.289403 -0.060148 -0.877001 -0.243022 -0.210869 -0.022087 -0.004974 0.100135 -0.579878 -0.315818 0.171946 0.052896 -0.164904 0.669495 0.079000 -0.456097 0.504049 0.090776 -0.624388 -0.095831 0.083497 0.170416 0.307552 0.324375 -0.602208 -0.151755 0.003278 0.307052 0.097274 0.134545 -0.086063
4 -0.202012 0.286982 0.523381 0.719778 0.148672 -0.391834 -0.030520 -0.151000 0.538873 -0.463198 0.382213 0.272548 0.425563 -0.213223 0.506828 -0.070121 0.265569 0.305881 -0.040828 -0.134686 -0.475876 -0.008587 -0.140651 -0.010815 0.108897 0.395493 0.492739 -0.170587 0.161182 0.283332 -0.219815 0.158441 0.225989 0.298525 -0.566710 -0.061313 0.384508 0.414867 0.649287 -0.174860 -0.062889 0.189047 -0.521982 -0.446874 -0.044278 0.229499 0.230310 0.147922 -0.451099 0.269469 -0.251698 -0.521205 0.534247 0.400805 -1.043181 -0.230503 -0.172364 -0.184657 -0.019175 0.534132 -0.187469 0.195464 0.037007 0.414332
140 0.035428 -0.065904 -0.026990 -0.078582 -0.177625 0.190460 -0.068770 0.397232 -0.215365 -0.232695 0.084116 -0.174186 -0.330470 -0.032769 0.240716 0.621726 0.070065 -0.236909 0.402834 -0.153209 0.123444 -0.391017 0.336107 0.228263 0.086788 0.154278 0.237022 0.361790 0.035956 0.129622 -0.082111 -0.158897 -0.063926 0.245922 0.042300 -0.168904 0.023653 0.210053 0.389997 0.034942 -0.187186 0.069563 0.190029 0.177207 0.147739 0.058594 0.247947 -0.085673 0.120062 0.288649 0.390991 0.106103 -0.174641 0.403300 0.391466 0.164027 -0.502197 -0.066943 0.371143 -0.059738 -0.092433 0.091363 0.219972 0.031843
4236 -0.085961 0.001981 0.087155 -0.015817 0.165517 -0.083500 0.083697 0.056595 0.076971 0.048383 -0.043014 0.114917 0.180112 -0.174414 0.149850 -0.270729 0.044845 0.063422 0.102774 -0.000600 0.010745 -0.115871 -0.089640 -0.076068 0.108704 -0.094062 -0.119060 0.030712 0.105803 -0.200985 -0.020556 0.059238 -0.147286 -0.057915 -0.041661 -0.135022 -0.102715 -0.078660 0.136639 0.082665 0.148205 0.145941 -0.020822 -0.076173 0.055219 -0.116693 -0.019783 0.011502 -0.120039 -0.101954 0.013158 0.216555 -0.162233 0.163586 -0.128739 0.093089 -0.003081 0.117130 -0.035766 0.007398 -0.158916 -0.018007 0.217222 0.030241
78 0.412303 0.021827 -0.324280 -0.319496 -0.102626 -0.275498 -0.546255 -0.039140 0.010921 -0.467331 -0.200923 0.526113 0.020573 -0.061322 -0.775533 0.496277 -0.585561 -0.289603 -0.079287 0.277491 -0.089059 0.001659 0.171596 -0.563504 0.052680 0.065796 0.141704 0.343836 0.073690 0.202632 -0.243965 0.259040 0.042671 0.066478 -0.476806 0.679427 -0.637687 0.183983 0.077577 0.337743 -0.007342 0.055307 -0.580295 -0.251826 -0.214334 0.299881 0.304688 -0.549953 -0.209197 -0.341358 -0.264762 0.160754 0.246535 -0.010636 0.138924 0.115554 -0.324932 -0.311768 0.144851 0.127905 0.175835 -0.160307 -0.090441 0.595765
101 -0.396022 -0.111629 0.021351 -0.301999 -0.577561 -0.147090 -0.247005 0.121010 -0.233823 0.280249 0.160118 0.059908 0.008652 -0.124704 0.117303 0.396993 -0.291341 -0.306924 0.375924 -0.058252 0.400970 -0.512604 0.306805 0.250964 0.109943 0.399814 -0.047172 0.055415 0.297776 -0.067907 0.201577 -0.161879 -0.076837 -0.114395 0.305520 -0.220346 0.486058 0.128487 0.031887 -0.248657 0.460789 0.178325 0.208609 -0.605246 0.358052 0.274302 -0.006360 0.683102 -0.409961 0.289618 -0.389410 0.515605 0.071563 -0.072081 -0.008720 0.009402 -0.221031 -0.229866 -0.062439 -0.460632 0.143773 0.031444 0.162904 0.105394
220 0.136980 -0.130163 -0.064336 0.153373 0.080041 0.082295 -0.078748 -0.128907 -0.001170 -0.125992 0.149992 0.027427 -0.015950 -0.295972 0.509174 0.362222 -0.499875 0.065809 -0.120255 -0.016808 0.275559 -0.205941 -0.083428 -0.019203 0.140206 0.292932 0.125235 -0.129341 -0.000365 -0.356097 0.631374 0.377210 -0.036137 0.067925 -0.133052 0.161190 -0.016998 0.426558 0.027835 -0.233323 -0.105743 0.005657 -0.292063 0.085956 -0.172034 -0.439826 -0.400989 0.111928 0.181980 0.333977 0.368954 -0.059012 -0.140945 0.108870 -0.019386 -0.191751 0.089649 -0.152454 -0.092560 0.206279 0.265059 -0.226045 -0.124905 -0.170006
1306 -0.246935 -0.022895 0.058681 0.039963 0.049912 -0.059147 0.077027 -0.107523 0.010933 0.057882 -0.036290 0.116587 0.077703 -0.083827 -0.039318 -0.215238 0.010654 -0.106542 0.092364 -0.068100 0.159655 -0.020729 -0.204927 -0.106985 -0.151775 -0.176009 0.096366 -0.097529 0.086457 -0.075607 0.013079 0.140203 -0.027919 0.022392 -0.019028 0.147270 -0.117221 0.035218 0.221669 0.069879 0.101418 0.046822 -0.031473 -0.202041 -0.081330 -0.053762 -0.130860 0.016995 -0.062893 0.110918 -0.013312 0.075669 -0.156075 0.040420 -0.055822 0.137672 0.059399 -0.021495 -0.005776 -0.080243 -0.139293 0.038508 0.182248 -0.000576
113 0.140490 0.171499 0.249281 0.017728 -0.031072 -0.175555 0.169787 -0.023872 0.028186 0.161834 0.182140 -0.584790 -0.124434 -0.091168 -0.050209 0.686098 -0.467241 0.227970 0.584720 -0.658326 -0.139135 0.230729 0.153870 -0.156302 0.383292 0.302424 -0.367834 -0.104862 0.126302 -0.257705 -0.287813 0.137402 -0.001654 0.053186 -0.535704 -0.112912 0.325906 -0.129655 0.012077 -0.043593 -0.119197 -0.241089 0.227316 0.415932 -0.427199 0.072544 0.423076 0.500225 -0.132821 0.433683 0.033434 -0.096231 -0.627387 -0.062985 0.234381 0.493395 -0.053678 -0.152814 0.271514 -0.304093 -0.279392 -0.126485 -0.146288 0.213686
214 0.119571 0.162553 -0.015392 0.226409 0.103214 0.397188 -0.097720 -0.129466 0.293872 0.381242 0.085289 0.102975 -0.420614 -0.072528 0.179507 0.415833 -0.172884 -0.462741 0.126866 0.191767 0.017016 0.516406 -0.039531 -0.391820 -0.136039 0.195744 0.137895 0.243813 -0.355982 0.105740 -0.651099 0.029122 0.041958 0.285776 -0.117040 0.553066 -0.302172 0.313818 0.042498 -0.119782 -0.003497 0.285677 -0.159793 0.206517 -0.290479 -0.039085 0.235435 0.341266 0.260611 -0.002877 0.043024 0.541306 0.045948 0.178001 0.059968 0.028287 -0.334205 -0.321380 0.302352 -0.212578 0.186992 -0.434107 0.252884 0.037358
27 0.043564 -0.420023 -0.298545 0.173231 -0.251119 0.010169 -0.250537 -0.011254 0.077188 0.332228 -0.125787 0.004576 -0.231274 0.156479 -0.057105 0.025094 -0.219957 -0.314071 0.168251 0.314976 -0.301398 -0.300986 0.285117 -0.125713 -0.358607 0.170433 0.231329 0.490921 0.213638 0.157400 -0.192058 -0.109615 0.234689 -0.320640 -0.149622 0.393388 0.009576 0.020734 0.235298 -0.091209 -0.250294 -0.031223 0.123366 -0.099423 -0.422868 -0.061603 -0.141978 0.165905 0.143464 0.112645 0.159580 0.421187 0.094874 0.176466 -0.099312 0.469646 0.270560 -0.137117 -0.221748 0.023966 0.242252 -0.338337 -0.063874 -0.425126
182 0.216714 -0.084593 -0.060758 -0.372050 -0.131880 -0.183517 -0.415987 0.040150 0.341738 -0.132487 0.290730 -0.214735 0.105047 -0.431630 -0.272411 0.043361 -0.197946 -0.154890 -0.093783 -0.246061 0.047317 -0.130273 0.373874 -0.060024 -0.152756 0.067589 0.374562 -0.443873 0.415714 0.329045 -0.043223 -0.057447 -0.258635 0.613497 -0.073071 -0.104985 0.369024 0.135472 -0.411439 -0.052452 -0.156082 0.035792 -0.122390 -0.546704 0.553727 0.172946 -0.393686 -0.034962 0.449550 0.025228 0.516822 -0.168024 0.188537 0.069155 -0.088346 0.192215 -0.045315 -0.289215 -0.434211 -0.126387 -0.290963 0.554892 0.215141 0.025337
260 -0.173635 -0.020074 0.272607 -0.486346 0.022524 -0.119502 0.301026 0.351520 0.070519 0.178729 0.201187 -0.143428 0.452784 0.096635 -0.108796 -0.005253 -0.273057 -0.100281 -0.110245 0.180530 -0.003193 -0.003356 0.011336 0.219626 -0.297384 0.360876 -0.597964 0.047417 0.248258 0.155211 -0.087803 0.131611 -0.098255 0.171886 -0.344741 -0.010502 0.405177 0.403634 0.260655 0.046415 -0.130900 0.079588 -0.103396 -0.567390 0.154168 -0.212639 -0.317435 -0.370561 0.265070 -0.229813 0.614650 0.338700 0.164824 -0.386711 0.037315 0.473685 -0.165766 -0.337333 -0.109950 0.456898 -0.149581 0.141191 0.209785 -0.188421
48 -0.212865 -0.503345 0.158383 -0.237894 0.165810 0.603783 -0.002600 -0.225338 -1.041902 0.029089 0.099810 -0.539046 -0.395141 0.671079 -0.298397 -0.128321 0.267074 -0.534006 0.534042 0.240058 -0.615429 0.657851 0.435558 0.423250 0.707937 0.070390 0.780400 0.243262 0.291500 0.073199 -0.036293 -0.170203 0.238403 0.450912 -0.257348 0.238813 0.223427 0.099650 -0.617532 0.042250 0.026452 -0.357567 -0.289725 0.006695 0.356933 -0.041962 -0.382929 0.029480 0.078777 0.091343 0.012818 -0.101800 0.457535 -0.089929 -0.621090 -0.036529 0.146849 0.481645 -0.453864 0.435261 -0.168319 -0.066128 -0.606288 -0.055651
72 0.175355 -0.086457 -0.357348 -0.124529 0.287083 -0.162902 0.087128 0.019655 0.070089 0.063390 -0.251058 0.156941 -0.102475 0.099007 0.433302 0.034667 -0.767385 -0.304230 0.385587 0.381839 0.070093 -0.362807 0.090927 0.170206 -0.124506 0.345780 -0.147094 0.136619 -0.102208 0.095847 -0.758000 0.124401 0.201608 -0.048955 -0.315435 0.101852 0.294943 0.281576 -0.047137 -0.083357 -0.032263 0.163661 0.061848 0.062936 -0.002300 0.314792 -0.214599 0.148825 -0.060290 -0.516126 0.143270 0.350545 -0.273045 0.412761 -0.013432 0.260188 -0.113083 -0.094825 -0.044014 -0.098987 0.373918 -0.226915 -0.058981 0.026466
2073 -0.163942 -0.241250 0.032611 0.139345 0.139998 -0.085724 0.092379 0.004558 -0.046300 -0.004311 -0.181115 -0.077584 0.003956 -0.133010 0.056618 -0.108832 0.114506 -0.095470 0.212635 -0.237366 -0.002454 -0.030394 -0.088060 0.018504 0.180022 -0.073969 0.092732 -0.012609 0.104133 -0.180055 0.127095 -0.009476 -0.027373 0.040929 0.017133 0.052551 -0.185109 -0.116518 0.133868 0.188198 0.049279 0.034809 0.050753 0.012177 -0.014961 0.088359 -0.095074 -0.180389 0.012464 -0.019189 -0.036661 -0.012896 -0.155403 0.026666 -0.136889 -0.023966 0.059367 -0.005689 -0.080983 -0.172344 -0.030327 -0.069254 0.078743 -0.060918
287 -0.161029 -0.327752 0.115090 -0.014047 0.090848 0.014256 0.096333 -0.224001 -0.164963 -0.025247 -0.021239 0.123192 0.093365 -0.106840 -0.042189 -0.157114 -0.043656 -0.085240 -0.000164 -0.218133 0.094281 0.021211 -0.127305 -0.076685 0.043459 -0.086506 -0.164940 -0.010682 0.244072 -0.288759 0.054580 0.108756 0.004857 0.006286 -0.122474 0.151930 0.072691 -0.185805 0.112171 0.114037 0.079719 0.020959 -0.026900 -0.093426 -0.071042 0.076613 -0.097754 0.019082 -0.045728 0.137596 -0.135920 0.110958 -0.205382 -0.026340 -0.192148 0.057893 -0.082810 0.164286 -0.052000 0.023593 -0.089409 -0.091435 0.171436 0.011704
829 -0.128228 -0.152735 -0.084036 0.000950 0.093758 -0.110755 0.080898 0.025254 0.113061 0.087198 -0.095612 0.121291 -0.122113 -0.032051 -0.058186 -0.127512 -0.184519 -0.072713 0.046805 -0.160809 -0.041604 -0.069849 -0.051723 -0.080061 -0.136627 -0.043284 0.130603 -0.048208 0.140116 -0.036836 0.052115 -0.021426 -0.099627 0.004550 -0.039173 -0.052978 -0.066324 -0.189550 0.081146 0.219355 0.111438 0.037982 0.114700 0.085699 -0.091562 -0.179966 0.001063 0.010140 -0.056516 0.157612 -0.081637 0.084547 -0.253017 0.135475 -0.035673 -0.009253 0.038897 -0.106108 -0.100700 0.088984 -0.159286 -0.117999 0.047732 0.028096
3406 -0.074167 -0.129989 0.210173 0.007649 0.116351 -0.148440 0.017543 -0.032719 0.139945 0.146834 -0.068146 -0.024299 -0.033816 -0.180043 -0.003326 -0.272640 -0.050852 -0.125126 0.076724 0.004029 0.038568 -0.074314 -0.183188 0.032990 -0.063693 -0.062140 0.094366 -0.058486 -0.055986 -0.211975 -0.080590 0.057186 -0.065806 0.066172 0.104501 -0.067648 -0.110996 -0.139427 -0.024023 0.205769 0.006697 0.067626 0.118850 0.000271 -0.039960 -0.091882 0.083261 0.074837 -0.145906 -0.040919 0.199465 0.085668 -0.031628 0.258909 -0.017260 0.058415 -0.012773 0.026794 0.150932 0.048577 -0.008524 -0.089635 0.164337 -0.051794
627 -0.174348 -0.032255 0.079757 0.116175 0.113454 -0.102153 -0.023598 -0.015337 0.086444 -0.080909 -0.019371 0.027595 0.118931 -0.014104 0.023021 -0.031951 -0.181701 -0.200955 0.049867 -0.180338 0.142569 0.072859 -0.232441 0.063019 0.012787 -0.157014 0.091769 -0.060205 -0.025722 -0.167692 0.121610 -0.082964 -0.124917 0.084423 -0.155988 -0.017825 -0.235658 -0.091475 -0.027100 0.253830 0.196473 0.056713 0.024183 0.097854 -0.098018 0.038575 -0.006337 -0.001131 -0.040776 0.042770 -0.058927 0.102905 -0.278852 0.019600 -0.022361 0.019412 -0.046196 -0.096097 -0.056011 -0.069920 -0.096093 -0.006469 -0.032766 -0.095348
18 0.044820 -0.123267 0.088637 0.115953 -0.298130 -0.095914 0.043363 0.322893 -0.277258 -0.233685 0.270193 0.361104 0.202974 -0.070778 -0.109330 0.289041 0.002764 0.348821 0.281651 0.282339 0.042592 -0.385899 0.112864 -0.166458 0.018277 -0.302269 0.288181 0.324664 -0.044647 -0.144530 0.139852 0.010526 0.166135 0.000660 0.190637 0.240913 0.010455 0.484201 -0.412327 -0.042477 -0.302296 0.232254 -0.258100 -0.070686 -0.218364 0.120775 0.050700 0.036513 -0.057811 0.046012 -0.203550 0.152642 -0.248941 0.550387 -0.076955 0.066846 0.040850 -0.194635 0.004557 -0.150901 0.053859 -0.334359 0.356600 0.066001
165 0.038294 -0.037638 0.044287 -0.097356 0.185025 0.170278 -0.010097 -0.376619 -0.037725 -0.132132 0.161817 -0.248700 0.422881 -0.382693 0.214899 0.202726 0.090185 0.448385 0.094674 0.150388 0.224901 -0.138214 -0.144528 0.065042 -0.129688 -0.023143 -0.046305 0.015417 0.069331 -0.265039 0.037802 -0.069464 0.061447 0.114283 0.008029 0.065156 -0.237953 0.216365 0.161841 -0.113205 -0.347359 -0.048171 -0.342562 0.030403 0.297188 -0.528282 -0.036085 -0.142447 0.194752 0.124328 0.283093 0.264020 -0.295213 0.042933 -0.009542 0.251164 0.347534 0.021538 0.238866 0.000306 0.271054 -0.326152 0.175605 0.329489
185 -0.170590 -0.161843 -0.143713 0.102037 -0.056080 0.113292 0.029192 0.380958 0.151073 -0.458470 -0.004673 0.281174 0.365220 -0.276612 0.481523 0.481265 0.347167 -0.353739 -0.099570 -0.188531 0.174437 0.190908 -0.437730 0.063640 0.167110 0.475956 0.336308 0.002255 -0.119042 0.280251 -0.124248 0.239301 0.048019 0.067508 0.183970 0.117758 -0.116297 0.417456 -0.278756 0.357391 -0.090475 -0.266176 0.011289 -0.504519 -0.129706 0.153005 -0.308677 -0.263022 0.085457 -0.178589 0.516854 0.115725 -0.208081 0.070402 0.343011 -0.275659 -0.235504 -0.654662 0.348644 0.053074 0.362142 -0.544761 0.212333 -0.234408
2194 -0.095677 -0.170810 -0.073123 0.056556 -0.066291 -0.159944 -0.078458 -0.186137 0.138162 0.170361 -0.103744 0.049715 0.076772 -0.097157 -0.057079 -0.136380 -0.123556 0.005314 0.044204 -0.061777 0.170363 -0.061763 -0.188948 -0.050161 -0.015290 0.073426 0.058097 0.065947 0.161994 -0.060415 0.017339 0.078728 -0.096848 0.050430 0.053965 -0.204810 -0.146197 -0.050763 0.171099 0.201475 0.138214 -0.101252 -0.089152 -0.028574 -0.172137 -0.028853 -0.052125 0.210408 -0.088754 0.014631 0.085799 0.171667 -0.147146 0.158240 -0.132719 0.084224 0.121208 0.045250 -0.155439 0.167634 -0.144895 -0.014969 -0.003523 -0.095542
26 -0.174467 0.261169 0.084127 0.393522 -0.471657 0.412774 -0.222316 0.221252 -0.735071 0.053830 0.321490 -0.382489 0.417873 -0.864233 0.063503 -0.096528 -0.118610 -0.733399 0.173523 0.611494 -0.140076 0.576853 -0.074669 0.099819 -0.522580 0.145595 -0.475115 0.134905 -0.266486 0.204908 0.109716 -0.613913 -0.490894 0.165933 -0.152493 -0.213471 -0.081909 0.635937 0.079508 0.469027 0.067805 -0.475087 0.254793 0.397781 0.108411 0.600308 -0.186082 0.175394 -0.088400 -0.124274 0.217696 -0.488274 0.184615 0.059483 -0.052664 -0.436988 0.112095 0.317878 -0.358467 -0.304399 0.564568 0.052974 -0.057741 -0.263016
164 0.069989 -0.341194 -0.121552 -0.181703 0.148017 -0.237201 0.129776 0.023924 -0.273900 0.055368 -0.044388 -0.213680 0.299929 0.038064 -0.070182 -0.055705 -0.095851 -0.013482 0.100382 -0.208375 0.304825 -0.264914 0.269413 -0.031077 -0.151859 -0.039984 -0.387959 0.190519 -0.460088 0.029032 0.098925 0.151688 -0.125396 0.379917 0.107975 0.291521 0.270851 0.335753 -0.001111 0.331235 0.038410 -0.437497 -0.112512 -0.432852 -0.258494 0.232988 -0.140407 0.001507 0.241704 0.307662 0.081806 -0.032905 0.105654 -0.349429 -0.283637 0.426725 -0.096166 0.057120 -0.090113 0.456577 0.329951 -0.353951 0.103148 -0.343882
225 -0.418408 -0.485154 -0.156127 -0.200412 -0.201139 0.044943 -0.085567 -0.348724 -0.190562 -0.273523 -0.023930 -0.089072 -0.027175 -0.126783 0.293016 0.395200 -0.298192 -0.033107 0.050440 -0.166207 0.399616 -0.107562 -0.181354 -0.027881 -0.239216 0.100659 -0.102542 0.038244 0.029653 0.072590 -0.167118 0.054867 0.313951 0.271937 -0.067346 0.034152 -0.142866 0.143267 0.109445 -0.332247 -0.015200 -0.325874 -0.268817 -0.119982 -0.110602 0.036476 -0.060660 -0.179244 0.162078 0.069506 0.225181 0.311699 0.213919 -0.061354 -0.245223 -0.109182 -0.242063 0.041777 -0.250230 -0.032117 0.100922 0.083434 -0.019781 -0.188649
198 0.235095 0.466010 0.244266 -0.129265 0.101532 0.211512 -0.088572 -0.070915 -0.226324 -0.051295 0.006865 -0.112029 0.315262 -0.209778 -0.380402 -0.230587 -0.331899 0.147555 -0.183439 -0.030293 -0.203885 -0.332444 0.368225 -0.028809 0.044808 -0.244142 0.300461 0.033913 0.049051 0.057236 -0.011956 -0.209470 0.111101 0.109170 -0.461748 -0.141015 -0.066246 0.446781 -0.160131 0.052770 0.031227 0.365030 -0.019199 0.159477 -0.004012 -0.178800 -0.321760 -0.131340 0.432522 0.335107 -0.330974 0.475162 -0.112291 -0.346974 -0.105215 -0.174711 -0.283914 -0.292208 -0.248481 -0.091080 0.041321 -0.176441 0.216058 0.077532
1639 -0.143207 -0.258446 0.213680 -0.015265 0.109238 -0.081848 0.143426 -0.053676 -0.159575 0.129182 -0.113075 -0.057998 -0.012299 0.068367 -0.040996 -0.220629 -0.074640 -0.011982 0.077205 0.021435 0.016702 0.130761 -0.192808 -0.062143 -0.050390 -0.096826 0.168140 0.019701 -0.082195 -0.258767 0.071589 -0.028343 -0.028391 0.025340 0.097805 -0.026038 -0.093166 -0.102089 0.034424 0.319427 0.196832 0.237442 -0.005802 -0.119976 -0.098759 -0.068118 0.088592 -0.158049 -0.021969 -0.106509 0.105188 0.242844 -0.004641 -0.010718 -0.097797 0.044356 0.003683 -0.028527 -0.011907 -0.039273 0.085357 -0.088440 0.065569 -0.087149
125 0.186549 0.140941 -0.027865 0.087990 0.004869 0.115366 -0.482023 0.312605 -0.427299 -0.176867 -0.092631 0.076040 0.701677 -0.029135 -0.336763 0.156612 -0.009973 0.640256 0.203782 0.156587 -0.104327 -0.247619 0.627592 -0.204890 -0.180370 0.281638 -0.096256 -0.297666 -0.100377 -0.265686 0.161877 -0.074123 0.375339 -0.328054 -0.366290 -0.409862 -0.213241 -0.126991 -0.079361 0.433113 -0.274592 0.225876 -0.001229 0.329590 -0.202955 0.050320 0.023589 0.100821 0.640727 0.769269 -0.103369 0.155998 -0.231049 -0.060589 -0.049392 0.336608 -0.306788 0.187446 -0.290004 0.009546 -0.272889 -0.346689 -0.351474 0.051088
167 0.179600 0.213288 -0.350190 -0.138755 0.105017 -0.197501 -0.026895 0.154964 0.364511 -0.205786 -0.062093 0.326796 -0.069678 0.058161 0.031260 0.456892 -0.125406 -0.003084 -0.058875 0.361632 -0.150012 -0.238045 0.121750 -0.440063 0.059271 0.085810 0.437479 0.156222 -0.527811 0.194788 -0.115380 -0.022476 -0.009971 0.029704 -0.098167 0.398684 0.144557 0.061206 -0.489494 -0.036286 -0.326655 0.215728 0.172134 -0.271968 -0.132124 0.084943 0.024388 0.109816 0.642817 0.465490 -0.029714 0.739759 -0.189786 0.323110 -0.259709 0.288645 0.023946 0.098212 -0.435405 0.106384 0.021026 0.126692 0.146910 0.246442
4104 -0.174930 -0.174552 0.155590 -0.085338 0.070610 -0.122833 0.156548 -0.129588 0.148838 -0.034528 0.028375 -0.016728 0.014031 0.086359 -0.059939 -0.135840 -0.119618 -0.030885 -0.143566 0.022135 0.066095 -0.116784 0.034017 -0.026609 -0.018135 -0.244384 -0.075789 -0.079697 0.142599 -0.182225 -0.026161 -0.004036 0.102743 -0.033413 0.036714 0.125651 -0.088743 -0.280669 0.113431 -0.021016 -0.038348 0.043439 0.087172 0.226395 -0.088125 -0.051124 -0.022953 0.085573 -0.006024 -0.027009 0.047505 0.190185 -0.135157 0.181321 -0.164646 0.057518 0.064272 -0.003410 0.014098 -0.008723 -0.120764 -0.038604 0.114799 -0.165709
215 -0.146822 0.128962 0.387962 0.150220 -0.209868 -0.149364 0.592211 -0.088758 -0.229669 -0.179888 0.102544 0.325072 -0.007807 -0.384888 -0.421124 0.053659 0.166231 0.151197 0.108047 -0.234249 0.092450 0.263298 0.086043 -0.094736 0.101630 0.402112 -0.122747 0.427514 0.070503 0.150503 -0.430622 -0.002827 0.454348 0.256981 -0.310216 0.038060 -0.052588 0.300198 0.279041 0.078822 -0.104392 -0.343605 -0.270982 -0.191773 -0.002988 0.073832 0.033792 -0.210858 -0.312979 0.180151 0.080117 0.114531 -0.034768 -0.011229 -0.036079 -0.270255 -0.600678 -0.149212 -0.205795 -0.129010 -0.137987 -0.416457 0.094575 -0.595502
181 -0.457728 -0.259391 -0.239822 -0.425384 0.349909 0.007285 -0.429693 0.130352 0.095907 -0.122736 0.083927 0.380295 -0.153345 -0.638354 -0.105528 0.161916 0.153574 -0.204415 -0.158298 -0.208456 -0.380648 -0.328360 0.305170 -0.147210 -0.057943 0.593247 -0.268482 -0.040143 0.110784 0.142523 0.177965 0.551258 0.107854 -0.011042 0.246920 0.178734 0.079363 0.107944 0.208072 -0.240591 0.101886 -0.248359 -0.186086 0.191458 0.644923 -0.385613 -0.644381 0.145417 0.399590 0.204478 0.213529 -0.138193 0.059009 -0.054959 0.043928 -0.157123 -0.051345 -0.351825 -0.423982 -0.120119 -0.056673 0.034816 0.225134 0.236926
179 -0.017178 -0.075354 0.183162 -0.130730 0.267178 -0.042147 0.161954 0.512125 -0.059880 -0.035529 -0.286344 0.005408 0.051932 -0.346942 0.276338 -0.160253 -0.178321 -0.481612 0.134308 0.277313 0.133570 -0.163400 -0.045229 -0.108986 0.024450 0.181436 0.111508 -0.047460 -0.026709 0.691783 -0.187793 -0.260586 0.388796 -0.151534 -0.065908 0.045643 -0.170458 -0.114356 0.325737 -0.376196 -0.233913 -0.249222 0.214868 -0.378215 -0.039204 -0.173334 -0.606562 -0.041730 0.524948 0.308250 0.454832 0.145620 0.074036 -0.247687 -0.014968 -0.442847 -0.097401 -0.208606 -0.080886 -0.254867 0.440861 -0.340623 0.277041 -0.500585
64 -0.011005 -0.213454 0.028137 -0.291854 -0.105637 0.167353 0.293687 -0.099867 -0.076078 -0.594841 -0.057913 0.069014 -0.105299 -0.080001 -0.402828 -0.184366 -0.140462 -0.127871 0.028609 0.207972 0.011089 0.027204 0.151409 -0.126229 0.116538 -0.177255 0.090022 -0.079709 -0.105939 -0.181057 -0.004283 0.260001 0.235584 0.452665 0.122120 0.261630 0.275472 0.207565 -0.194490 -0.165140 0.119618 0.240608 -0.320875 -0.186250 -0.188833 0.002706 0.032028 0.181325 0.207467 0.311827 -0.005587 0.101725 -0.365537 0.177819 0.039063 0.268052 -0.095477 -0.264984 -0.016719 -0.074658 0.324203 0.001086 0.162956 0.237765
133 0.034309 -0.237542 -0.097875 -0.176354 -0.076935 0.139935 -0.048461 -0.114656 -0.237970 -0.141946 -0.025811 -0.186990 -0.225321 -0.397815 -0.073963 0.110580 0.039337 -0.151535 0.237161 0.112005 0.039468 -0.036217 0.355746 0.002778 0.117215 -0.143548 0.631442 -0.027251 -0.114395 0.039675 -0.025403 -0.110508 0.256281 0.104546 0.102735 0.177852 0.273386 0.093060 0.273844 -0.292446 0.131973 -0.236806 0.121825 -0.095445 0.012827 -0.135337 0.034498 -0.014195 0.015006 0.010314 -0.014622 0.006115 -0.361724 0.385549 0.004709 0.296186 0.413129 -0.244406 -0.403530 -0.141179 0.469606 -0.100471 0.327115 -0.167382
152 0.397759 -0.058268 -0.550200 -0.030165 0.014450 -0.293847 -0.053137 -0.371982 -0.077511 0.725293 -0.029529 -0.129795 -0.255951 0.292299 -0.056077 -0.053506 0.401392 0.195647 0.105723 0.476663 -0.207273 0.418012 0.260446 0.078926 0.213741 0.532530 0.241801 0.328016 -0.384471 -0.025705 0.343897 0.297015 0.344531 -0.387903 0.264932 0.038359 -0.214935 0.134380 0.385297 0.539949 -0.348940 0.099358 -0.361204 0.171457 -0.022369 0.950769 0.353406 -0.029892 -0.340353 -0.060856 0.558611 0.312126 0.008844 0.186796 0.718786 -0.324241 -0.358457 -0.771189 0.262165 -0.073632 0.278471 0.100503 0.419128 -0.070689
117 0.348255 0.157761 -0.249219 -0.501669 0.110430 0.200069 -0.281252 -0.455535 -0.591346 0.207364 -0.133776 -0.058561 0.582071 -0.536248 -0.187677 0.083404 -0.035649 -0.024936 -0.538231 0.269292 -0.264785 0.480462 -0.205062 -0.091143 -0.053658 -0.249238 0.236513 -0.007786 0.049372 -0.299522 0.155844 -0.161797 0.493897 0.218170 -0.152398 0.191561 0.083611 0.270406 0.162992 -0.167315 -0.607613 0.158489 0.063942 0.519410 0.124263 -0.198537 -0.361760 0.372658 0.319411 0.094446 0.160070 0.271845 0.321446 -0.002602 0.055743 0.011977 0.166531 -0.250340 -0.107861 -0.483408 -0.182279 0.000323 0.370472 -0.374972
4097 -0.196042 -0.149629 0.058830 -0.029847 0.022132 -0.000728 0.082643 -0.082636 0.050706 0.028459 0.028339 0.045852 -0.163517 -0.014132 -0.128818 -0.072425 -0.027767 -0.108520 0.034073 -0.027624 0.230873 -0.085249 -0.131558 -0.101575 0.043264 -0.010357 -0.035976 -0.044043 0.113812 -0.147816 0.118544 0.122463 0.066976 -0.032695 -0.011205 -0.101536 -0.146781 0.012675 0.021907 0.250708 0.078101 -0.088049 -0.049878 -0.144905 -0.091833 -0.048785 -0.138992 0.031573 0.053283 0.019237 0.130815 0.145999 -0.205118 0.177458 -0.128292 0.217007 -0.015768 0.014606 0.057381 -0.154407 -0.082941 0.066799 0.107856 -0.045235
80 0.083646 -0.247065 -0.316007 -0.284431 0.228170 0.239349 0.064264 -0.147815 -0.093960 0.114141 0.032329 -0.497737 -0.041847 -0.010300 0.156176 0.105098 0.087275 0.190332 1.014976 -0.148428 0.057145 -0.318644 0.193837 -0.196598 0.050515 -0.218343 0.258819 -0.051223 -0.031608 0.207115 -0.355651 0.120140 -0.242478 0.382951 0.148239 0.473168 -0.562538 -0.235862 0.473166 -0.319249 -0.136760 0.199707 -0.256990 -0.052569 0.217582 -0.085002 0.292897 -0.027660 0.060038 0.085235 0.040458 0.018326 -0.098428 0.092877 0.197591 0.142837 -0.006338 0.212618 -0.136871 -0.125418 0.238727 -0.028378 -0.136214 0.186105
238 -0.122741 -0.195103 -0.018316 -0.083290 0.072499 0.194716 0.234452 -0.251702 -0.356771 0.054958 -0.277666 -0.372933 0.169550 -0.027887 0.719770 0.551672 -0.203182 0.131207 -0.406978 0.643732 -0.188754 -0.094354 0.130727 0.036963 -0.410011 0.316592 0.003439 -0.414943 0.281232 0.058494 -0.727547 0.253688 0.140491 0.118886 -0.089496 0.361721 -0.058325 -0.439859 -0.430286 0.125496 0.070688 -0.090928 0.077889 -0.541479 -0.125646 -0.290345 0.212795 0.781735 -0.095960 0.597249 0.149373 0.219552 -0.319675 0.158878 -0.353105 -0.157429 -0.025649 0.177613 0.180348 0.217023 0.425677 0.293218 0.239422 -0.087075
89 -0.330716 0.436474 0.409483 -0.114130 -0.143999 -0.646721 -0.045457 0.285722 -0.270888 -0.123420 0.209158 -0.779154 0.037467 -0.256614 0.174556 0.151360 -0.182988 -0.226899 -0.284441 -0.058542 -0.039916 -0.043844 -0.340645 -0.078881 0.178431 0.200697 0.191692 -0.007769 0.568721 -0.144467 -0.351754 0.444055 0.078758 0.191876 0.101067 0.081136 0.078568 0.492577 -0.100604 0.422867 -0.211461 -0.088494 -0.036611 -0.230926 -0.223139 0.295720 -0.104461 0.363654 0.430588 -0.312877 -0.468651 -0.250002 0.119694 0.747080 0.242728 -0.096283 -0.019532 0.037789 -0.141104 0.003646 0.649940 -0.037831 -0.320582 0.062816
206 -0.015518 0.269738 0.486936 0.180585 0.037787 0.300504 0.504555 0.263267 -0.477432 -0.742350 0.102940 -0.356322 -0.041463 -0.146691 0.295031 -0.048186 0.020018 0.186153 0.484890 0.433768 0.111689 -0.204726 -0.002079 -0.113409 0.373375 0.520593 -0.246206 -0.079327 0.261978 0.054022 0.339426 0.436230 -0.048735 0.204145 0.248228 0.253334 -0.061030 0.278921 -0.241861 0.093580 0.045921 0.091416 -0.074005 -0.253055 -0.056204 0.092098 -0.032548 -0.271902 -0.105562 0.313619 0.657570 -0.005694 0.244942 -0.349875 0.026334 -0.321606 0.066441 -0.298943 -0.064609 0.435385 0.187530 0.418281 0.295469 0.174489
294 -0.108827 0.027924 0.195017 0.012004 -0.097728 -0.010563 -0.093625 -0.217161 0.030849 0.071310 -0.114997 -0.236728 -0.060733 -0.184924 0.109132 -0.286174 -0.098668 -0.114892 -0.031340 -0.116063 0.036456 -0.009609 -0.219138 -0.165904 -0.001926 -0.104013 0.011783 -0.024894 -0.023506 -0.256437 0.129390 0.011368 -0.257954 0.120114 -0.076633 -0.060451 -0.201306 -0.129642 0.181322 0.051290 0.023157 -0.000844 -0.051378 -0.078724 -0.027465 0.123038 -0.019660 0.011969 -0.209419 0.130795 0.143698 0.265118 -0.086277 -0.034098 -0.098238 0.050117 0.148197 0.016862 0.056894 0.091437 -0.132225 0.067132 0.279410 0.175123
4152 -0.263334 -0.210300 0.221167 0.036180 0.113347 -0.185566 0.268908 0.004245 0.008816 -0.089471 -0.048925 0.050702 0.122845 -0.095191 -0.184440 0.034675 0.025796 -0.093817 0.082239 0.006056 -0.099425 -0.032426 -0.149136 0.038601 0.128008 -0.068845 0.071048 -0.045241 0.243190 -0.225409 0.028477 -0.094880 0.062126 -0.028468 0.071188 0.030612 -0.169443 -0.128550 -0.092483 0.222847 0.043749 0.102391 0.019169 -0.003940 0.022720 -0.087368 -0.046070 0.012185 0.045196 0.063194 -0.027392 0.048413 0.060000 -0.035380 -0.055675 0.020855 0.070095 0.025417 -0.112670 0.081823 -0.193866 -0.058610 -0.009057 0.056775
21 0.077673 -0.252156 0.103447 -0.058799 0.198636 -0.527396 -0.424048 0.165253 -0.282490 0.400522 0.347341 0.298325 -0.123266 -0.111663 0.098848 -0.077537 0.342729 0.399800 0.277350 0.141839 -0.294661 -0.742315 0.092892 0.280728 0.242074 0.054313 -0.052676 0.057217 0.005386 0.363896 0.383639 -0.000601 -0.531718 0.014058 0.313587 0.566579 0.661621 -0.283186 0.181750 0.367355 -0.185951 0.422818 0.130825 0.034588 0.043877 -0.211971 -0.043935 0.575505 0.047200 0.141012 0.370925 -0.484896 0.070502 -0.271775 -0.058834 -0.267489 -0.090160 -0.697509 -0.644957 -0.318663 -0.011908 -0.454197 -0.095423 0.114822
211 -0.030822 0.242348 0.244159 -0.015408 -0.143836 -0.398164 -0.090450 -0.291184 0.047484 0.044494 -0.144763 -0.426999 -0.001799 -0.022117 0.042551 0.040336 -0.018468 -0.402800 0.315058 -0.080190 0.280079 -0.119454 0.008536 -0.067316 0.042140 -0.009586 -0.281932 0.007051 -0.122230 -0.086598 0.437296 -0.064144 -0.101916 -0.280332 -0.122766 0.211268 0.212426 0.151650 0.284789 -0.070392 -0.095399 -0.085210 -0.169080 -0.477244 -0.048292 0.453480 0.218381 0.435503 0.156274 -0.201066 -0.044457 0.184571 -0.144570 -0.128843 -0.260669 -0.151223 0.178709 -0.317498 0.254230 -0.042352 0.248087 -0.491824 0.391937 -0.368124
15 -0.100331 0.206301 0.336993 -0.061111 -0.495799 0.124199 -0.439347 0.553330 -0.371085 -0.611243 0.093122 -0.275475 -0.209691 0.100714 0.195057 -0.173742 -0.185006 0.057667 -0.125094 0.343680 -0.422339 0.595291 0.379071 -0.218605 -0.407302 -0.096315 1.011873 -0.439068 -0.121939 0.291381 -0.223777 0.451380 -0.213241 -0.116457 0.016901 -0.248519 -0.339885 0.495655 -0.108528 -0.057733 -0.019251 0.207523 -0.211353 0.658312 -0.163376 -0.418990 0.220532 -0.044147 0.340950 0.643733 0.278803 -0.317696 -0.658399 0.129825 0.123654 0.118437 -0.054877 0.094335 -0.104890 -0.344125 -0.012672 0.027628 -0.053560 0.018597
232 -0.086531 0.236822 -0.467750 -0.157514 0.381444 -0.443731 -0.011463 0.357950 0.025817 -0.120629 0.138371 -0.382158 -0.254877 -0.066941 0.505799 -0.155130 -0.028683 -0.499412 -0.156420 0.415598 -0.549919 -0.046476 0.222484 0.109494 0.111992 -0.257390 -0.144778 -0.192110 0.190170 -0.317114 0.063455 -0.411301 0.050934 0.406643 -0.010614 0.120727 -0.380776 0.234378 0.136787 -0.396744 -0.605078 0.166237 -0.322880 0.136752 0.077601 -0.368011 -0.619973 -0.008724 0.062132 0.216827 -0.208647 -0.342135 0.068961 -0.336816 -0.189250 -0.334247 0.590790 -0.317359 0.606847 -0.647287 0.147909 -0.424360 0.059800 0.501768
149 -0.094602 -0.089976 -0.378112 -0.221483 0.210981 -0.286586 -0.018218 -0.294370 0.077749 -0.063956 0.316521 -0.638022 0.167621 -0.218073 0.089938 -0.105073 -0.060130 -0.320918 0.131944 0.061663 -0.046512 0.297744 -0.579935 -0.269444 -0.154488 -0.253499 0.029406 0.029849 -0.012450 -0.143502 0.256174 -0.184926 0.197433 -0.366780 -0.032962 0.251165 0.475462 0.275274 0.132808 -0.378214 -0.671024 -0.172308 -0.375374 0.108049 0.155396 0.009289 0.110568 0.019255 0.092039 -0.032047 -0.545962 0.152933 -0.195789 0.194515 -0.090778 -0.236385 0.113999 0.171068 -0.063140 0.244450 0.117232 -0.455039 -0.178245 -0.238330
3742 -0.331327 -0.209571 0.127512 -0.038182 0.091505 -0.110889 0.149776 0.135755 0.050521 0.260749 0.074427 0.146001 0.129231 -0.096513 -0.122229 -0.109230 -0.023670 -0.037315 -0.008332 0.023448 0.167033 -0.097275 0.000541 0.020292 0.095600 -0.102910 0.053542 -0.080152 0.107355 -0.163883 0.025065 -0.034971 -0.055631 0.119369 -0.003898 -0.002205 -0.258585 -0.028272 0.033229 0.119844 -0.096232 0.078530 -0.062423 -0.090227 0.157528 -0.187664 -0.196364 -0.060632 0.152767 -0.081594 -0.064850 -0.071501 -0.041282 0.152287 0.072995 0.049711 -0.270433 0.032441 0.046917 -0.129627 -0.115158 -0.130262 0.133262 -0.074759
212 -0.237867 0.352137 -0.034884 0.079108 0.059735 -0.039274 -0.041053 -0.167418 -0.183501 -0.039373 -0.139130 -0.255626 -0.002185 0.016402 -0.014986 0.013515 -0.254633 -0.089548 0.131932 0.302383 0.474480 -0.327242 0.156778 -0.102967 -0.438799 0.379403 0.040257 0.305203 -0.055538 -0.119677 0.079878 0.047851 0.201440 0.004054 -0.143844 0.238125 0.202398 -0.066247 -0.002685 -0.105703 0.030728 0.104155 -0.332634 -0.220905 0.156218 -0.312213 0.019368 0.258068 0.099461 0.255264 0.051797 0.452181 -0.066917 -0.105545 -0.039244 -0.057585 -0.204210 0.012319 0.136071 0.013464 0.033599 -0.346828 -0.079461 -0.343034
2148 -0.265693 -0.196391 0.160504 0.034780 -0.139743 0.054139 0.043550 0.126000 -0.001140 0.058396 -0.035303 0.034527 -0.013664 -0.066537 -0.060039 -0.086942 -0.139866 -0.238778 0.094193 0.025054 0.128897 -0.147850 -0.118902 -0.092257 -0.020822 -0.089251 -0.056937 0.036668 0.132463 -0.092707 0.112986 0.091007 0.112292 0.086200 0.133471 -0.036956 -0.068220 0.115198 0.170652 0.305372 0.175253 0.131123 -0.132421 0.043147 -0.135525 -0.160880 -0.076786 -0.126666 0.084721 0.009189 -0.021689 -0.010944 -0.166968 0.132749 -0.100767 0.147667 -0.099419 0.029932 0.141248 -0.018123 -0.048648 -0.049395 0.060599 -0.126171
5 -0.089762 0.128469 -0.243162 -0.253320 0.091001 -0.329897 0.504253 0.058917 -0.449910 -0.437462 -0.097981 0.378684 -0.124516 0.119222 -0.225976 -0.267747 0.965409 0.015459 0.443020 1.118893 -0.371494 0.000246 -0.160550 0.518055 0.744993 0.145579 0.095612 0.083550 0.183706 0.506794 0.425262 0.091724 0.016583 0.374585 -0.284529 -0.088771 -0.625715 -0.262559 -0.193112 -0.295319 -0.009769 0.156005 0.278886 0.087719 -0.133911 0.674235 -0.136298 0.039951 -0.193266 -0.671071 0.188300 0.032780 0.312882 0.562872 0.502640 0.149155 0.302334 -0.603340 0.145501 -0.136512 0.132234 -0.539755 0.254078 0.767625
7 -0.673154 0.033139 0.202137 -0.218778 -0.452944 -0.603475 -0.295309 0.811364 0.100437 -0.108109 0.141235 -0.046876 -0.201862 0.557673 -0.481045 0.103285 -0.376340 -0.499174 -0.172863 0.209174 0.400473 -0.156791 -0.032679 -0.007680 -0.441299 -0.495464 -0.230047 -0.027610 0.103976 0.251476 0.085482 0.046064 -0.063593 0.380906 -0.712007 -0.316870 -0.240065 -0.288792 0.001819 -0.738035 -0.626801 -0.499413 0.246622 -0.198278 0.085767 0.299081 0.590748 0.045723 0.084661 -0.142641 0.123289 0.112195 -0.370482 0.298146 -0.142895 0.421486 -0.456915 -0.077252 0.082118 -0.415331 0.313783 -0.132485 0.159648 0.246265
108 -0.034139 0.173606 0.671457 0.224223 -0.571078 -0.194762 -0.277384 0.264943 0.225527 0.045712 0.265542 -0.320899 0.550975 0.215752 -0.005764 0.203722 -0.094388 0.599538 0.248885 0.029797 0.011178 0.018274 -0.352627 0.092303 0.324616 0.033747 -0.337414 -0.052269 0.144356 0.049724 -0.235055 0.360558 0.043949 0.111580 0.153767 0.156101 -0.176880 0.271955 0.303562 -0.300275 0.018843 -0.046655 -0.313777 -0.580203 -0.008496 0.000037 -0.017584 0.091220 0.420928 -0.258050 0.457523 0.256960 -0.126472 -0.195228 -0.491590 0.292271 -0.136609 0.035204 0.081961 0.031087 0.024256 0.030023 0.483512 -0.276953
161 0.708633 0.025945 -0.032459 0.373396 -0.088332 -1.061426 -0.923170 -0.014560 -0.998646 -0.136052 1.023419 0.601517 -0.033936 0.156262 0.133438 0.828556 0.213143 0.154902 0.376832 0.126185 -1.027127 0.860610 0.184325 -1.157082 -0.573670 -0.449262 -1.065437 0.137186 -0.307228 0.673391 0.454703 1.175525 -0.233791 -0.627040 -0.723725 -0.236021 0.473825 0.331159 -0.596402 -0.336496 0.525221 0.738677 -0.103785 -0.164162 0.959397 0.268689 -0.561611 -0.394226 -0.353241 0.562268 -0.564067 0.006825 -0.040180 -0.014353 1.415092 -0.055458 0.734334 0.702117 0.769067 0.303559 0.929274 0.034692 -0.043708 -0.155015
115 0.373533 -0.244750 0.126227 0.283643 -0.097416 -0.375215 -0.225261 0.065875 -0.318292 -0.717988 -0.235731 -0.310155 0.067646 -0.096648 0.287119 0.225195 -0.191322 -0.301683 0.200000 -0.206586 0.011545 -0.258135 0.112450 -0.121813 0.629042 0.181884 0.068600 0.305152 0.072475 0.315103 -0.598740 0.164195 -0.081746 0.337342 -0.242890 -0.076351 0.124099 -0.892754 0.281325 -0.012753 0.223763 -0.018984 -0.505322 -0.345037 0.249892 0.168945 0.025050 0.196059 -0.117347 0.769379 -0.481386 0.016652 0.044179 0.456257 0.422332 -0.472478 -0.490889 0.038158 -0.098054 0.167388 -0.397335 -0.418345 -0.247038 0.227266
230 -0.442261 0.056816 0.056407 0.241074 0.234707 0.392663 -0.160849 -0.068012 0.038436 -0.891590 -0.135569 -0.066000 -0.109865 -0.072363 -0.127416 0.046179 -0.457853 -0.267629 -0.073229 0.142645 -0.101809 -0.016614 -0.040397 0.212212 0.212970 -0.279732 -0.328183 0.129857 0.101277 -0.146978 -0.032199 -0.125298 0.231055 0.080854 -0.342639 0.376928 -0.003514 0.220384 -0.108407 -0.037908 -0.239871 0.003948 -0.230058 -0.022898 0.178759 -0.138018 0.001262 -0.180139 -0.036342 -0.106962 0.216014 0.215916 0.071081 -0.037400 0.082677 -0.123179 0.172782 -0.404853 -0.464084 0.044322 -0.074067 -0.055816 -0.018427 -0.031435
235 0.177518 -0.152075 0.503623 -0.000428 0.327345 -0.377318 -0.948721 0.292743 0.415929 -0.392712 -0.517839 -0.329339 -0.034216 -0.058250 0.191086 0.232812 -0.319237 -0.008789 -0.062910 -0.412874 -0.171071 0.078900 -0.446809 0.594771 0.256409 0.339624 0.015866 -0.357287 -0.796350 -0.438409 0.128457 0.075201 0.287944 -0.525520 -0.642811 0.841541 0.293533 0.015155 -0.305987 0.108246 0.007375 -0.044676 0.395589 -0.310200 -0.359033 -0.095499 0.319023 -0.132278 -0.174779 0.071817 0.428999 -0.038087 -0.188182 0.303008 -0.155360 -0.120748 -0.174480 -0.006958 -0.358394 -0.242116 0.464094 0.271134 -0.167632 -0.636998
245 0.167394 -0.101644 0.076191 -0.142950 0.652584 0.580736 -0.213078 -0.563804 0.147864 -0.042736 0.365678 -0.186413 -0.719202 -0.618181 -0.009361 -0.130182 0.432948 -0.175565 0.310158 0.120755 -0.579675 0.166341 -0.033660 0.358023 0.128444 -0.089187 -0.030809 -0.015547 0.308111 -0.322194 0.184449 -0.228280 -0.404824 0.095029 -0.521205 -0.211282 0.033985 0.296981 0.385759 -0.604716 0.278199 0.357041 -0.062462 -0.251860 -0.173507 0.513884 -0.129306 -0.157521 0.539322 0.169482 -0.011508 -0.423786 0.237920 0.478020 0.511918 -0.263186 -0.071000 -0.199113 -0.418322 -0.686962 0.098222 0.284084 0.482223 0.287867
68 -0.136252 0.042666 -0.059971 0.460653 -0.057329 -0.015940 0.087529 0.087834 -0.278460 0.047023 0.367353 -0.179255 -0.371845 -0.278596 0.128127 0.193098 0.043987 0.226413 0.218265 -0.115135 -0.045945 0.035938 -0.094490 0.310274 -0.041312 -0.088273 0.067138 -0.013808 0.089231 -0.060028 -0.025515 -0.368491 0.270309 0.200512 -0.127994 0.204429 -0.196988 0.123297 -0.166036 -0.217343 -0.009782 -0.346091 -0.068656 -0.017737 -0.103159 -0.060376 -0.245951 0.049277 0.054508 0.020812 0.432440 0.348850 -0.188884 -0.057108 0.099048 -0.172467 -0.137429 -0.138727 -0.035115 -0.158456 -0.059247 -0.017743 0.056876 -0.207459
134 0.034684 -0.203395 0.069072 -0.015214 -0.075394 -0.150748 0.080174 -0.145023 -0.049083 -0.030590 -0.036427 -0.045988 -0.274335 -0.069902 -0.090903 0.305285 -0.136584 0.223611 0.406470 0.083379 0.027221 -0.432687 -0.024736 0.098751 -0.191007 0.400023 0.353431 0.230763 0.514294 -0.291890 -0.113812 -0.201810 -0.057233 -0.111487 -0.083186 0.046041 -0.091658 0.194962 0.068937 -0.006229 -0.367914 -0.177137 0.161790 0.049597 -0.166448 -0.014832 0.065267 -0.321722 0.204416 0.402468 -0.106465 0.045200 0.045266 0.130064 0.111101 0.063860 0.074604 -0.221014 -0.047214 0.031278 0.589295 -0.203143 0.011855 -0.058878
2639 0.000424 -0.186281 0.141617 0.043713 0.066512 0.031852 0.121319 -0.016172 -0.114352 0.065297 0.000660 0.176546 -0.052667 -0.055798 -0.173637 -0.027795 -0.001205 -0.099628 0.148879 0.022038 -0.065518 -0.103272 -0.106587 0.065216 0.152070 -0.142575 0.114552 0.077621 0.179106 0.032013 0.093574 -0.112517 0.077812 -0.137529 0.040320 0.165181 -0.169254 -0.224720 0.237244 0.214602 0.091146 0.003284 0.080823 0.083548 -0.188828 -0.001022 -0.097377 -0.094018 -0.050396 0.152882 0.007520 0.200051 -0.108614 0.109739 0.099988 0.093791 -0.039536 -0.116277 -0.049295 0.059807 -0.153616 -0.098571 0.314558 0.121067
11 0.090456 -0.204398 -0.052546 -0.057358 -0.512450 -0.322096 -0.201466 0.098267 -0.105064 -0.070648 0.035621 -0.217264 0.178705 0.018555 0.026791 0.100382 -0.232967 -0.046122 0.270532 0.078190 -0.038545 -0.208912 -0.146632 -0.299808 -0.053245 0.017791 -0.303101 -0.017387 -0.499400 -0.181930 -0.118384 0.219924 0.211578 0.404090 0.206428 0.320592 0.487641 0.026587 0.110849 -0.184595 -0.138025 -0.264320 -0.051936 -0.080963 -0.033430 0.020278 0.126607 -0.146265 0.367044 -0.047424 0.252731 0.188433 0.273581 0.044020 -0.013134 -0.292914 0.014257 0.147632 -0.197116 0.274343 -0.339550 -0.163762 0.211005 -0.305270
2292 -0.242159 -0.161741 0.109803 -0.290006 0.203079 0.106686 0.164230 0.039470 0.169035 0.007798 0.003807 0.033249 0.087486 -0.145489 -0.120276 0.008222 0.084911 -0.116054 0.029099 -0.027598 0.045337 0.203510 -0.141823 -0.184634 0.062629 0.014698 0.119512 -0.041368 0.015637 -0.210397 0.007736 0.151863 -0.193777 -0.151197 -0.078255 -0.189304 -0.155191 0.068532 0.198494 0.290239 -0.070359 0.075247 -0.015562 0.081586 -0.029079 -0.172363 -0.033429 -0.184300 0.173608 -0.000785 0.099172 -0.051908 0.029389 0.175308 0.057297 0.168053 -0.022710 -0.010595 0.108808 -0.029881 -0.122706 -0.101844 -0.068418 0.005462
75 -0.249346 -0.350664 0.117792 -0.292179 0.105383 0.444747 0.066015 0.071761 -0.260968 -0.124797 0.545352 -0.063182 -0.003950 -0.248974 -0.052748 0.212909 -0.361935 0.448760 0.010948 0.502336 0.050496 0.082210 -0.098968 -0.520793 -0.619374 -0.063131 -0.057833 0.411165 0.214431 -0.208624 0.022820 -0.314251 0.076919 0.070383 0.211832 0.315449 0.091653 0.288422 -0.213478 0.017952 -0.068811 0.370619 0.020702 -0.085647 0.214360 -0.559149 0.174568 0.395340 0.356095 -0.014223 -0.193223 0.406874 0.285720 0.230845 -0.031116 0.394244 0.069072 0.040645 -0.279334 0.057866 -0.089648 -0.032961 0.376473 0.067386
86 0.099452 -0.213422 0.324180 -0.155084 0.108268 0.269809 -0.079883 0.170462 -0.332804 -0.184303 0.184608 -0.253394 -0.372498 -0.319467 0.158048 0.022447 0.035123 -0.235238 0.062674 -0.188781 0.045359 0.182223 0.084687 0.194521 -0.011631 -0.003932 0.510418 0.190661 -0.372977 0.231608 0.374874 -0.018633 0.534706 -0.002292 0.011789 0.074689 0.161372 0.195337 0.602696 -0.060881 -0.362221 -0.099042 0.260511 0.146354 -0.143989 0.046216 -0.005114 0.059847 0.066682 0.301966 -0.038911 0.122511 -0.074587 0.105272 -0.059790 -0.133353 0.456641 0.004936 -0.007900 -0.375939 0.112539 -0.500496 0.475140 0.194521
85 0.014363 -0.358035 0.329172 -0.292928 0.347981 0.225653 -0.188005 0.015025 -0.211341 -0.151206 0.220784 -0.160816 -0.284732 -0.259805 -0.085776 -0.252227 0.205334 -0.185838 0.419162 -0.151439 -0.110579 -0.198989 -0.307534 0.417397 -0.197002 0.117698 0.247368 0.238628 -0.025232 -0.170708 0.041194 0.190455 0.277058 0.009216 0.012380 -0.030368 0.285573 0.265065 0.194540 0.048206 -0.078709 -0.190396 -0.424326 -0.171732 -0.097577 -0.277818 0.277184 0.189959 -0.335225 0.080775 -0.387913 -0.133258 0.035707 0.385047 0.022914 0.432906 0.284764 -0.268673 -0.157543 0.000282 0.055021 -0.083052 -0.143923 0.180099
33 -0.126560 0.240130 -0.101515 -0.113425 0.138443 -0.085343 -0.128948 0.290025 0.291822 -0.069060 -0.010039 -0.151405 -0.057960 -0.073395 0.082497 -0.084137 -0.121234 -0.275090 0.289566 0.206539 0.393994 -0.308288 0.236389 0.253444 -0.290302 0.185478 -0.250893 -0.064231 0.076007 -0.130069 0.360158 -0.448650 0.075746 -0.031088 0.036242 0.225819 -0.092918 0.172556 0.084599 -0.069147 0.059589 0.365271 -0.004725 0.033823 0.053276 0.208778 0.203019 0.078711 0.228155 0.629361 -0.118972 0.228952 -0.420551 0.171963 0.217771 0.298745 0.065374 -0.171849 0.117185 0.069146 0.412038 -0.073024 -0.081794 -0.244406
231 0.120577 -0.169170 -0.125485 -0.018147 -0.016541 -0.265221 0.014570 -0.365576 -0.210978 -0.184189 -0.291734 0.015888 -0.187397 -0.451272 -0.255177 0.005672 0.012317 0.067013 0.028331 -0.246242 -0.180714 -0.431474 0.025761 0.277030 -0.010084 0.170933 0.087317 -0.144238 -0.032381 -0.200666 -0.078004 -0.179663 0.029724 0.149116 -0.213895 0.494890 0.017439 -0.099212 0.159781 -0.010809 -0.069325 -0.388133 0.034449 0.138211 0.088356 0.034108 0.025774 0.283084 0.104233 0.188549 -0.007896 0.173934 -0.133811 -0.210845 0.016163 -0.007987 0.253875 -0.009792 0.111767 -0.132987 0.232925 -0.288063 0.188465 -0.403747
221 0.105898 -0.371262 0.500851 -0.449697 0.071288 -0.151100 -0.248233 0.416821 -0.034360 -0.329556 -0.804819 0.271465 -0.327707 -0.148146 0.645530 -0.213045 0.230170 0.352780 0.395841 0.613281 -0.317974 0.183381 -0.843114 0.003039 0.132084 0.478704 -0.008096 -0.280217 -0.795435 0.373547 -0.052974 -0.585040 0.000269 0.237805 -0.315172 -0.232246 -0.150080 0.392667 0.012696 0.465690 0.716816 0.369904 0.009041 0.880085 -0.141695 0.223728 0.025956 0.711475 0.812861 0.117634 0.182708 -0.230350 0.166022 -0.204976 -0.133232 0.062823 0.045138 -0.305291 -0.081065 0.239720 0.425670 -0.561176 -0.611253 0.190986
219 0.012132 -0.065438 -0.288677 0.490475 -0.300910 0.328425 -0.081656 -0.042915 -0.303995 -0.278513 -0.043664 -0.055000 -0.109429 -0.032251 0.021984 0.161875 0.205062 0.108612 0.381406 0.333954 0.079489 0.042956 0.359394 -0.013269 0.029375 0.029851 0.008605 0.161351 0.236267 -0.154125 -0.246126 0.150130 -0.016259 0.045897 -0.407307 -0.082587 -0.028813 0.007796 -0.213967 0.020224 -0.115417 0.255997 -0.332968 0.068156 0.000176 -0.031648 0.152774 0.407535 -0.248376 0.479469 0.196886 0.002473 -0.221836 0.099287 -0.239668 0.164295 0.125182 -0.466828 -0.481189 -0.237052 -0.174644 -0.180957 -0.291329 -0.012707
46 -0.047216 0.017112 -0.071316 -0.108496 -0.247972 -0.010501 -0.135584 0.107397 0.093279 -0.175539 -0.030092 -0.186208 -0.150700 -0.177733 0.091770 -0.104056 -0.192654 0.367203 0.334262 -0.076416 -0.085923 -0.117579 0.046024 0.074914 -0.085994 0.159315 -0.014877 0.220302 -0.010683 -0.369006 0.032188 -0.218601 -0.019859 -0.090199 -0.039676 0.201833 -0.166823 0.166269 -0.066434 -0.113314 -0.330160 -0.277992 0.012664 0.111585 0.044616 -0.027089 0.027720 0.110193 -0.154827 0.166549 0.368164 0.394943 -0.371503 -0.004821 0.029726 0.264293 0.036886 0.369218 0.315418 -0.122400 0.087455 0.011952 0.134489 -0.170571
66 0.279650 -0.038217 0.334719 0.013246 0.084866 0.078280 0.059184 0.196286 0.001948 -0.131738 0.547082 -1.021996 0.066552 -0.149441 -0.349598 -0.078667 0.049479 0.190515 0.081294 -0.265656 0.323788 -0.307907 0.577716 0.303137 0.214757 0.175950 0.278510 -0.176727 0.479509 0.199249 -0.097304 -0.222542 0.363419 -0.134527 0.002725 -0.179226 -0.003250 -0.290556 0.108230 0.012525 0.228332 -0.451203 -0.256462 0.296141 0.628208 0.011270 0.271127 -0.146847 0.601476 -0.027271 0.426185 0.456579 0.040356 0.124896 0.503224 -0.058411 -0.368675 -0.348956 0.266051 0.152614 -0.044753 -0.199239 -0.355148 -0.521203
1775 -0.044656 -0.184955 0.049233 0.065371 0.108560 0.155452 0.071113 0.053929 -0.245082 -0.066933 -0.065165 -0.040138 -0.058565 0.032832 -0.211201 -0.049941 -0.140406 0.026790 -0.011834 0.028965 0.114261 -0.081810 -0.019273 -0.074308 0.134437 -0.068034 -0.071429 -0.019680 0.100846 -0.031308 -0.136777 0.006364 -0.022693 -0.000466 0.143875 0.112343 -0.057635 -0.053135 0.179131 0.315581 0.084343 0.234180 -0.010355 0.030796 -0.164267 0.170717 -0.309400 -0.131794 0.008576 -0.060616 0.217981 0.126631 0.033084 -0.021380 -0.227348 0.056375 -0.005160 -0.139922 -0.192734 -0.022255 -0.018663 0.081991 0.199842 -0.045077
197 -0.232627 0.380223 -0.104880 0.408687 0.064652 -0.224259 0.186916 -0.170695 -0.197460 -0.175539 0.618486 -0.031029 -0.059662 -0.075785 -0.132780 -0.384119 0.209889 0.213727 0.146235 0.134546 0.207232 -0.105190 -0.236023 -0.240749 -0.261803 -0.110581 0.190766 -0.536914 0.239544 0.232085 -0.126204 -0.186947 0.057046 0.206689 0.157503 -0.087774 0.142807 0.086943 -0.138327 -0.136494 -0.471021 -0.120682 0.153585 -0.149960 0.073196 0.451934 0.055224 0.076468 0.039685 0.317059 0.330801 0.533787 -0.242187 -0.274251 0.125864 -0.034864 0.020602 -0.336122 -0.433998 0.426350 0.249407 -0.058314 -0.488321 -0.147945
17 0.142472 -0.006081 0.345624 -0.153279 -0.241390 0.003640 0.088919 -0.037202 -0.575902 -0.227558 -0.111385 0.169981 0.259262 -0.325864 0.056945 0.323350 -0.402712 0.254462 -0.101965 0.145834 -0.103626 -0.340242 -0.041395 -0.006654 0.096727 -0.212495 0.451971 0.016533 0.062077 -0.104450 -0.184998 0.219876 0.273984 0.506858 -0.408005 -0.106629 0.216499 0.245411 0.161243 0.144420 -0.138473 0.127134 -0.061186 -0.120121 -0.281158 -0.234646 -0.109337 0.055558 0.057953 -0.154533 0.558132 0.125895 -0.059575 -0.216245 -0.273835 -0.181892 -0.080753 -0.067522 -0.125021 -0.022758 -0.131608 -0.387315 0.000741 -0.194225
6 0.308648 -0.027512 -0.038289 -0.105272 0.327970 -0.179256 -0.031009 -0.206543 -0.238862 0.196440 -0.274784 -0.225783 -0.196189 -0.135598 0.248592 0.038039 0.443527 -0.064928 0.495803 0.060047 0.106270 -0.477522 0.144670 0.184485 -0.343961 -0.302393 0.403424 0.162775 0.048562 -0.118151 0.128153 -0.535570 0.165963 0.339127 -0.124414 -0.170902 0.305261 -0.137683 0.086640 0.240008 -0.233443 -0.043352 -0.062360 -0.048126 -0.009369 0.010519 0.386571 0.147449 0.041961 -0.098503 0.109544 0.249980 -0.077383 -0.056052 0.032514 -0.007762 0.066203 -0.138667 0.011730 -0.337580 0.415399 -0.317052 -0.194176 0.000783
93 0.500774 -0.164494 0.321707 0.262495 0.082938 0.052427 -0.877457 0.507376 0.392960 0.071138 0.158329 -0.054466 -0.333945 -0.657628 0.184310 -0.313028 0.089582 0.081845 0.185704 0.265673 -0.437983 -0.051827 0.889830 -0.475647 0.004554 0.303407 0.208241 -0.136586 -0.335635 -0.584362 -0.202426 0.336339 -0.318627 -0.317457 0.164551 -0.146995 -0.421242 -0.021384 0.006371 -0.031593 -0.286343 -0.008548 0.228011 -0.278844 0.550936 -0.848377 0.009994 0.291005 0.218375 -0.177666 -0.798187 0.010776 0.423098 -0.242377 -0.102251 0.112733 -0.472542 -0.073700 -0.277076 -0.318370 -0.097637 -0.235201 0.267810 -0.223101
240 0.746081 -0.317012 0.032663 0.069986 0.369496 -0.075623 0.113256 0.097176 0.106491 -0.415881 0.184852 -0.303642 0.046154 -0.388747 -0.055443 -0.372658 0.171689 0.360096 -0.003708 0.037776 -0.076664 -0.747165 0.424984 0.152583 -0.042096 0.294334 0.103396 -0.009267 -0.101992 0.073821 0.043191 0.211254 0.318528 0.015335 -0.129541 0.083836 -0.162062 -0.130397 -0.416271 0.308028 -0.066718 -0.088123 0.021335 0.139393 0.099537 0.001123 0.231616 0.099801 0.286628 0.143764 0.063658 0.088456 -0.447216 0.251422 -0.006094 0.288836 -0.122830 0.029891 0.083308 -0.312920 0.242275 0.067368 -0.114910 0.100508
3235 -0.083583 -0.046850 -0.092758 0.083119 -0.003539 -0.185574 -0.004843 -0.024554 0.173442 0.144436 -0.166684 0.244210 0.105860 0.017800 -0.001895 -0.087396 0.139424 -0.112681 0.108813 -0.157162 0.153091 -0.240793 -0.061557 -0.037003 -0.032822 0.086172 -0.174236 0.024182 0.075237 -0.172308 0.119906 -0.044792 -0.193091 0.060149 -0.051804 0.087522 -0.064216 -0.457010 -0.002233 0.223863 -0.043896 -0.089999 0.022075 0.124367 -0.088126 -0.136447 -0.270699 0.156614 -0.086786 0.218361 0.173055 0.067793 -0.163350 0.031320 0.064117 0.078335 0.015153 -0.101310 0.064158 -0.142188 -0.137595 -0.088577 -0.009551 -0.081476
158 0.163878 -0.162184 -0.451950 0.151143 0.038921 0.082547 -0.205552 -0.407498 -0.258670 0.148338 0.050855 0.113525 -0.294582 -0.339988 0.069880 0.124182 0.282883 0.206247 0.284566 -0.071133 -0.129933 -0.314215 0.158333 0.181396 -0.198924 0.041756 -0.238211 -0.024285 0.316964 -0.383244 -0.158328 0.285740 0.201215 -0.193791 -0.244718 0.199578 -0.003738 -0.246220 -0.197319 0.084281 -0.366396 -0.067590 0.014409 0.041494 0.123372 0.107108 0.025896 -0.139924 -0.087937 -0.234557 0.388396 0.480833 0.091481 -0.224568 -0.383714 -0.060890 0.093559 -0.462205 0.006031 0.202285 0.496179 -0.165066 0.260869 -0.005287
47 -0.640946 0.518196 -0.282346 0.498208 -0.532975 0.075116 -0.704053 -0.423633 -0.477765 -0.567526 0.254317 0.293958 -0.366215 -0.296446 -0.029491 0.262336 -0.031918 0.290412 -0.399285 0.310982 -0.290937 0.606372 -0.077639 0.008750 -0.470460 0.187672 -0.181946 -0.433162 -0.070242 0.519460 0.042527 -0.288748 0.088771 0.267094 -0.475152 0.389531 -0.059778 -0.171071 -0.054083 -0.183570 -0.339799 0.409372 0.161958 0.725942 0.568318 -0.322221 -0.256530 -0.284571 -0.916045 -0.206033 0.023366 0.050826 -0.057502 0.083379 -0.759780 0.163166 -0.504345 -1.003762 -0.300135 0.777202 -0.138719 0.029651 0.260397 0.173405
129 0.009132 0.068073 -0.098226 -0.057202 -0.196304 0.095958 -0.236814 -0.318187 -0.198686 -0.188657 0.115648 -0.107795 -0.280442 -0.184407 0.089201 0.131274 -0.172359 -0.023095 0.279321 -0.146464 0.166158 -0.536660 0.193159 0.057875 0.005334 -0.052000 0.336885 0.352587 -0.277555 -0.071048 0.029941 0.017695 0.005392 0.312338 0.055395 0.333688 0.076652 0.114827 0.263733 0.006254 0.135719 0.098576 -0.066171 -0.121100 0.216019 -0.122554 0.107674 0.113554 0.100421 0.200593 -0.189558 0.193075 -0.412907 0.138729 -0.071438 0.135225 0.364460 0.064800 -0.016319 -0.166293 0.107292 -0.289975 0.129600 0.104944
147 0.467018 0.019305 -0.142812 -0.439913 0.071036 -0.095545 -0.125242 -0.057330 -0.343761 -0.115374 0.180890 -0.480581 -0.161577 -0.094611 -0.106139 0.364793 0.052865 -0.077434 -0.515880 -0.133012 0.000269 0.131778 0.108982 0.335172 -0.033033 0.317876 -0.144085 -0.053548 -0.327561 0.069556 0.403941 -0.099201 -0.326543 0.352367 -0.075605 0.391945 -0.073135 0.083002 0.243797 -0.147572 0.219052 -0.102829 -0.276249 0.131413 0.317208 -0.077214 -0.095383 0.157513 0.304557 0.562418 0.253885 -0.266317 -0.868143 -0.072738 -0.066587 0.653192 -0.250203 -0.148729 -0.399052 0.208404 0.114934 0.028150 0.268465 -0.080852
216 -0.384388 -0.006918 -0.000128 -0.523000 0.160184 0.043647 -0.093007 -0.099654 0.274978 -0.156018 0.071959 0.169399 -0.187213 0.194887 0.236083 0.226024 -0.125206 -0.364032 -0.131715 -0.419382 0.142217 0.057753 0.061091 0.248639 -0.150706 -0.031507 -0.045603 0.040344 -0.353245 -0.328475 -0.221620 0.262516 -0.054682 0.487894 -0.173227 0.185504 0.042484 0.048876 0.059181 -0.106063 -0.318358 -0.102615 -0.046212 -0.001170 -0.181850 0.147796 0.117373 0.185507 -0.057914 0.174176 0.021837 0.185379 -0.140480 -0.063817 0.446104 0.342088 -0.276212 -0.366417 0.241512 -0.168456 0.177910 0.058236 0.061454 -0.391288
2342 -0.118777 -0.316024 0.071871 0.082434 0.179662 -0.138534 0.078092 -0.196748 0.090779 -0.064868 0.045018 -0.052384 -0.182956 -0.071385 0.103570 -0.099830 -0.073318 -0.101139 0.039895 -0.088866 0.134370 -0.214567 -0.137462 -0.180936 -0.217981 -0.072371 0.009544 -0.296471 -0.037288 -0.097942 -0.041880 -0.073376 0.112484 -0.054493 0.094803 -0.069328 -0.159582 -0.070356 0.068192 0.059117 0.018146 0.004339 0.075741 -0.063344 -0.147592 -0.181565 0.120721 -0.159207 -0.055963 0.023508 -0.015679 0.101215 -0.266419 0.237433 -0.085891 0.047448 -0.142611 -0.069284 -0.008515 -0.096164 -0.145542 0.003296 0.147513 -0.334901
76 0.196420 -0.306282 -0.153370 -0.375276 0.258653 -0.240944 0.080740 -0.465384 0.016594 -0.176957 -0.133622 0.162261 -0.110536 -0.454605 0.095229 -0.007241 -0.031717 -0.056001 0.005109 0.135836 -0.012028 -0.147601 -0.295814 0.188538 -0.398041 0.251455 -0.050957 0.080150 0.260320 -0.396397 0.385109 -0.128230 -0.040163 0.791650 -0.226300 0.332235 0.125833 -0.173705 -0.436349 0.188404 -0.089992 -0.048529 -0.052557 0.290533 0.048084 -0.025790 0.058440 0.152914 0.660764 0.424691 -0.342013 -0.123606 0.113150 -0.158297 -0.016796 0.121960 -0.150628 0.522016 -0.063557 -0.192993 0.483301 0.029374 -0.149504 0.192035
2619 -0.065254 -0.058043 -0.136563 0.019585 0.170743 -0.098108 0.214039 -0.091818 -0.034354 0.137229 -0.115582 0.017920 0.067128 0.037681 -0.013576 -0.157961 -0.004175 -0.109554 -0.108810 0.052641 0.155744 -0.037189 -0.118017 -0.253729 -0.141053 0.256518 -0.130382 0.171575 0.250498 0.056880 0.229888 -0.038971 -0.260645 0.034567 0.065514 0.042681 -0.024771 0.003578 0.051796 0.171358 0.044756 0.184967 0.106638 0.020998 0.044010 0.048935 -0.096319 -0.032831 0.173927 0.075105 0.246312 0.006973 -0.033144 -0.023055 -0.040803 -0.030713 0.082963 -0.076232 0.125029 -0.024434 -0.057918 -0.067290 0.167268 -0.129640
103 -0.175404 -0.330950 -0.110548 0.497336 0.049212 0.439720 -0.043006 -0.316563 0.340698 0.292930 0.682215 -0.724476 0.388826 0.341535 -0.270597 0.248678 -0.319504 -0.074338 0.153773 -0.135952 -0.505183 0.159774 0.558391 0.362472 -0.693467 0.226886 -0.043183 0.923460 0.103929 0.188684 -0.380798 0.277214 -0.519243 0.090786 -0.286317 0.479978 -0.718608 -0.128279 -0.320707 -0.012243 -0.028033 0.393296 -0.315459 -0.052931 0.256293 -0.158904 0.336072 0.074864 -0.553712 0.337573 -0.204265 -0.044668 -0.295445 -0.641941 -0.018369 -0.600067 -0.071618 -0.660816 0.111020 -0.262410 -0.100565 -0.344150 -0.291506 0.202211
361 -0.082582 0.016606 -0.076400 0.150386 0.151843 -0.191135 0.246959 0.114201 -0.017976 0.127289 -0.000711 0.069740 -0.009297 -0.016987 0.053243 -0.261381 -0.038485 0.107009 -0.019753 -0.126705 -0.028130 0.207752 -0.177887 -0.090465 -0.191693 -0.175164 -0.060956 -0.151812 -0.074331 -0.221811 0.247224 0.034713 0.128002 0.010330 -0.067143 -0.029226 -0.277435 -0.037112 0.033071 0.246710 0.013490 0.102805 0.016325 0.018320 0.140588 -0.219001 -0.155528 -0.008835 0.227099 0.106095 -0.044236 0.096175 -0.192946 0.046842 -0.099426 -0.015171 0.073771 -0.019704 -0.228934 0.110913 0.004621 0.109556 0.004661 0.045950
1553 -0.084408 -0.430937 0.004032 -0.113453 0.254621 0.100957 0.255006 -0.046772 -0.147157 -0.157762 0.052568 0.195522 0.121954 -0.146435 -0.074457 -0.141394 0.046574 -0.252507 -0.065988 -0.192909 0.240286 -0.213196 -0.067919 0.008737 0.097437 -0.043654 -0.136342 -0.097576 0.252428 -0.155332 0.069773 0.185123 -0.059511 -0.081400 -0.003177 0.078932 -0.128347 -0.114893 0.098889 0.022820 -0.052535 -0.053524 0.169744 0.155325 0.024013 0.196044 0.138302 -0.008824 -0.060511 -0.007077 0.114077 -0.025702 0.111631 0.139918 0.170126 0.173714 -0.041217 -0.165528 -0.107971 0.065119 -0.043717 -0.095582 0.396788 0.028393
23 0.044818 0.367423 -0.175211 -0.283663 0.128588 0.083493 -0.396275 0.162319 0.081891 0.295007 0.128217 -0.236397 0.242758 -0.384430 -0.132950 0.286188 -0.289398 0.161772 0.859524 0.116323 0.275753 -0.143220 0.078435 -0.175307 -0.383960 0.121306 0.715786 -0.513566 0.201688 -0.810868 -0.259579 -0.173164 -0.340163 0.374612 -0.200879 0.195533 0.041378 0.391805 -0.073664 -0.176731 0.249633 -0.290498 0.041829 -0.331041 -0.110401 0.084119 0.057204 -0.759361 -0.053588 -0.177576 0.228855 -0.543319 0.592218 -0.055168 0.814057 -0.330461 -0.104849 0.219712 0.194262 -0.228849 -0.165400 -0.936967 -0.221478 0.121198
166 -0.401169 -0.136715 0.267216 0.145336 -0.084731 -0.166858 -0.031337 -0.262736 -0.140648 -0.382059 0.046266 -0.401335 -0.307719 -0.232559 -0.004463 -0.174213 -0.365828 0.143410 0.111004 -0.216827 -0.258341 -0.066600 0.274004 -0.283804 -0.477914 0.158217 0.470206 0.245012 -0.317021 -0.077328 -0.093269 -0.160401 0.538117 0.371878 0.003168 -0.052294 0.495454 -0.060270 0.422221 -0.222213 -0.017900 -0.123778 0.034993 0.166470 0.265774 0.167832 -0.080613 -0.185190 0.069108 0.126566 0.200785 0.223243 0.157589 -0.114142 0.005935 -0.435023 0.085337 0.008350 -0.047015 -0.203871 -0.066086 -0.225509 -0.208037 0.158781
123 -0.278126 0.136547 0.243755 -0.181350 -0.006911 -0.457072 0.045182 -0.246482 -0.149138 -0.331321 0.048171 -0.451155 -0.129635 -0.117960 0.069945 -0.078720 -0.194008 0.117068 0.122810 -0.279897 -0.097675 0.063864 0.055381 -0.018046 -0.343216 -0.036289 0.305267 0.164957 -0.030713 0.075727 0.163902 -0.345912 0.203049 0.021617 -0.165429 0.050598 0.307428 0.095086 0.093063 -0.155577 -0.226404 -0.026747 0.166344 -0.095917 -0.186594 0.241553 0.367649 -0.166006 -0.303396 -0.039890 0.086763 -0.085732 -0.465096 0.246833 0.030029 -0.081579 -0.394780 -0.134329 0.155342 -0.005532 -0.127485 -0.605746 0.014081 -0.000314
3962 0.042496 -0.130253 0.040071 0.011791 -0.021552 -0.150949 0.155186 0.018956 0.008353 -0.034097 0.025762 0.073797 0.064042 0.108963 -0.082914 -0.107833 -0.144135 -0.110881 0.028608 -0.005754 0.219779 -0.168773 0.039279 -0.032626 -0.041320 -0.140201 0.012971 -0.181569 0.236550 -0.119704 0.075409 0.081571 -0.079890 -0.100807 0.004012 0.175987 -0.218015 -0.075014 -0.239250 0.299226 0.165617 0.007301 -0.103471 0.037925 0.181154 0.161139 -0.184228 -0.113297 0.221607 -0.059095 0.134095 0.128465 0.195661 0.086140 -0.056952 -0.088255 -0.073099 0.052262 0.006645 0.066577 -0.215410 0.052565 0.156072 -0.123682
43 -0.235706 0.116279 0.122379 -0.068794 0.247192 0.017691 0.117190 -0.162719 -0.007254 -0.162691 -0.138763 -0.292110 -0.094444 -0.100074 0.241845 0.121281 0.323451 -0.300740 0.180527 -0.310049 -0.263026 -0.172911 0.141607 0.065077 0.062902 0.154558 0.004708 0.196219 -0.292990 -0.256457 0.110430 0.400049 -0.031745 0.144371 -0.122553 0.075885 -0.055066 -0.123412 0.135145 -0.014773 -0.208112 -0.017435 -0.180494 -0.215703 0.271497 0.316876 0.200313 0.364543 0.343797 0.021371 -0.061370 0.090432 -0.269066 -0.110975 0.212313 -0.258199 0.133854 -0.144223 -0.172652 0.044394 0.187909 -0.401886 0.246489 0.145450
162 -0.376173 -0.076095 0.059670 -0.120247 0.176588 -0.188923 0.239615 0.329612 0.281178 0.243237 0.534476 0.165542 -0.169165 -0.293349 -0.145630 0.368254 0.272029 0.087283 0.386553 -0.168440 -0.148810 -0.068264 -0.002580 0.194995 0.166676 -0.010872 -0.147689 -0.056301 0.161060 -0.264166 0.110900 0.312823 0.539100 -0.175937 -0.171053 0.203437 -0.001212 0.275759 0.208708 -0.107082 -0.225805 -0.131392 0.240631 -0.137027 0.254693 0.418789 0.145079 -0.133103 0.579436 0.014238 0.278543 0.145184 -0.029343 -0.068317 0.235812 0.064273 -0.300215 -0.532464 -0.171171 -0.174310 -0.005442 -0.032894 0.223346 0.105985
183 -0.586329 0.292563 0.002970 -0.154816 -0.387159 -0.100510 0.174318 -0.013178 -0.233667 -0.152174 -0.195689 -0.280640 -0.003338 0.300469 0.116063 0.252653 0.003156 0.087682 0.234981 0.049107 -0.014089 0.253420 -0.140529 0.004613 -0.513666 0.185642 -0.132288 0.445492 -0.308508 0.019427 -0.124327 -0.024598 0.178456 0.047471 -0.008038 0.107453 -0.086376 0.164459 -0.083391 -0.082262 -0.079718 -0.284840 0.084822 0.015797 0.098907 0.170547 -0.090881 0.254463 0.286612 0.284220 0.240177 0.635118 -0.247128 0.044306 -0.098862 0.352122 0.010749 0.122876 0.048535 0.237069 -0.149323 0.079565 0.416180 -0.002458
144 0.237771 -0.006795 -0.124999 -0.233476 -0.282539 -0.163388 0.050099 0.192802 -0.261225 -0.527621 -0.136208 -0.320693 -0.125595 -0.080934 0.149769 -0.118327 -0.089371 0.016808 0.138111 -0.016022 0.143467 -0.454352 0.069044 0.132040 -0.015313 -0.037308 -0.087734 0.211786 0.011028 -0.429349 0.163681 0.163471 -0.077349 0.053371 -0.177679 0.091454 -0.240343 0.272206 -0.053316 -0.025241 -0.060245 -0.112699 -0.070475 -0.142995 0.112037 -0.173686 -0.047138 0.121776 0.184145 -0.226527 0.053340 0.220854 0.039574 0.159698 -0.153004 0.233108 0.119185 0.022481 0.252700 0.016906 0.282844 -0.322447 0.293522 0.035342
95 -0.196930 0.142642 0.217100 -0.054556 -0.086819 -0.273559 -0.417065 0.398002 -0.485075 -0.146275 0.063959 -0.059293 -0.225611 0.009385 -0.176031 0.385373 -0.127521 -0.142499 0.016650 -0.366151 -0.328399 -0.192496 -0.268003 0.020456 -0.437132 -0.219001 -0.026725 0.096302 -0.078237 -0.516579 -0.208216 0.210474 0.146794 0.158139 -0.140978 -0.083533 0.122337 0.278749 -0.529139 0.052584 -0.501103 0.049704 0.171755 0.237925 -0.000291 0.206051 0.138152 0.150038 0.193145 0.253271 0.078221 0.059044 0.379131 -0.069727 -0.476497 -0.099015 -0.004729 -0.371558 0.098470 0.160844 -0.018849 -0.129776 0.026601 -0.071144
2634 -0.190460 -0.171017 0.032989 0.021023 -0.185609 -0.194064 0.054210 0.069154 0.029576 0.023420 -0.210874 0.108825 0.097264 0.014030 0.066191 -0.223224 -0.098817 -0.050848 -0.000061 -0.125719 0.058338 -0.009090 -0.225256 -0.045596 -0.015079 0.107554 0.197071 -0.190025 0.148243 -0.337365 0.003659 0.238848 -0.035400 0.059952 -0.213821 0.103877 -0.189511 -0.064866 -0.042751 0.005584 0.130623 -0.023475 0.112898 0.041568 -0.045215 -0.137355 0.111574 0.089475 -0.011341 -0.005946 0.233663 0.043468 -0.244473 0.205383 0.169257 -0.003687 0.121065 0.263622 -0.151199 -0.043698 -0.038433 0.035909 -0.099701 0.089339
82 0.200352 0.138572 0.004861 -0.401392 0.114856 0.109200 -0.178245 -0.250115 -0.079864 0.014925 0.222246 -0.052595 -0.143807 -0.048194 0.104081 -0.063939 0.023694 0.054349 0.283033 -0.361041 0.280873 -0.331007 -0.205224 -0.013873 0.163116 0.060824 0.376949 0.141150 -0.286279 0.103393 0.047265 0.198886 0.013094 -0.078817 0.090536 0.325878 -0.263937 0.506355 -0.059664 -0.160436 -0.298249 0.002389 0.219504 0.118075 0.019637 0.031570 0.097061 0.077129 0.368826 0.137368 -0.128810 0.298662 0.079065 0.138255 0.149574 -0.140651 -0.051717 0.206324 -0.082841 -0.114430 0.090983 -0.288722 0.526696 -0.119420
56 -0.094530 0.216986 0.041444 0.236423 -0.179747 -0.020940 0.402275 -0.062674 -0.234947 -0.172790 0.209939 -0.272843 0.575170 0.325813 -0.147812 -0.088920 0.324542 -0.289819 0.104570 0.425878 0.068078 -0.989248 0.322937 0.068061 0.000875 0.140620 -0.162538 -0.061254 0.096582 0.192677 0.358856 -0.317671 1.033012 -0.219329 -0.133185 0.176532 -0.145979 0.145684 0.221626 -0.086011 0.022417 -0.161214 -0.134502 0.244251 0.617269 -0.254089 0.129409 -0.211923 -0.128573 0.089282 -0.060019 0.499452 -0.284198 0.167861 -0.091210 -0.175217 0.079353 -0.294007 0.242787 0.032341 0.287377 -0.076947 -0.090300 0.144177
1754 -0.071542 -0.082288 0.211370 0.160060 -0.295904 -0.121508 0.075697 -0.180179 -0.125125 0.043117 -0.082531 0.000304 -0.104994 -0.046132 -0.140927 -0.204159 0.157027 -0.022757 0.045488 0.033655 0.090834 -0.145210 -0.334648 0.045833 -0.232956 -0.183475 0.039136 0.000588 0.298046 -0.026969 -0.129534 0.141040 -0.093278 0.104721 -0.249290 0.198801 -0.069680 -0.059769 0.197845 0.313185 0.133800 -0.097567 -0.116192 0.074312 -0.023040 -0.138637 -0.061021 0.224987 0.179613 -0.060070 0.167597 0.096120 0.188133 0.044804 -0.282185 0.065207 0.100489 0.066752 -0.210875 0.189656 -0.149341 0.141295 -0.096882 -0.060790
2005 -0.075778 0.026562 0.206110 0.015977 0.031614 -0.108625 0.145869 0.167091 -0.047901 0.071608 -0.214348 -0.121867 -0.012955 -0.171103 0.028672 -0.082617 0.070263 -0.141019 0.207568 -0.447137 0.104486 0.060532 -0.275479 -0.275505 0.014323 -0.086278 0.071510 -0.187946 -0.120704 -0.140642 0.153052 0.005358 0.065270 0.104021 -0.108955 -0.033245 -0.036002 -0.040150 -0.045489 0.104863 -0.062282 0.042933 0.113088 -0.171846 -0.093689 0.024727 -0.024390 0.005340 -0.159945 0.095788 0.123250 0.136744 -0.320110 0.198077 -0.182779 -0.033139 -0.025434 -0.012333 -0.368037 0.105564 -0.056787 0.020889 0.147537 0.068894
301 0.036810 -0.042357 0.031600 -0.000887 -0.017030 0.003984 0.039287 0.057010 -0.128278 0.122675 -0.051017 -0.085123 -0.252364 0.044827 -0.088490 -0.385374 -0.234551 -0.056224 0.169389 -0.171007 0.052037 -0.242710 0.005732 0.029102 0.131659 -0.176157 0.197206 -0.100692 0.212882 -0.365969 -0.011690 -0.098540 -0.094464 0.041124 -0.074918 0.228142 -0.022361 -0.024843 0.274029 0.189193 -0.032050 0.118047 0.125587 -0.060362 -0.044225 0.061599 -0.052284 -0.235760 -0.145603 -0.263700 -0.167391 0.277716 -0.006974 0.192583 0.017222 0.024009 -0.044575 0.093419 0.028053 -0.245688 0.005860 0.010895 0.227673 0.184422
3 -0.263412 0.327575 0.270078 0.336699 -0.121434 0.714035 0.067634 0.187814 -0.119730 -0.349347 0.310455 -0.377553 -0.018820 -0.026666 -0.458203 -0.184587 -0.064435 0.100654 0.154088 -0.035438 0.123573 -0.087160 0.126080 0.232091 -0.030126 0.194916 0.148660 -0.061035 0.179271 -0.096643 0.002508 0.231604 0.098349 0.120549 0.003012 0.194676 -0.098296 0.240850 -0.160350 0.098284 -0.481542 0.466658 -0.339906 0.184247 0.111524 -0.062270 -0.205999 0.234901 0.476632 -0.102831 0.092967 0.200696 0.000717 -0.082793 0.555148 -0.186904 -0.169709 -0.056842 -0.384176 -0.257459 0.332181 -0.081667 -0.039569 -0.244577
4067 -0.106488 0.010708 0.162475 0.045495 0.002440 0.149772 0.273777 0.018990 -0.046015 0.090580 0.111796 -0.210825 -0.071438 0.086521 0.183593 -0.088737 0.186268 0.015863 0.061465 -0.029750 0.065949 -0.021306 -0.251828 -0.051634 0.107861 0.005344 0.184645 -0.159797 -0.075920 -0.167632 0.173507 -0.073276 -0.032153 0.026693 -0.237470 0.002434 -0.116048 -0.076141 0.223073 0.184247 0.107975 0.158072 -0.116203 -0.060715 -0.196522 -0.128775 -0.044028 -0.110016 -0.007870 -0.131952 0.146376 0.130025 -0.074766 0.289072 -0.000435 0.035602 0.207088 -0.002469 -0.181784 0.138212 -0.246247 -0.163688 0.171036 0.247995
189 0.052466 0.165149 -0.409003 0.392150 -0.019957 0.076401 -0.108173 0.212550 -0.381323 -0.223005 -0.321260 -0.225955 0.100360 -0.117407 -0.302085 0.185444 -0.268599 0.060980 0.629610 -0.323020 0.033240 0.139826 0.108432 -0.233494 -0.364846 0.045502 -0.387483 -0.034268 -0.054844 -0.041575 -0.136442 -0.290237 0.233980 -0.062400 0.077540 0.121791 -0.143377 -0.277167 0.132448 -0.170766 -0.410888 0.017688 -0.092525 -0.149236 0.173652 -0.180522 -0.342053 0.511919 -0.146108 0.181474 -0.282020 0.184579 -0.160782 -0.172410 -0.069539 -0.097375 -0.232022 0.047196 -0.082632 -0.279797 0.055790 -0.171822 0.196983 -0.572898
852 -0.159396 0.011064 0.363790 -0.031987 0.139892 -0.067940 -0.010436 0.166386 0.055131 0.089416 -0.015255 0.028560 0.066888 0.034546 0.182964 0.207827 -0.092749 -0.164950 0.035850 -0.218250 0.101904 -0.052422 -0.159316 -0.160771 -0.098089 0.072950 -0.029625 -0.101740 -0.108480 -0.111383 0.124680 -0.018311 -0.096911 -0.052030 -0.236893 0.233430 0.033058 -0.036561 0.184886 0.123411 0.013428 -0.121322 0.057122 0.074301 -0.073373 0.012642 -0.106043 -0.081867 -0.010714 -0.005488 0.231116 0.028211 -0.300228 0.032554 -0.150206 0.035140 -0.009876 0.031155 -0.145826 -0.037571 -0.283396 0.016816 0.201029 -0.074905
3789 0.142564 -0.251852 0.205279 0.074103 0.152113 0.094103 0.246162 -0.088112 -0.212007 0.274007 0.215712 -0.121295 -0.069672 -0.144372 0.057362 -0.199023 0.085836 -0.078606 -0.002101 -0.264754 0.153991 -0.116477 -0.075400 0.020990 -0.314556 -0.154857 0.069083 0.011772 0.073221 -0.153893 0.189698 -0.032492 -0.064278 0.188412 0.169168 -0.070036 0.129500 -0.242777 0.278793 0.093332 0.084293 0.094915 0.027511 -0.041651 -0.050148 0.225643 -0.059426 -0.179990 0.135538 0.020653 0.160900 0.287355 0.046155 0.105424 -0.099592 0.032940 0.149040 -0.114371 -0.076726 0.121122 0.155833 -0.006461 0.208598 0.101286
114 0.108492 0.344412 0.140545 0.158073 -0.185852 -0.153005 0.012768 0.153249 0.003552 -0.476013 0.046916 0.008595 -0.262549 -0.064577 0.406084 -0.038079 -0.091609 -0.027453 0.118696 0.072415 0.257539 -0.155980 -0.181870 -0.039618 -0.183873 0.121077 -0.100821 0.295336 -0.039164 -0.174630 0.104871 0.314723 -0.163746 0.150192 0.034012 0.219154 0.335554 0.493141 -0.140307 0.079018 -0.063470 -0.100500 -0.133252 -0.224432 -0.146993 -0.001712 -0.051047 0.161823 -0.015050 -0.089750 0.280274 0.041121 -0.123967 0.477058 -0.019979 0.266109 -0.035459 -0.223908 0.101634 0.404378 0.112336 -0.074910 0.223206 -0.188362
3737 -0.105877 -0.276185 0.116587 -0.087464 0.268847 0.102919 -0.036770 -0.378938 -0.038827 0.180061 -0.160257 -0.091965 -0.215821 0.017294 -0.129613 -0.219932 -0.120487 0.063327 0.167298 -0.225132 -0.002889 -0.263672 0.008489 -0.101515 0.066990 0.039600 0.024052 -0.101281 0.070651 -0.157581 0.109254 -0.061008 -0.114895 -0.057929 -0.143858 -0.002095 -0.257634 -0.020449 -0.003623 0.100610 0.245683 0.158342 -0.098372 0.156464 0.063014 0.057604 0.034527 0.013009 0.178893 -0.034048 0.160776 0.072282 -0.201262 0.065320 -0.156300 -0.104508 -0.006107 0.052147 -0.145307 -0.121120 -0.021330 0.012985 0.031437 -0.214173
128 -0.318570 0.167043 -0.249140 -0.005727 -0.460751 -0.439089 0.219299 -0.133210 0.365316 0.025496 0.013403 0.038384 -0.205374 -0.330175 0.059851 -0.358899 -0.226706 0.072745 0.179914 0.112353 0.185015 0.303598 0.054076 -0.168663 -0.262512 -0.217019 0.132607 0.421934 0.163789 -0.074806 0.380243 -0.256344 -0.346855 0.450602 -0.626118 0.132172 -0.274505 -0.283641 -0.158741 -0.164737 -0.008664 0.156954 -0.108823 -0.453555 0.390796 -0.131095 0.135406 0.332793 0.556429 0.268131 0.223239 0.352267 0.338968 -0.007931 -0.226825 0.270976 -0.026574 0.235683 0.098932 0.402881 0.414408 -0.322940 -0.027426 0.145152
126 -0.084396 0.080573 -0.234389 0.465777 -0.161839 0.014366 0.106318 -0.140777 0.086253 -0.340979 0.440755 -0.102305 -0.301732 -0.287307 0.134978 -0.427433 0.109199 -0.019147 0.201680 -0.301422 -0.241937 -0.098821 0.059304 -0.194343 0.077200 -0.146879 0.245492 0.309332 -0.179391 0.335970 0.066563 -0.079954 -0.060258 0.126814 -0.484736 0.291679 0.127180 -0.724941 -0.222484 -0.250032 -0.542791 -0.017527 0.369298 0.046560 -0.174784 0.180172 -0.071081 0.175807 0.718509 0.055161 0.065981 0.171161 0.126364 0.151626 -0.050132 -0.024220 -0.421690 0.047619 -0.324325 0.215888 0.092722 -0.434144 0.344686 -0.062332
62 0.127888 -0.281075 -0.111989 -0.292568 0.450981 -0.313693 -0.399290 0.239367 -0.018346 -0.082343 -0.095665 -0.219970 -0.036602 -0.406940 0.529895 -0.393056 0.005648 0.265904 0.123027 -0.367166 -0.491599 -0.551692 -0.075052 0.060196 0.126471 0.062206 0.132472 0.173504 0.156453 -0.402177 -0.155916 0.266945 -0.179807 -0.056127 -0.075452 0.179153 0.117124 -0.001363 0.423878 -0.198188 -0.616229 -0.329362 -0.128659 -0.255348 -0.281416 0.013990 -0.071707 0.115704 0.044062 -0.099394 0.066857 0.088803 -0.179010 0.232214 0.166364 0.020269 -0.171429 0.285150 -0.132276 -0.014111 -0.056966 -0.278649 -0.025682 0.191355
