4265 64
309 -0.008507 -0.005615 0.017558 0.026809 0.347952 -0.022195 -0.028819 0.175388 -0.071558 -0.111165 0.058174 -0.070509 0.069292 0.396477 -0.007789 -0.064182 -0.130077 0.092792 -0.101433 0.028010 -0.180771 0.111326 -0.036399 0.048666 0.157985 -0.232032 0.025586 0.221201 0.147263 -0.155209 0.252020 -0.028522 0.243145 -0.276234 0.024141 -0.026557 0.002029 -0.168607 0.055033 -0.117676 -0.099849 0.129852 0.066723 -0.039098 -0.052576 0.001021 0.064039 -0.019909 0.025390 -0.001019 -0.188678 -0.212757 0.225635 0.065517 0.046319 0.087285 0.123129 0.027704 -0.303409 -0.277371 -0.118104 -0.166892 -0.219464 0.101822
3732 -0.086561 0.266191 -0.337942 0.007080 0.211423 -0.030191 0.052974 -0.023064 -0.077730 -0.301729 0.030922 0.088229 -0.206201 0.203923 0.056745 -0.085359 -0.059332 0.086639 -0.026727 0.184660 -0.278897 -0.135483 0.037189 0.069262 0.086556 -0.178072 -0.025354 -0.161022 0.223682 0.007296 0.187879 -0.088547 -0.221532 -0.323112 0.161108 0.159814 -0.080502 -0.388030 0.379788 -0.118833 0.207292 -0.042535 -0.120838 -0.257289 -0.040110 0.077811 0.045785 -0.174098 0.205627 -0.183843 0.187242 -0.276403 -0.239444 0.070704 -0.022072 0.330476 0.015217 0.252548 -0.015352 0.059142 -0.072767 -0.095482 -0.103642 -0.143396
471 -0.041168 -0.085130 -0.061773 0.028204 0.243549 -0.209080 0.439046 -0.064810 -0.070264 0.047235 -0.101245 0.019215 0.059057 0.291997 -0.222886 -0.220276 -0.088037 0.002047 -0.060328 0.205118 -0.235423 -0.030046 0.016188 0.286841 -0.015755 -0.174047 -0.047476 -0.029365 -0.027325 -0.033496 0.275143 -0.232404 -0.142001 -0.067964 0.125403 0.119646 0.061470 0.039922 0.264347 -0.058685 -0.257043 -0.216466 -0.040218 -0.086732 -0.093311 0.119226 -0.036507 -0.071897 0.110218 -0.169402 -0.046311 -0.144045 0.076688 -0.039003 -0.027610 0.042274 -0.048928 0.101453 -0.151159 0.007845 -0.078691 -0.100066 -0.018448 0.158539
1993 -0.025591 -0.152865 -0.189101 -0.098008 0.271373 -0.004326 0.105801 0.025787 -0.047123 -0.190994 -0.059846 0.098441 0.026897 0.016197 -0.018811 -0.257636 -0.046959 0.021189 -0.019762 -0.037355 0.088983 0.031946 0.116487 -0.036664 0.110222 -0.094267 -0.252595 -0.091890 0.084317 -0.002269 0.314957 -0.020375 0.051716 -0.044612 0.031932 -0.100933 0.176893 0.111893 0.183570 0.167736 -0.039724 0.123877 0.001643 0.117966 -0.098932 0.182003 0.069764 -0.135037 0.072063 -0.001856 -0.026021 -0.123536 -0.063412 0.049311 0.135017 0.150319 0.220300 0.169519 -0.260281 -0.225007 -0.113300 -0.032688 -0.097616 -0.080312
4240 -0.044746 -0.041264 -0.122849 0.024201 0.304606 -0.107834 0.172077 0.133378 -0.061973 -0.029989 -0.080165 0.059145 0.019709 -0.063863 -0.125491 -0.062414 -0.334875 0.036886 0.044883 0.090248 0.093034 0.394908 -0.044285 0.061971 0.168288 -0.086420 -0.086238 -0.080571 0.014554 -0.029388 0.144891 -0.159087 -0.097516 -0.057859 -0.114158 -0.313591 0.111538 -0.124702 0.151626 0.027446 0.012133 -0.026997 0.021547 -0.130963 -0.114838 0.105944 -0.120434 0.140859 0.009671 -0.036115 -0.154945 -0.087240 -0.291469 0.193032 -0.040331 -0.045887 0.083402 0.251086 -0.170065 -0.118523 -0.206491 -0.042117 0.018983 -0.112210
365 -0.152786 0.176883 -0.083703 -0.298734 0.292050 -0.016407 0.314558 0.098441 -0.009515 -0.030238 -0.167782 0.044066 0.121200 -0.007434 -0.094475 -0.419472 -0.003587 0.154558 -0.282870 -0.164382 -0.405785 0.069035 0.074464 0.091869 -0.169185 -0.166025 -0.038499 0.150764 -0.094190 -0.092199 0.002561 0.059511 0.021304 -0.152601 -0.087571 -0.234559 -0.059166 -0.064675 0.149419 0.007223 -0.332624 0.130262 0.068232 0.087355 -0.014141 0.069014 -0.175214 -0.189141 0.109285 -0.147183 0.080109 0.012138 -0.085065 0.012669 0.255133 0.216763 -0.101725 0.065848 -0.105437 -0.114771 -0.023017 0.083736 -0.196857 -0.184557
3798 -0.066997 -0.072363 -0.077012 0.002168 0.083219 -0.092003 0.400043 -0.016090 0.213931 -0.223962 -0.007154 0.081256 -0.207758 0.022070 0.005137 -0.221484 -0.344212 0.020274 -0.049831 -0.156881 0.015875 -0.045861 -0.135447 -0.028878 0.192298 -0.065271 -0.102933 -0.013562 -0.038451 -0.102075 0.111952 0.176987 0.039812 -0.093504 0.003680 -0.094351 -0.045548 -0.035580 0.095898 -0.093926 -0.211210 -0.048830 -0.060335 -0.110306 -0.068526 -0.007284 -0.084860 -0.305435 0.006792 -0.109483 0.035179 -0.180408 -0.171124 0.002097 0.008974 0.166044 -0.020172 0.225178 -0.252571 -0.004568 -0.030236 -0.200429 -0.016334 -0.020672
2560 -0.006234 0.004961 -0.045487 -0.012362 0.052824 0.004492 -0.000250 -0.083294 0.170661 -0.068266 -0.062273 0.240796 -0.135083 -0.062353 -0.000431 -0.295836 -0.087178 0.256622 -0.020766 0.074414 0.009935 0.240766 0.035613 -0.120643 0.043201 -0.273126 -0.199709 -0.137473 -0.202250 0.060202 0.249137 -0.144544 0.178727 -0.140273 0.077360 -0.069857 -0.130531 -0.124115 0.257307 -0.094722 0.004143 -0.214010 -0.017886 -0.073205 -0.029106 0.015103 0.011978 -0.183548 -0.049534 -0.225078 -0.000169 -0.069476 -0.115229 -0.172329 0.088721 0.211930 -0.038556 0.139561 -0.254053 -0.291770 -0.328159 0.025956 0.020468 0.121835
2428 0.065290 0.070392 -0.024942 0.167717 0.286828 0.012374 0.185769 0.095944 0.021335 -0.078322 -0.086399 -0.049410 0.039698 0.004435 0.054240 -0.175951 -0.202395 0.065625 0.034621 -0.071168 0.162936 0.050380 -0.031186 -0.030212 0.134949 -0.044697 -0.225852 0.081541 0.222041 -0.182231 0.002755 -0.074526 0.177302 0.062934 -0.129681 -0.190018 0.198970 0.148346 0.137645 0.028565 -0.049584 -0.088099 -0.140489 -0.277765 -0.168946 -0.105906 -0.139731 -0.088022 0.054871 -0.109454 0.161457 -0.135891 0.088319 0.189544 0.026469 -0.206674 -0.113746 0.157028 -0.266600 -0.160561 -0.025710 0.000702 0.091982 0.027584
2026 -0.152463 -0.139446 0.075692 -0.084586 0.283864 0.005820 -0.002758 -0.191689 0.128760 0.029607 0.043403 0.112099 -0.122177 -0.005133 0.027956 -0.155003 0.177905 -0.118572 0.070643 0.070838 -0.059522 -0.291388 -0.228164 0.156045 -0.174416 -0.152057 0.075226 0.025439 0.035129 -0.197244 -0.000896 -0.040044 -0.160711 -0.240965 -0.014580 0.021742 0.084475 -0.107930 0.144747 -0.030705 -0.050941 -0.346774 -0.152544 -0.168787 -0.001247 0.065786 0.104525 -0.110469 -0.404337 0.040045 -0.068322 -0.207191 0.049815 -0.121813 0.218892 -0.049350 0.032729 0.143874 -0.258952 -0.137418 0.114982 -0.049632 -0.130470 0.267128
2076 0.062818 -0.244684 -0.025695 0.231477 0.000407 0.045866 0.184651 -0.052852 0.077454 -0.121607 -0.077719 0.062961 -0.132438 0.036182 -0.163878 -0.212021 0.010544 0.008325 -0.000583 -0.146819 0.042924 0.081086 -0.104648 0.006045 0.011234 -0.028048 -0.104630 -0.058905 0.047846 0.020116 0.072824 0.019483 -0.022853 0.000957 -0.172937 -0.229242 0.096283 -0.095188 0.031358 -0.061713 0.040445 0.027542 -0.055186 -0.085877 0.053364 -0.074559 0.049132 -0.050039 0.092919 -0.045055 -0.007703 0.076241 -0.029033 0.111918 -0.070100 0.064835 0.048401 0.131546 -0.228399 -0.021793 -0.160393 0.082029 0.143415 -0.150629
2688 0.071672 -0.173632 0.024442 0.245387 0.097326 0.089929 0.154537 -0.100153 0.048085 -0.064157 -0.196007 0.104494 -0.047577 -0.014518 -0.046344 -0.096491 0.134267 0.198838 -0.070355 -0.176604 -0.085994 0.172505 -0.024156 0.152252 0.036639 0.167088 -0.014280 0.086184 -0.102597 -0.055479 0.056954 -0.249168 -0.086258 0.302015 0.062306 0.078214 -0.030041 -0.076451 -0.001841 0.115026 -0.060461 -0.217676 0.061566 0.145255 -0.204339 -0.049371 0.167790 -0.092025 -0.277357 -0.338637 -0.072754 -0.247819 -0.008502 0.010111 -0.000526 0.037668 0.067631 0.061269 -0.128372 -0.228752 0.002563 0.032424 0.029539 0.122465
4236 0.047310 -0.124125 0.000743 0.266422 0.180808 -0.020137 0.246602 0.379696 0.004011 -0.097775 -0.134317 0.102492 -0.297996 0.151347 0.237633 -0.302711 -0.067164 0.241686 0.250655 -0.133802 0.017855 0.360559 0.128422 -0.065570 0.090896 -0.008532 -0.100785 -0.021093 0.025983 0.111279 -0.171085 -0.220265 -0.024237 0.178751 -0.054133 0.031582 0.027325 -0.062782 -0.037785 -0.044497 -0.187255 -0.257375 -0.253980 0.241164 0.069488 -0.072633 0.027306 0.097378 0.224559 -0.224723 -0.100444 -0.251557 -0.071504 -0.031360 -0.122903 -0.205850 -0.273469 0.231794 -0.260330 -0.299923 -0.177630 -0.130233 -0.130048 0.170784
3728 0.170109 -0.112090 -0.009449 -0.000611 -0.021617 -0.051979 0.033559 0.022846 0.024974 -0.168789 -0.070811 0.005436 0.171212 0.106234 -0.199767 -0.366363 0.014013 0.038602 0.318346 -0.028758 0.014250 0.264610 0.041750 0.013982 0.012316 0.036496 -0.219035 -0.068401 0.067602 0.165027 0.037777 0.126100 0.028498 0.006374 -0.007283 -0.084544 -0.050957 -0.071582 0.123695 -0.085535 -0.019688 0.222477 0.015505 -0.037136 -0.013163 -0.016289 -0.163887 -0.353179 -0.107775 0.066211 0.103057 -0.214865 -0.059992 0.229742 0.010622 0.162321 -0.119379 0.115250 0.129276 -0.263118 -0.062107 0.011360 0.039544 0.130063
2658 -0.181535 0.105195 -0.194354 -0.113558 0.223071 -0.032342 0.228147 -0.362565 -0.090011 -0.097597 0.045300 0.005894 0.110905 -0.061927 -0.074203 -0.327120 -0.335179 0.025509 -0.138361 -0.106538 -0.311518 -0.031544 -0.322662 0.104824 -0.137544 -0.066789 -0.135333 -0.063206 0.201185 -0.017606 0.182563 0.005416 -0.143065 -0.111818 0.238183 -0.021107 0.040086 0.061458 0.345984 -0.303253 -0.045503 -0.170742 -0.002476 0.107122 0.225575 -0.145282 0.089279 -0.052933 -0.046541 0.025045 0.009639 -0.192036 -0.203562 0.129507 0.202477 0.330540 0.157409 0.165546 0.156770 -0.044074 -0.066519 -0.111419 0.106156 0.065290
296 0.034429 0.000530 -0.079294 0.082065 -0.025555 0.206800 -0.048284 -0.237200 0.153889 -0.176140 -0.240289 0.170678 -0.212031 0.268767 -0.315298 -0.093981 -0.039257 0.065677 0.013402 -0.070447 0.011644 0.088199 -0.286483 0.097824 -0.013109 0.077168 -0.101560 -0.057565 0.112924 0.028985 -0.019315 0.116089 -0.306192 -0.048639 0.011380 0.157445 -0.134826 0.010908 -0.009561 0.053353 0.028558 -0.033393 -0.177075 -0.091352 -0.123675 0.013847 0.233537 0.165296 -0.008815 0.101323 0.098363 -0.228949 0.121195 0.148370 0.048509 0.256775 -0.334560 0.126285 -0.074466 -0.236942 -0.120019 0.044715 0.054818 -0.179874
302 -0.030481 0.005017 -0.086404 -0.102882 0.027320 0.119548 -0.169392 0.251347 0.060277 0.081715 -0.139432 0.156427 0.251181 0.250254 0.037484 0.019818 0.121363 -0.409439 0.297925 -0.029672 -0.405928 -0.026874 -0.050859 -0.175247 0.003744 -0.027049 0.085050 0.171224 0.052317 0.174613 0.204662 0.219440 0.374826 -0.216279 0.177344 0.047821 0.495050 0.054467 -0.290769 -0.147257 0.187915 -0.025605 0.017951 -0.126217 0.388250 0.103521 -0.369511 -0.107529 0.015579 0.163106 0.412669 -0.128766 -0.102000 0.164932 -0.053014 -0.082589 0.412768 0.312868 -0.524141 -0.272975 0.122606 0.109059 -0.114116 -0.053587
303 -0.023064 -0.062631 0.060096 -0.059212 0.124121 -0.050933 -0.077439 0.235043 0.022605 0.065408 -0.077108 0.169144 0.276909 0.309364 0.032810 0.118101 0.026478 -0.351627 0.157825 0.096455 -0.339886 0.085732 0.006565 -0.065252 0.072123 0.108027 0.124013 0.288862 0.059001 0.100249 0.145857 0.078392 0.295091 -0.186926 0.158740 -0.053470 0.434624 0.064847 -0.408605 -0.063552 0.118682 -0.084393 0.215799 -0.233193 0.163326 -0.000009 -0.218475 -0.149016 0.105117 0.020049 0.409841 -0.100656 -0.039037 0.293502 -0.124414 -0.033840 0.518048 0.243381 -0.494211 -0.261300 0.081714 0.185951 -0.070628 -0.114149
3406 0.011494 -0.107043 -0.134365 0.047597 0.031081 0.182036 -0.012327 0.050662 -0.075317 0.105606 -0.322120 0.046397 0.015132 -0.010447 -0.107481 -0.216220 -0.130933 -0.082264 0.236433 -0.114516 0.010231 0.077569 -0.085887 0.134295 -0.032756 -0.235374 -0.195995 0.045711 -0.016174 0.142126 0.121557 0.044072 -0.081548 -0.315377 -0.231346 -0.125252 0.063906 -0.141315 -0.048739 0.026807 -0.044343 -0.163793 -0.158736 -0.224689 -0.078632 -0.058298 -0.117745 0.080977 0.062266 0.023701 -0.040355 0.144653 -0.144606 0.219372 -0.088804 0.145030 0.180202 0.042636 -0.166874 -0.112560 -0.359107 -0.149997 0.041280 0.224731
2073 0.112999 -0.152752 -0.070315 -0.011179 0.036312 -0.049641 0.065388 0.141839 0.022364 0.002111 -0.198573 0.110801 -0.114851 -0.170410 -0.234399 -0.271169 -0.014387 -0.017837 0.011690 -0.036160 -0.167160 -0.035415 -0.114609 0.104138 -0.032967 -0.007483 0.208086 0.059231 0.213874 0.011499 0.245717 -0.120618 0.114898 -0.112558 -0.150405 0.201738 0.193419 0.026065 0.250971 0.016180 -0.149220 -0.211803 -0.190494 -0.375932 -0.151239 0.030109 0.037517 -0.219686 -0.025132 -0.156578 0.050747 -0.152719 0.276612 0.118785 -0.215319 0.167407 -0.085127 -0.206327 0.036400 -0.158721 -0.143237 -0.040377 -0.013342 0.038725
2566 0.005268 -0.171948 0.097368 0.115643 -0.021092 0.152589 0.154934 0.066042 -0.030684 -0.171250 -0.147231 -0.031430 -0.113491 -0.150153 -0.300974 -0.287010 -0.193043 0.011736 -0.003652 0.001355 0.356315 0.144233 -0.178497 0.114762 0.014753 0.042674 -0.084898 -0.155872 0.143578 -0.042785 0.043343 -0.152340 -0.126862 0.031345 -0.086239 -0.071650 0.122198 0.011044 0.257033 -0.151062 0.056800 -0.057589 -0.000247 -0.113484 -0.109063 -0.076926 -0.129021 -0.103728 -0.039979 -0.080831 0.114428 -0.132671 -0.002302 0.045107 0.035862 0.109488 0.011403 0.102872 -0.194301 -0.141086 -0.015367 0.026970 0.179603 0.059548
361 -0.031050 -0.120091 0.132831 -0.043319 -0.029885 -0.066185 0.258715 -0.124343 -0.035630 -0.197497 0.153932 0.112081 -0.179561 0.070425 -0.129807 -0.341035 -0.079899 -0.056811 -0.242123 -0.061393 0.269780 0.336079 -0.051715 0.053706 0.083352 -0.200411 -0.107646 0.268842 0.074961 0.128830 0.061523 0.055038 -0.018926 -0.236367 0.075207 -0.188729 0.042155 0.128984 0.103024 0.044423 -0.077665 -0.053439 -0.256252 0.035183 -0.158264 0.125602 0.185429 0.006251 -0.081174 -0.218962 -0.007059 0.001952 -0.217723 0.335497 -0.078470 -0.117379 0.091388 -0.067210 0.172207 0.046222 -0.240029 -0.212764 0.004122 -0.013562
829 0.232087 -0.032313 0.018703 0.013310 -0.015153 -0.079488 0.114199 0.234546 0.061603 -0.230265 -0.054362 0.040423 0.023715 0.060439 -0.058044 -0.467741 -0.107462 -0.128677 0.230639 -0.090094 0.037160 0.111444 0.007123 0.067330 -0.088103 -0.026898 -0.138779 0.022238 -0.071194 0.024609 0.084828 -0.281789 -0.016689 -0.076348 -0.238821 -0.216793 0.181796 0.081047 0.153634 0.006360 -0.173882 -0.051162 0.194920 -0.041107 -0.101136 -0.224957 -0.061817 0.025707 0.019648 0.042759 0.157382 0.008869 -0.071776 0.108817 -0.043541 0.162014 0.035296 0.061634 0.103022 0.072501 0.023779 -0.220845 0.135972 0.238760
269 -0.253903 0.444964 0.277584 -0.444559 0.419583 -0.294828 0.196100 0.122958 -0.357823 -0.092600 -0.041702 -0.308275 0.330760 -0.011251 0.045702 0.302943 -0.041382 -0.061437 0.035555 0.219208 -0.033669 -0.077051 -0.852279 0.344263 0.060360 -0.006738 0.062691 0.016654 0.209255 0.458742 0.407035 -0.365324 -0.376169 0.131190 -0.487548 -0.028725 0.332140 -0.078626 -0.174843 0.014805 -0.209083 0.020755 -0.356221 0.218560 -0.198300 -0.116544 -0.219503 0.652502 -0.359309 -0.100499 -0.020955 -0.296305 0.471459 -0.025805 -0.252384 0.134638 -0.177553 0.230707 -0.306928 -0.269653 0.257392 0.351944 0.127619 -0.448550
1639 0.012257 -0.081558 -0.058920 -0.018615 0.052442 0.017353 0.111029 -0.149837 -0.073808 0.106376 0.013287 0.091820 -0.192403 -0.006870 -0.296818 -0.030539 0.026944 -0.094391 0.085776 -0.082119 -0.004633 0.120463 -0.073642 0.051772 -0.027343 -0.229928 0.005371 0.066020 0.192891 -0.232493 0.228926 0.037145 -0.246217 0.160084 0.140511 -0.205587 0.019095 -0.143047 0.200158 0.072596 -0.014249 0.238421 -0.076427 -0.062287 0.027028 -0.103147 0.054580 -0.133064 -0.015873 -0.135510 0.077237 0.131073 -0.082578 0.226294 -0.064151 0.181010 0.027610 0.044916 -0.161369 -0.397344 -0.003170 -0.111641 0.016189 -0.146571
435 0.147439 -0.092371 0.172839 0.270035 0.095030 -0.201599 0.089289 -0.075042 0.090352 0.047287 -0.007529 0.073345 -0.237516 0.077698 -0.083810 -0.211490 0.121811 -0.015439 0.053611 -0.205194 0.022876 -0.083564 -0.052161 0.092396 -0.147777 0.089245 -0.011665 0.043216 0.055702 0.160479 0.019695 -0.040422 -0.118973 0.031162 0.046131 -0.126742 0.031227 0.100823 -0.033413 -0.265821 -0.028966 0.028355 -0.072798 -0.119384 -0.015286 -0.095059 0.062165 -0.124235 0.187239 -0.241234 0.062652 -0.071510 -0.028803 0.063765 -0.038894 0.139407 0.013855 0.010077 -0.158681 -0.023271 0.092189 -0.020756 -0.039968 0.098961
287 -0.102497 -0.052476 0.096660 -0.193273 0.233472 -0.141617 0.298195 -0.089919 -0.394407 -0.100553 -0.110601 -0.076647 -0.114410 0.190908 -0.009114 -0.077348 -0.165028 0.238088 -0.028862 -0.059647 0.287012 -0.018410 -0.264350 0.129542 -0.068721 -0.086201 -0.007541 -0.236672 0.371874 0.166905 0.204516 -0.165407 0.062717 -0.249345 -0.138003 0.041823 0.130302 0.213853 0.037325 0.121391 -0.013159 0.212007 -0.006115 -0.232841 0.005778 -0.223395 0.173717 0.343384 -0.037000 0.118001 0.315952 -0.097076 -0.005907 -0.081259 -0.071095 0.406551 -0.165534 0.129191 -0.173756 -0.351577 -0.091956 0.235960 0.224499 0.023375
4152 0.071863 0.159308 0.140633 0.134032 0.172095 0.044815 0.078218 -0.312851 0.127848 -0.133303 0.115109 0.021442 -0.340744 0.018652 -0.087023 -0.106003 0.187562 -0.358010 -0.141501 -0.158422 -0.126058 0.033625 -0.251422 0.082011 0.073875 0.005173 -0.017033 -0.351040 -0.251514 -0.006402 -0.003931 -0.227587 -0.197203 -0.343967 -0.195747 -0.338094 -0.200233 0.190408 0.179787 -0.082113 0.088193 0.119434 -0.045075 -0.253741 -0.189391 0.062557 0.169390 -0.169898 0.134721 0.015426 0.044697 -0.147263 -0.043321 0.060350 0.088280 0.102857 -0.037502 0.139742 0.031932 -0.107205 0.059040 -0.157893 -0.031053 -0.054811
627 0.147109 0.106839 0.157140 0.090517 0.162467 -0.129786 0.159666 0.008846 -0.146912 -0.070720 -0.296715 -0.003212 -0.144851 0.064792 -0.280152 -0.074071 -0.295186 -0.157659 -0.048985 -0.383129 0.247257 -0.132097 -0.108679 0.213705 0.069036 -0.131565 -0.015277 -0.080507 0.154622 0.206564 0.217241 -0.202800 -0.138959 0.082951 -0.057175 -0.135943 0.059070 -0.018340 -0.078634 0.137211 -0.061271 -0.005550 -0.054090 -0.163630 0.077225 -0.064365 0.121373 -0.057496 -0.071953 0.055150 -0.019552 -0.125965 0.118820 -0.046844 -0.113702 0.306250 -0.120168 0.110266 -0.220008 0.013794 0.041827 -0.019570 0.122561 0.274625
193 0.020809 0.696589 0.085904 -0.578652 0.142706 0.290830 0.517517 -0.399651 -0.144589 0.148661 0.639268 0.443822 0.222346 0.971018 0.406157 -0.147881 -0.010908 -0.045762 0.013572 -0.033654 -0.422190 -0.041903 0.290920 0.332055 0.427304 -0.831637 -0.655558 -0.572290 -0.362045 -0.619623 -0.134238 0.160187 0.095118 -0.197084 0.047359 0.155514 0.069749 -0.408469 0.159315 0.259666 0.372808 -0.188832 0.510960 -0.088448 -0.491383 -0.303714 0.373300 -0.183742 0.067324 -0.194020 -0.214656 -0.510839 -0.003827 -0.162210 -0.114525 -0.187888 -0.337218 0.223289 -0.333610 0.155442 0.241543 -0.406200 -0.216467 0.067004
81 -0.326633 0.163000 -0.146710 -0.446881 -0.126793 0.373911 -0.326532 0.417140 0.321221 0.107670 0.310464 -0.270838 -0.115754 0.171714 -0.341216 -0.479976 0.254741 -0.226525 0.313538 -0.397061 -0.194611 0.358060 -0.431102 -0.117806 0.047385 -0.246267 0.449670 -0.017510 0.521641 -0.089040 0.177005 -0.028777 0.413109 -0.282980 0.273624 0.010387 0.225552 0.272624 -0.131124 0.187613 -0.302884 -0.226379 -0.259100 0.264409 0.562616 0.533554 0.187229 0.194004 0.113802 0.201716 -0.379604 0.054968 0.710461 0.051926 -0.026511 0.166013 0.243763 0.379485 -0.145035 0.326182 0.374165 0.192598 0.052339 -0.182977
3742 0.118652 -0.058113 0.263546 -0.113078 0.023380 0.254392 0.200496 -0.084877 0.136379 -0.235289 -0.192639 0.188825 -0.038394 -0.125096 -0.080306 -0.189941 -0.180873 -0.005021 -0.003108 0.150145 -0.073287 0.062028 0.007685 -0.052318 -0.063662 -0.063035 -0.039214 -0.063921 0.159965 0.305641 0.001644 0.258364 -0.110038 -0.186455 -0.096361 -0.113459 0.043466 0.131852 0.303118 -0.121998 0.151456 -0.068641 0.085349 0.201874 -0.124970 -0.068261 0.072691 -0.280530 -0.219209 -0.184826 -0.048978 -0.172822 0.021582 -0.026726 -0.243796 0.126645 -0.051326 -0.040393 -0.120174 -0.172707 -0.048374 -0.147477 0.088759 -0.066881
2148 0.090456 -0.050351 0.171939 0.120817 -0.195846 0.024795 0.103238 -0.014625 -0.089839 0.062671 -0.103740 -0.073229 -0.010628 -0.196629 -0.144350 -0.327236 -0.089960 -0.008859 0.267835 -0.199556 0.012203 -0.092508 -0.235556 0.004523 -0.112151 -0.080762 -0.000183 0.108610 0.119769 -0.045535 0.060039 -0.153929 -0.133657 -0.140640 -0.190790 -0.128699 0.046678 0.242616 -0.088326 0.047698 0.054004 0.008211 -0.055338 -0.068053 0.031611 0.031396 -0.194142 -0.047433 0.089146 -0.031247 -0.170766 0.050619 -0.064360 0.154269 -0.070511 0.075920 0.075216 0.022230 -0.191024 -0.372658 0.022062 0.008719 0.099062 -0.067782
2292 -0.040298 0.013775 0.210969 0.032900 -0.127698 0.227101 0.101009 -0.035523 0.184900 -0.274106 -0.299485 0.366942 0.158009 -0.013221 0.013550 -0.246232 -0.031784 0.298999 -0.176791 -0.335020 -0.147068 0.044566 -0.188552 0.195331 0.155314 -0.087621 0.242222 -0.208391 -0.002865 -0.397669 -0.160814 -0.296441 -0.210494 -0.227629 0.163493 0.233387 -0.138644 0.024764 0.444062 0.085582 -0.065876 -0.154264 0.171166 -0.084161 0.116290 -0.176674 0.027108 0.270741 -0.134342 0.001020 -0.191903 0.161651 0.037074 -0.015480 -0.083132 -0.159803 -0.095346 -0.274878 -0.204636 -0.220719 0.027005 -0.173110 0.447346 0.234247
250 -0.180615 -0.000277 -0.046064 -0.098866 -0.044106 -0.503189 -0.395388 0.613542 0.002648 -0.187244 -0.128910 0.573259 0.016972 -0.180305 -0.355197 0.121105 -0.079357 -0.189896 -0.096163 -0.133060 -0.104139 0.294449 -0.320172 0.246767 0.410320 -0.340949 -0.152114 -0.484266 0.230377 0.274846 0.062035 0.272428 0.142889 -0.251661 -0.005874 0.186083 0.412867 -0.511946 0.252911 -0.208861 0.109872 -0.072729 -0.075051 0.151800 0.031167 0.583106 -0.087541 -0.632595 0.017245 -0.205677 -0.358591 0.296673 -0.007489 -0.270534 -0.005944 0.303016 0.039351 0.405050 0.246139 -0.462103 0.141348 0.088981 -0.288682 -0.105323
4104 0.144216 -0.079937 -0.014606 0.081611 0.004385 -0.130994 0.006107 -0.091338 0.098609 -0.038831 0.008852 -0.096048 -0.089388 0.094158 -0.283062 -0.330055 0.104614 -0.097011 0.119496 -0.338940 -0.050771 0.085571 -0.047646 -0.165250 -0.027453 0.005558 -0.089476 -0.006837 0.232915 0.040454 0.071391 -0.233463 -0.091985 -0.129576 0.028527 -0.012511 -0.063288 0.067017 0.153949 0.048874 -0.043971 -0.271213 -0.088000 -0.150149 -0.114761 -0.085856 0.082360 -0.143916 0.063074 0.025756 0.111664 -0.043390 -0.001486 -0.070767 0.019522 -0.063763 -0.027279 -0.094913 -0.036464 -0.295658 -0.247758 -0.060165 0.075007 0.007936
1306 0.245529 -0.032758 0.147190 0.047596 0.091510 0.139768 0.148538 -0.150773 0.098675 -0.096986 -0.223786 0.028956 -0.144720 -0.018611 -0.284485 -0.056350 0.032547 -0.018144 0.108722 -0.033224 0.131789 0.155492 -0.147837 0.155443 0.025000 0.163987 0.092400 0.090579 0.088006 0.000071 0.046455 -0.288964 -0.127059 -0.184075 0.030038 -0.217754 -0.038795 0.097829 0.162179 0.104874 0.206173 0.051845 0.013316 -0.084565 -0.056811 -0.074379 -0.017354 -0.044313 -0.040747 0.197619 0.082216 0.063062 -0.050332 0.064062 -0.050258 -0.024009 0.113051 0.039582 -0.337543 -0.157106 -0.126106 0.041104 0.059115 -0.003459
4067 0.059340 0.135542 -0.238525 -0.005901 0.030471 0.153676 0.229689 -0.299823 0.140383 -0.014697 -0.111311 -0.023416 -0.120810 0.170162 -0.155126 -0.016046 -0.136881 -0.112131 0.052710 0.068721 -0.018562 0.062226 0.186831 0.428855 -0.026187 0.194220 0.046618 0.111531 0.025515 0.027199 0.148276 -0.082649 -0.076282 0.128641 0.097525 -0.091860 0.068863 0.020984 0.264881 0.007206 0.136541 -0.131578 -0.073802 -0.141781 -0.018810 0.020762 0.105991 0.037880 0.012550 -0.097840 -0.195771 0.116929 -0.396127 0.244559 -0.084602 -0.040723 0.086602 0.236523 -0.047479 -0.186580 0.154159 0.031193 0.194812 0.070124
2619 -0.008727 -0.078462 -0.043012 0.152255 0.010033 -0.002802 -0.126845 -0.230256 -0.255304 0.042057 0.009130 0.099073 0.200566 -0.171844 -0.059582 -0.066509 0.111395 0.091433 -0.098293 0.004782 0.273248 -0.352832 -0.028975 0.079159 -0.049431 -0.004291 0.105252 0.117915 0.060286 0.081965 0.078037 0.144956 -0.121629 0.284431 -0.026881 0.034826 -0.191204 0.148083 0.261345 -0.017301 -0.314156 -0.303245 0.055439 -0.204274 -0.075376 -0.111192 -0.170419 0.099256 0.038642 -0.194720 0.029184 -0.001373 0.177059 0.449029 -0.013183 -0.199551 0.081546 0.288208 -0.319534 -0.208253 0.179599 -0.032799 -0.091821 0.040611
312 -0.208171 0.082379 -0.100377 0.097921 0.230419 -0.242038 -0.338586 -0.152897 0.097538 -0.026226 0.233688 0.399621 0.110494 0.310554 -0.023768 0.000642 0.303828 -0.046379 0.082785 -0.497581 -0.042705 -0.019765 -0.060668 -0.457751 -0.063205 0.333130 0.171697 0.156954 0.022402 0.100605 0.025816 0.133190 -0.035945 -0.278738 0.079476 0.267299 0.045132 -0.110375 0.258452 0.032525 -0.360197 -0.220737 -0.169963 0.170220 0.109808 0.242304 0.071608 -0.208935 0.333298 -0.033305 -0.376286 0.376993 -0.035957 0.156497 0.201779 0.530961 0.312086 0.556048 -0.175311 0.083205 -0.541623 0.272579 0.140137 0.287648
1898 0.057537 -0.071574 -0.269059 -0.066276 0.096700 -0.029798 0.090567 -0.169798 0.149702 -0.247080 0.087601 0.063063 0.222815 0.272745 0.025594 -0.059274 0.546766 -0.156006 0.212242 0.070187 -0.122124 0.086249 -0.028227 0.029562 0.056008 -0.117301 -0.276158 0.013894 -0.026552 -0.113907 -0.036232 -0.168805 0.104413 0.160232 -0.121929 -0.085472 0.123363 0.322960 0.104067 -0.001263 0.264936 -0.175246 -0.341134 -0.000436 0.164282 -0.318654 0.268560 -0.039222 -0.102447 -0.065850 -0.385055 0.038300 -0.080092 -0.086205 -0.092102 0.154275 0.027326 -0.117171 -0.153109 -0.122494 0.038642 -0.151987 0.123243 -0.129245
3962 0.152346 -0.085359 0.038330 0.202979 0.002501 0.007627 0.049258 -0.320883 0.110434 0.084856 -0.138687 -0.113364 -0.163465 -0.170247 -0.033709 -0.236049 0.161643 -0.049247 0.031366 -0.295242 -0.171366 -0.073838 -0.120264 0.061784 -0.038518 -0.189505 -0.018881 -0.115080 -0.017198 0.244608 0.261068 -0.056475 0.125476 -0.124712 -0.098457 -0.002568 -0.128140 -0.007743 -0.097573 0.222577 -0.033231 -0.253665 -0.100218 0.130684 0.249949 -0.105646 0.247610 0.237439 0.005923 -0.017880 -0.164084 -0.206128 0.055148 0.145137 -0.294506 0.157879 -0.086832 0.120797 -0.196747 -0.193481 -0.178651 -0.044828 0.019374 -0.168469
2639 0.284700 -0.125112 0.025259 0.036985 -0.145824 0.094245 -0.000554 -0.102506 -0.114541 -0.227441 0.002861 0.295274 0.191132 -0.031436 -0.054231 -0.136439 -0.143827 -0.095951 -0.037277 -0.181453 0.178744 -0.102802 -0.119008 -0.038390 0.333916 0.090203 -0.138942 -0.030898 -0.122596 0.219952 0.093898 -0.243478 0.166229 -0.180006 -0.142163 -0.058171 -0.040855 -0.053478 -0.038047 0.002725 -0.090870 -0.130536 -0.070685 -0.274290 0.082920 -0.170878 0.105983 -0.058833 -0.140017 -0.142982 0.060882 0.199976 -0.050248 0.066332 -0.288695 0.261402 0.038678 -0.186589 0.054358 -0.164411 -0.022555 0.069470 0.019998 -0.191020
4097 0.141189 0.087481 0.127551 0.076132 -0.155742 0.309087 0.094737 -0.219860 0.233162 -0.110924 -0.116729 0.111038 -0.018433 0.075038 -0.111599 -0.175935 -0.141704 0.076116 -0.010909 -0.165634 0.206156 0.103615 -0.029632 0.229353 0.131186 0.103281 -0.160751 0.050543 0.037300 0.244906 -0.128796 -0.108589 -0.090835 0.093019 -0.093429 -0.116328 0.235390 0.054068 0.005762 -0.025869 0.027440 0.002853 0.052296 -0.060393 -0.011460 -0.036311 -0.046270 -0.086551 0.081269 -0.047023 0.043546 0.112419 -0.121928 0.340683 -0.072201 -0.040684 -0.070760 -0.063731 -0.080500 -0.146417 -0.121932 0.097425 0.172805 0.201608
294 0.014407 0.174697 -0.355612 0.017966 0.284505 -0.108407 0.245997 -0.026807 -0.152772 0.115220 -0.357099 -0.211647 -0.181833 0.173228 -0.277633 -0.089852 -0.059109 0.074944 0.077598 -0.305965 0.152274 0.189351 -0.402465 0.012014 -0.183769 0.018115 -0.038835 -0.246607 0.254803 0.040242 0.212992 -0.198176 -0.371305 -0.056334 -0.043178 -0.123425 0.077449 0.117787 0.054346 0.040382 0.109082 0.071261 -0.103969 -0.196973 0.021275 -0.196193 -0.245561 0.221540 0.079858 -0.142676 0.180814 0.049040 -0.190529 -0.118193 -0.116456 -0.021894 -0.109222 -0.005604 -0.188233 -0.424291 0.158288 0.125913 -0.109134 0.063547
107 -0.587884 0.131174 0.036797 -0.495538 0.252977 0.233904 0.883661 0.000769 0.235741 -0.617343 -0.155625 -0.160408 0.255962 0.050357 0.063876 0.188724 0.602672 0.385115 -0.183637 0.253429 0.050912 0.195057 0.160911 0.198146 0.226235 0.116242 0.246047 -0.098418 -0.059799 0.342517 0.247365 -0.481835 -0.688963 -0.307142 0.179770 -0.517736 0.313437 -0.183486 0.049407 0.101883 0.110062 -0.044483 0.235285 0.432331 -0.278840 0.428257 -0.273852 0.076068 0.405093 0.338279 -0.050773 0.016043 -0.311219 -0.232088 -0.549155 0.476399 -0.486252 -0.191435 0.029071 0.035580 0.184403 0.228211 -0.281403 0.282497
2634 0.084261 0.070429 -0.007902 0.015382 -0.006973 0.007148 0.276671 -0.018352 -0.159285 -0.102990 -0.323378 -0.051104 0.059907 0.051885 -0.191531 -0.238333 -0.103690 0.039077 -0.031701 -0.146319 0.430276 0.156838 -0.262765 -0.095398 0.022349 -0.164152 0.102233 0.001378 0.212728 0.093162 -0.158142 0.119274 -0.061801 -0.025627 0.067151 -0.279642 0.192033 0.134285 0.255049 -0.067269 -0.009016 0.143595 -0.017442 -0.211922 -0.212418 -0.085341 0.231270 -0.012247 0.084403 0.040276 -0.111183 -0.085230 -0.034073 0.130734 0.052024 -0.009471 -0.004605 -0.026429 0.099343 -0.205686 0.252644 -0.109815 0.087788 0.337441
2194 0.343646 -0.040072 -0.080633 0.239019 0.059488 0.152867 -0.059217 -0.145112 0.194211 0.003590 -0.194153 0.033051 0.120507 0.043683 -0.205206 -0.133694 -0.202938 -0.042610 0.129800 -0.192412 0.176198 0.117665 -0.155196 0.096321 0.029120 0.082967 -0.023887 0.111284 0.113846 0.056757 -0.031866 -0.048560 -0.202896 -0.030253 0.044342 -0.298275 0.009109 0.163788 0.084560 -0.147176 0.088633 -0.010335 -0.005725 -0.318546 0.067233 -0.056723 -0.077592 -0.046567 -0.186484 0.078191 0.082205 -0.013365 0.077336 0.102617 0.030359 -0.112549 -0.084038 -0.044867 -0.180128 -0.107700 0.115011 0.174681 0.182830 0.040531
1775 0.107141 -0.182426 0.161017 -0.129653 -0.078839 -0.012491 0.047529 -0.256978 -0.031889 -0.161323 0.078597 0.049433 -0.313153 0.129338 -0.213768 -0.170608 0.099231 -0.026478 -0.093100 0.088810 0.052129 -0.269449 -0.179388 0.161497 0.022126 0.091214 -0.028683 -0.123952 0.030836 0.172630 -0.000991 -0.203878 -0.157625 0.044552 0.051057 -0.137110 -0.053211 -0.098371 0.063830 -0.127163 0.039820 0.034562 0.144018 -0.141599 0.037451 -0.182462 0.006244 -0.183652 0.054626 -0.190972 0.239484 0.115047 -0.029521 -0.112326 -0.138615 -0.072926 -0.049927 -0.015233 -0.267518 -0.154895 -0.133997 0.132043 -0.015859 -0.068970
2005 0.155163 0.124673 0.144092 0.205372 0.102501 -0.013226 0.170163 0.196997 0.150935 -0.104217 -0.245530 0.261255 -0.063578 -0.015536 -0.277040 -0.153236 -0.191246 -0.046107 0.047439 -0.247350 0.015514 -0.168700 0.048767 0.313196 -0.034663 -0.152361 0.190000 0.088930 0.087950 0.390198 -0.046721 0.073534 0.050001 0.116461 -0.176323 -0.253557 0.057010 -0.014016 0.236139 -0.270962 -0.018502 -0.012704 0.000505 -0.375179 -0.125923 -0.136662 0.064520 -0.073741 -0.088984 -0.228168 0.150966 0.268789 0.036762 -0.044204 -0.155310 0.253115 0.105151 0.018018 0.063563 0.182789 -0.158184 -0.054591 0.169276 0.174295
1729 0.045821 -0.184212 0.123624 0.260631 0.158407 0.001496 0.147476 0.046728 0.060846 0.096623 -0.169310 -0.025840 -0.156132 0.136613 -0.333450 -0.249563 0.064369 -0.163970 0.111160 -0.050430 0.003876 0.080915 -0.080649 -0.111661 -0.076364 -0.138401 0.062625 -0.184609 0.041391 0.203611 -0.050855 -0.132526 0.168873 0.047690 0.083089 -0.060709 -0.136374 0.027789 0.104983 0.101700 -0.047608 0.001616 0.058008 0.082452 0.158029 0.011027 0.018949 0.039486 -0.035516 -0.050342 0.074348 0.136586 0.258305 -0.010679 -0.029928 0.161048 0.125666 0.263937 -0.233016 -0.223130 -0.132739 0.053619 0.253953 -0.014422
4054 0.157995 -0.517037 0.159117 -0.124992 -0.217340 0.150944 0.311486 0.036355 -0.064106 -0.201641 0.229851 -0.300113 0.046746 0.162833 -0.223703 -0.273206 0.137548 -0.037347 0.322289 -0.260953 0.013297 0.099824 -0.013446 -0.165842 -0.028642 -0.313193 0.081623 -0.042762 -0.013684 -0.116464 -0.003322 -0.095749 -0.045492 -0.041591 0.206243 -0.400265 0.203079 0.281692 0.118799 0.307593 -0.125506 -0.130478 0.210215 0.183910 -0.274549 0.002155 0.033890 0.162813 -0.063007 -0.267131 0.066961 -0.073742 0.007333 0.002901 0.126785 0.433268 -0.069544 0.184973 0.172676 -0.385545 0.104091 -0.104295 0.133640 0.164685
2723 0.412020 -0.143879 0.156408 0.100225 0.011601 -0.015728 0.075145 -0.092027 0.212161 0.026693 -0.114663 0.032886 -0.336844 0.009982 -0.062402 -0.172066 -0.121320 -0.132525 0.182148 -0.388679 0.049760 -0.060793 -0.169583 0.177780 0.130778 -0.115881 -0.123009 0.069829 0.019442 -0.144263 0.184647 -0.154306 -0.107547 -0.110862 -0.026367 -0.290292 0.140110 0.151303 -0.117384 -0.053644 -0.031795 -0.082530 0.003806 0.085306 0.207406 -0.162568 0.063460 0.193335 0.047194 -0.017738 0.020230 0.202791 0.084356 0.141680 -0.253414 0.143209 0.035037 0.038673 -0.106518 0.056413 -0.292499 -0.061199 0.002285 -0.077055
228 -0.199620 0.142537 0.166501 -0.198019 -0.364473 -0.296709 -0.351728 -0.045917 0.003015 -0.065030 0.142981 -0.378240 0.200615 0.244543 0.115274 0.045761 -0.073341 0.110493 0.195419 0.096162 -0.142699 -0.197374 -0.288529 0.116369 0.356434 0.100345 -0.123087 0.454970 -0.159766 0.128566 0.376317 0.183572 -0.053278 -0.199308 0.113322 -0.437802 -0.131242 -0.130224 -0.074856 0.458540 0.003984 0.180862 -0.212851 0.108934 -0.249570 0.502232 -0.235216 0.220652 -0.071469 -0.234150 -0.380940 -0.209474 0.042279 0.443544 -0.237155 0.077430 -0.246094 0.221556 -0.114580 -0.411352 0.184144 0.392144 0.042762 0.197907
542 0.436587 -0.269159 0.133193 0.016399 0.101622 -0.010093 0.412122 0.154321 0.071741 -0.049826 0.042666 -0.122468 -0.088149 0.179901 -0.197030 -0.176439 0.080578 0.041849 0.076699 -0.248367 -0.139333 0.033887 -0.204297 0.173956 0.161741 -0.138692 -0.025825 0.253656 -0.230317 0.240513 -0.210195 0.118932 -0.228708 -0.231472 -0.201478 -0.114271 0.009630 0.058756 -0.010407 -0.119562 0.154626 0.114066 -0.174228 0.210415 0.009689 -0.266490 0.283250 0.115872 -0.002171 0.008198 0.005424 0.044301 -0.216042 0.283241 0.006788 0.076773 0.136983 -0.028845 -0.006749 -0.020556 -0.109690 0.074686 0.215047 -0.081749
50 -0.388519 -0.135005 -0.413738 0.038041 0.302050 -0.083839 -0.041867 0.704921 0.138881 -0.430004 -0.389867 -0.181226 -0.122042 0.173910 -0.542471 -0.449301 0.032363 0.333465 -0.162145 -0.009501 -0.332524 0.070111 -0.023636 -0.136031 0.144024 -0.162453 0.084462 -0.076383 0.143701 -0.020656 0.078438 -0.035591 0.317930 -0.255160 0.032539 0.225394 -0.320922 -0.054659 0.125283 0.112559 0.266767 0.249197 0.250210 -0.112617 -0.286932 0.098347 -0.159207 0.447213 0.114169 -0.096974 -0.302680 0.192702 -0.396807 -0.404064 0.076309 -0.322032 0.074398 0.484382 -0.208754 0.119507 0.296989 0.293471 0.335005 0.134692
3737 0.208709 -0.046787 -0.236396 0.093076 -0.065344 0.034211 -0.147790 -0.132110 -0.096551 0.064083 0.016915 0.133269 -0.151157 0.032679 -0.345064 -0.477050 -0.010830 -0.023405 -0.053254 -0.197833 0.133846 -0.092590 -0.078995 0.158427 0.103539 0.213880 0.011709 0.060095 0.081328 -0.122252 -0.063356 -0.049836 -0.229001 -0.042444 -0.151958 -0.219139 0.087591 0.170226 0.033910 0.103991 0.229831 0.070884 -0.195014 -0.252009 -0.052806 0.008630 0.195403 -0.046220 -0.080742 -0.012404 0.097245 -0.058821 0.072957 -0.018463 0.169264 0.131362 0.069836 0.137215 0.068475 0.010119 -0.217702 0.066635 0.170640 0.160804
1754 0.073557 -0.138165 -0.052663 0.347737 -0.109555 0.084851 0.174905 -0.239493 0.038537 -0.046883 -0.177494 -0.014349 -0.098318 0.024069 -0.036783 -0.052973 0.071436 -0.175049 -0.003925 -0.262104 -0.085698 -0.077671 -0.248084 0.251896 0.295055 0.133631 0.044619 0.080393 -0.040677 0.094575 0.182649 -0.135463 -0.211624 0.171289 -0.161662 -0.234792 0.017002 -0.017119 -0.061114 0.141585 0.048299 0.135977 -0.126901 -0.142947 0.130260 -0.061580 0.112890 -0.201816 0.135701 -0.064816 -0.026255 -0.140314 0.171185 0.060249 0.009278 0.043646 0.010570 0.198037 -0.163252 0.075536 -0.086509 -0.266811 0.361116 -0.015658
1334 0.043145 -0.074643 -0.036580 0.144813 0.141467 0.086180 0.114888 -0.467346 0.174372 0.023320 -0.019684 0.125522 -0.116555 0.175298 0.004907 -0.119655 0.230504 0.031339 0.146088 -0.360563 0.073925 -0.262407 -0.133983 0.045651 -0.001260 0.390786 -0.030064 0.078381 0.300950 -0.002120 0.133036 -0.309909 0.091986 -0.044133 0.069292 -0.176227 0.182667 -0.182555 -0.026474 -0.069231 -0.064110 0.017489 -0.280558 -0.035236 0.253655 -0.143672 0.113634 0.048515 -0.041947 -0.200116 0.065935 -0.061991 0.072888 -0.054650 0.038267 -0.062894 0.116547 0.162211 -0.210073 0.040842 0.004885 -0.172012 -0.116037 -0.206040
1553 0.067131 -0.334068 -0.104269 0.059127 -0.003975 0.000613 0.358345 -0.100609 -0.195446 -0.015055 -0.245551 0.012989 -0.115558 0.027016 -0.100863 -0.222440 0.158564 -0.012651 -0.068320 -0.303254 0.158381 0.016108 -0.100382 -0.028401 -0.019818 0.197897 -0.046777 -0.066270 0.228368 0.137568 0.046489 -0.092576 0.153792 -0.099679 -0.059153 -0.159799 0.100520 0.032038 0.137666 0.137214 -0.039689 0.014984 -0.030981 -0.234387 0.084827 -0.310565 0.189371 0.007242 0.111853 0.146398 0.142685 -0.054377 -0.036228 0.079099 0.116485 0.145171 0.118867 0.016050 -0.065442 -0.139078 -0.052005 -0.058444 0.148886 0.000691
1030 0.296087 0.027266 -0.116557 0.207765 -0.041678 0.108559 0.342461 -0.018505 -0.017616 0.119780 -0.254506 -0.190245 -0.094771 0.151303 -0.178085 -0.084908 0.177746 0.164780 -0.047796 -0.065947 0.100331 0.108643 -0.005640 0.012807 0.154952 -0.037025 0.024822 -0.003919 -0.096261 0.155295 0.023684 -0.029218 -0.075988 0.177111 -0.091574 -0.126934 0.077059 -0.199875 0.014985 0.154093 0.007771 0.097926 -0.139292 -0.158363 -0.028840 -0.304595 0.339744 0.007098 0.012339 -0.103629 0.099214 0.067142 -0.129168 -0.142076 -0.249481 0.268984 0.222908 0.087023 -0.125608 -0.143564 -0.175732 -0.149757 0.285355 0.109212
852 0.306397 -0.032017 0.306586 0.436670 0.239455 -0.078370 0.385699 0.026613 0.008169 -0.141352 -0.150687 -0.159540 -0.155854 0.014917 -0.115771 -0.227578 -0.260929 0.163842 -0.119992 -0.126132 0.178708 0.202780 -0.051876 -0.067820 -0.174138 -0.021746 -0.333356 0.011287 0.082924 0.064995 -0.175425 -0.069502 -0.100015 0.074972 0.094211 -0.057395 0.043764 -0.002314 -0.010372 -0.069844 -0.112311 0.111502 -0.169268 0.169187 -0.065859 -0.177119 0.051688 -0.162291 -0.265957 -0.138409 -0.085629 0.032463 -0.039444 0.023748 -0.038543 -0.143344 0.070402 0.197021 -0.311003 -0.231366 -0.220501 -0.032288 0.351383 -0.103160
2342 0.194404 -0.066709 0.111420 0.090424 -0.221461 -0.062051 0.141830 -0.047330 0.009582 0.228853 -0.166929 -0.190827 -0.031538 -0.005125 -0.240568 -0.296164 -0.061238 -0.148164 0.108564 -0.148224 -0.016277 0.129106 -0.074807 0.138813 -0.060172 0.051826 -0.223465 0.013043 0.162451 0.057810 0.092295 -0.025899 -0.050800 0.236469 -0.124511 -0.207140 -0.044751 0.124653 0.081497 0.074194 0.033144 -0.130418 0.034785 -0.272503 -0.193785 -0.146373 -0.069158 -0.213974 -0.172648 0.114209 0.061588 -0.070440 0.045119 -0.067699 0.064958 0.018597 0.213158 0.106820 -0.126841 -0.165134 -0.020854 0.193095 0.260629 0.173127
252 -0.174755 -0.357976 -0.240037 0.143698 -0.117895 0.184548 0.206221 0.027923 -0.183910 0.119209 -0.126196 -0.174970 0.145180 0.285160 0.274648 0.050434 0.056091 -0.181695 -0.162596 0.405521 -0.323169 0.285436 -0.152249 -0.219583 -0.321002 -0.088482 -0.127140 0.066510 -0.319908 0.035564 0.228208 -0.032077 -0.073361 -0.390443 -0.355796 -0.265560 0.181302 0.082976 0.031444 -0.054097 0.220107 0.426975 -0.066312 0.088855 0.037279 0.076187 -0.190218 0.112037 0.047019 0.050025 -0.609867 0.319279 0.092637 0.342601 -0.216073 0.250696 0.095512 0.360168 -0.242044 0.107458 -0.077798 0.133664 0.760749 -0.342154
1680 0.272587 -0.089869 -0.117467 -0.176804 -0.013392 0.140485 -0.130326 -0.071010 0.295326 -0.061615 -0.072198 0.046038 0.143664 0.030525 0.024152 -0.114377 -0.092286 0.229655 0.070112 -0.388732 0.191101 -0.106303 -0.078213 0.007760 0.252952 0.230261 -0.206766 -0.180820 -0.011035 -0.015821 -0.182423 0.008259 -0.251053 -0.134520 0.369523 0.096669 0.149604 0.075487 0.294049 -0.208518 0.352826 -0.243677 0.015997 -0.049996 -0.135070 -0.128602 -0.323671 -0.022905 -0.200780 -0.378977 0.085838 -0.159156 0.069881 -0.135093 -0.018962 0.337490 0.007892 -0.004197 -0.037888 -0.356550 -0.312875 -0.044055 -0.035269 -0.027109
52 -0.498580 -0.162065 -0.011611 -0.462775 0.018423 0.104498 -0.224734 -0.113312 0.100674 0.038931 -0.415369 0.065677 -0.130408 0.340278 0.436540 -0.267265 -0.125827 0.144188 0.527784 -0.083558 0.081161 -0.062052 -0.020661 -0.095069 -0.058057 0.142891 -0.009687 0.084314 0.413586 -0.574160 0.023255 -0.337826 0.309033 0.048158 0.239369 0.010321 0.133897 -0.052146 0.101868 0.077209 0.049878 -0.477448 0.324065 -0.472082 -0.316315 0.209900 -0.188038 -0.096809 0.261306 -0.039838 -0.160063 -0.068355 0.225238 0.180736 0.168219 0.241451 -0.164652 0.293078 -0.082381 0.183850 0.202495 -0.412461 -0.301652 -0.220934
102 -0.230209 0.333522 -0.267237 0.035873 -0.075106 -0.139301 0.079948 -0.204062 -0.050197 -0.031150 -0.164032 0.164327 -0.405780 0.464917 0.265217 -0.024146 0.147779 0.029936 -0.011717 -0.041228 0.148830 -0.157009 -0.248050 -0.296920 0.046424 0.350354 0.066197 -0.061581 -0.165226 -0.073344 0.244806 -0.277662 0.156716 -0.062110 -0.348522 0.072937 -0.091298 -0.185162 0.033869 -0.036049 -0.116208 -0.422388 0.070634 0.301006 0.003958 0.124683 -0.067373 -0.692646 0.151747 0.042873 -0.671010 0.263571 0.321430 -0.030258 -0.024295 0.484136 0.257678 0.453449 -0.048553 0.120676 -0.288157 0.140231 0.074096 0.025317
273 0.070436 0.022875 -0.008701 0.136059 0.074278 -0.381237 0.062715 0.061363 0.224194 -0.017333 -0.231887 -0.192394 0.029746 -0.071354 -0.230975 0.001621 0.070338 0.031349 0.246150 -0.130270 -0.135175 -0.058273 -0.033835 0.254865 0.020423 -0.009696 -0.108431 0.032641 0.262942 0.286474 0.132599 -0.158995 -0.203127 -0.426164 -0.001474 0.196372 0.204030 0.114356 0.203220 -0.143641 0.090640 0.043827 -0.081498 -0.266065 -0.045456 -0.010607 0.145862 -0.142045 -0.081351 0.154995 0.055082 -0.001909 0.122595 0.213479 -0.088285 0.068571 0.145681 0.034746 -0.159642 0.072881 -0.342834 0.120878 0.090185 0.164484
184 -0.427009 -0.153256 -0.138675 -0.114978 -0.099188 0.041907 -0.122946 0.315423 0.211761 -0.351687 -0.267069 0.120131 -0.024268 0.088753 0.244702 -0.292939 0.419096 -0.349329 0.172847 0.016042 -0.198722 0.250689 -0.001384 0.311569 -0.123817 0.164584 0.439420 -0.250478 0.141773 -0.049245 0.290661 -0.025363 0.664964 -0.008323 -0.181805 -0.046171 -0.198667 -0.025097 -0.232382 -0.286749 -0.087831 -0.020763 -0.072888 -0.163764 0.161520 0.286866 -0.247151 -0.001963 -0.138495 -0.012865 -0.214231 -0.419453 0.161912 0.582934 -0.353515 0.290506 0.072058 0.124849 0.092789 0.101731 0.181809 -0.047659 0.394188 0.023914
3235 0.377203 -0.103415 0.043378 0.234956 -0.001321 -0.046922 0.110492 0.035937 0.222602 0.032931 -0.047488 0.080071 0.051128 -0.029111 -0.142451 -0.329556 -0.038316 -0.011770 -0.025269 -0.038095 0.189461 0.025291 0.020714 0.181022 0.100845 0.035614 -0.049537 -0.153946 0.111162 0.032910 -0.237117 -0.107198 -0.118737 -0.039943 -0.028521 -0.142076 0.005954 -0.089983 0.110073 0.025514 0.101723 -0.260887 0.193697 -0.231533 0.158592 -0.175493 0.174095 -0.070791 -0.368581 0.053126 -0.225996 -0.044601 -0.000128 0.189330 -0.139563 0.194008 0.121307 -0.097029 0.046263 0.110471 -0.055663 -0.058104 0.259936 0.241285
3789 0.282066 -0.077154 0.133857 -0.003882 -0.300671 -0.087901 0.291959 -0.026708 -0.062633 0.241446 -0.062923 0.192942 -0.213891 -0.095257 -0.124603 -0.256980 0.120518 0.008739 0.075373 -0.251237 -0.248796 0.084305 -0.007102 0.018566 -0.029736 0.268753 0.107929 0.156752 0.085925 0.220070 0.050027 -0.149503 -0.027025 0.076978 -0.111744 -0.277921 -0.129121 -0.113896 0.115800 0.192100 0.033786 0.042240 -0.108533 0.013553 0.150055 -0.190286 0.021251 -0.113119 0.061755 -0.164778 -0.036857 0.032677 -0.137253 0.195795 0.015688 0.072231 0.202459 0.042726 0.048786 -0.277323 -0.151481 0.177330 0.184401 0.047087
210 -0.130093 0.302584 -0.147814 0.012002 0.126476 0.159005 -0.388108 0.125905 -0.152950 -0.244794 -0.080343 -0.134879 -0.225615 0.354086 0.098391 -0.494310 0.225193 -0.177023 0.055344 0.115359 0.311444 0.156251 0.167497 -0.298976 -0.197390 0.168331 0.302919 -0.195427 -0.266218 0.171447 -0.025799 -0.256395 -0.137019 0.148145 0.050041 -0.331222 0.246785 -0.034802 -0.104004 -0.286147 -0.240527 0.029399 -0.067709 0.035516 -0.223314 0.479094 -0.081222 -0.214611 -0.176820 -0.230621 -0.138538 -0.187398 0.066141 -0.319827 -0.136713 0.373441 -0.135045 0.215071 0.200878 -0.202217 0.088394 -0.160544 0.222992 -0.352670
73 -0.084841 0.357685 0.059983 -0.104198 -0.136770 0.005202 -0.049386 -0.148479 -0.237308 0.112880 -0.234828 0.330868 -0.117390 0.380649 -0.218786 -0.105025 0.181416 0.147880 0.234876 0.017234 -0.028556 0.012463 0.124982 -0.067115 0.076511 -0.033864 0.223587 -0.022026 0.236213 0.141295 0.003815 -0.200433 0.097359 0.102418 0.035899 0.012947 -0.065707 0.097612 -0.099952 -0.177415 0.198336 0.091791 -0.027926 0.343714 -0.048255 0.210261 -0.138227 -0.492951 -0.244175 -0.279707 0.034363 0.051704 -0.002212 0.348025 -0.180077 -0.164819 0.044967 0.116445 -0.174149 -0.105247 0.068614 -0.188221 0.221052 -0.374863
2601 0.073284 -0.377656 -0.109126 -0.012121 0.009034 0.136703 0.145529 -0.052096 -0.207993 0.095736 -0.094603 -0.031582 -0.095522 0.220338 -0.244457 -0.250501 -0.129270 -0.062731 0.223805 0.131799 0.361153 -0.180425 0.050714 0.188496 -0.258496 0.056988 0.144244 0.123737 0.194170 0.122296 -0.017132 -0.133122 0.035982 -0.116985 0.091871 -0.056642 0.043235 -0.048783 -0.037205 0.102804 0.140741 -0.240861 -0.055776 0.016207 -0.226143 -0.114485 0.059438 0.007561 -0.275274 -0.010090 0.074943 0.032890 -0.205654 0.214740 -0.005237 0.063856 0.340722 0.142329 -0.209990 -0.131918 0.186192 -0.074478 0.232200 -0.095070
3284 0.195849 -0.018249 -0.287723 0.052579 -0.304759 -0.128816 -0.135478 0.037822 0.071682 -0.416819 0.151044 -0.205362 -0.043933 0.252379 -0.148677 -0.223805 0.386258 -0.032775 0.050552 0.280101 -0.118359 0.235715 0.122144 0.099896 0.072232 -0.150700 -0.211282 0.050061 0.062241 -0.320057 -0.104282 0.047900 -0.115748 0.083669 -0.105673 -0.098330 0.391603 0.047761 -0.023168 -0.149891 -0.048552 -0.213926 -0.098314 -0.066602 0.054412 -0.102770 -0.108413 -0.199604 -0.217017 0.158220 -0.105763 0.136833 -0.150353 0.088497 -0.074053 0.192834 0.120026 0.260504 0.066254 0.074998 -0.130590 -0.023997 0.314785 0.170473
2662 -0.095541 -0.030179 0.266256 0.201067 0.224827 -0.173209 -0.294824 -0.039400 0.026113 -0.110178 -0.101678 0.441513 0.173314 -0.029640 -0.067100 0.072647 -0.132704 0.107226 0.290111 -0.345699 -0.163214 -0.117702 -0.154753 -0.029992 0.017128 -0.150930 -0.201446 0.267448 -0.083817 0.095280 0.344763 -0.148618 -0.158930 -0.276076 -0.168075 -0.437415 0.111735 0.056430 -0.336809 -0.294784 0.039205 0.284189 0.305626 -0.212573 0.166304 -0.290265 -0.034927 -0.058471 -0.129904 -0.231252 0.259793 0.197893 -0.076866 -0.014010 -0.159258 -0.128614 0.552293 0.072784 -0.439733 -0.018672 -0.376563 -0.045015 -0.325056 0.020664
3190 0.184738 -0.057769 0.226969 0.183172 -0.202152 0.172760 -0.159771 0.143569 0.196141 -0.070735 -0.110183 -0.030074 -0.069592 0.109508 -0.231750 -0.271341 -0.084504 0.094149 0.231601 -0.103481 0.240554 0.128844 0.029552 0.058741 -0.002984 0.028097 0.293264 0.175995 0.134377 0.245349 -0.090335 0.038963 -0.034384 -0.073195 0.143446 -0.038524 0.036119 0.086860 -0.012674 -0.115823 -0.109311 0.048638 -0.120649 -0.266264 0.081517 -0.086309 -0.224092 -0.068074 -0.047274 0.201693 0.116804 0.245692 0.028890 0.041546 -0.063410 0.006623 0.272167 0.173414 -0.190534 -0.155783 -0.141672 0.016596 0.235269 0.067220
4219 -0.069225 0.185298 -0.067618 0.140509 0.098301 0.053418 -0.274113 -0.127335 0.235698 0.036285 -0.246324 0.055256 0.059435 0.055977 -0.424925 -0.047253 0.018851 -0.025962 -0.003727 -0.221767 -0.069729 0.113206 -0.096615 -0.107175 0.104444 0.057538 0.040611 0.485655 0.101193 -0.046412 0.228202 -0.222721 -0.407967 -0.011014 0.009495 -0.373561 0.032559 0.147333 0.233328 -0.117265 0.026812 0.233965 0.081773 -0.100267 -0.066348 0.063197 0.179184 -0.298506 0.298062 -0.117523 0.348937 0.174811 0.166473 0.071537 -0.324969 -0.178725 0.251733 -0.174677 -0.346408 -0.012638 -0.275608 0.167278 0.013227 -0.163410
1869 0.172615 -0.018092 0.386122 0.032420 0.002802 0.093324 0.151707 -0.215285 -0.087275 -0.124273 -0.227143 -0.134750 0.182640 0.017334 -0.354535 -0.345433 -0.116435 0.065062 0.169431 -0.181603 0.069701 0.138611 -0.043287 0.046887 -0.144725 0.082153 0.086323 -0.098618 0.084002 0.121703 -0.146271 0.007992 -0.308571 0.107890 -0.037095 0.003676 0.029707 0.117200 -0.048482 0.013066 0.318819 -0.342875 0.132446 -0.001452 0.124990 -0.132371 0.086949 -0.304058 -0.030647 -0.017314 -0.031515 -0.137185 -0.418698 0.025150 0.357051 -0.172593 0.095087 0.035559 0.135409 -0.196442 -0.056375 -0.058358 0.100396 0.102324
34 -0.094792 0.252845 0.552753 -0.086661 0.399605 -0.477816 0.161519 0.621417 -0.050195 -0.575925 0.203417 -0.133191 -0.046290 0.162183 0.258686 0.030923 -0.247006 -0.076988 -0.069159 0.355733 -0.012842 -0.181827 -0.262142 0.106363 0.119873 0.363186 0.173922 -0.093719 -0.071627 -0.298070 0.427011 -0.157850 0.318532 -0.145293 -0.280377 0.064818 -0.142724 -0.328013 -0.101075 -0.013836 -0.133885 -0.643866 -0.211775 -0.411983 -0.007556 -0.504751 -0.402526 0.452978 0.090232 -0.065270 -0.415922 0.490052 -0.042069 0.162269 -0.726848 -0.192582 0.209396 0.176587 0.276618 -0.315011 -0.212061 0.231299 0.017173 -0.718338
109 -0.465234 0.150599 -0.092204 -0.439883 -0.135302 -0.014537 -0.091443 0.009570 -0.339778 0.119935 0.058733 -0.294260 -0.011826 0.086259 -0.208667 -0.256563 -0.103775 -0.201671 0.129979 -0.341781 0.405737 -0.207722 0.050051 -0.153965 -0.077593 0.119550 -0.071451 0.103854 -0.325937 -0.052306 0.118262 -0.317121 0.155643 -0.008010 0.116319 -0.113277 0.063155 0.248405 0.318596 0.091249 0.133951 -0.257992 -0.282924 0.224878 -0.324769 0.244545 0.170617 -0.190771 -0.089440 0.050952 -0.056588 -0.296839 0.012894 -0.030712 -0.149310 0.556923 0.090440 0.071675 0.028728 -0.440014 -0.068839 0.182108 -0.450385 -0.100371
2384 0.108533 0.079531 0.106298 0.196809 0.001632 0.071246 -0.038215 -0.237599 0.165425 0.016323 -0.274791 0.040997 -0.104055 0.007681 -0.320667 -0.397203 -0.073184 -0.069063 0.095218 -0.033561 0.131596 0.110222 -0.048462 -0.116676 -0.072684 -0.080156 0.081969 -0.098860 0.256678 0.026067 -0.025466 -0.172134 -0.109246 -0.009708 -0.172912 -0.049525 0.012678 0.168960 0.007988 0.195414 0.196619 -0.000332 0.029886 -0.081189 0.087015 -0.262573 0.107489 -0.001392 0.037561 0.181226 -0.003351 0.018565 0.131755 -0.045501 -0.139007 -0.146444 0.013444 0.141186 -0.332845 -0.106866 0.040570 0.131044 -0.032333 -0.060063
2567 -0.001241 -0.234699 0.155208 0.366063 0.187354 0.107198 0.216186 -0.264014 0.111121 -0.204024 -0.364112 -0.035494 0.116928 -0.124464 -0.046403 -0.200099 -0.269337 -0.115293 -0.020619 -0.224176 0.117045 0.127625 0.044491 0.187373 0.050237 -0.001414 0.090972 -0.174391 0.129260 0.046531 0.028334 -0.211002 0.063001 -0.204786 0.013909 -0.198783 -0.128049 -0.037716 0.090184 0.167803 -0.085137 -0.094740 -0.185760 0.241951 0.224962 -0.101967 -0.008541 -0.136270 -0.047963 0.018986 0.212223 -0.097437 0.030984 -0.044772 -0.095817 -0.127172 0.141899 0.169052 -0.539968 -0.140373 -0.037984 -0.203664 0.235516 -0.214815
1966 -0.189636 -0.233457 0.036553 0.025198 -0.164557 -0.405119 0.212204 0.128379 0.101360 0.030768 0.094193 0.066554 0.220677 0.043344 -0.132271 -0.460859 -0.087138 -0.075915 0.353961 -0.188846 0.213897 0.174103 0.010809 -0.079008 -0.198306 0.201278 -0.087490 -0.054894 0.177216 0.299951 -0.193895 0.276800 -0.317238 -0.127132 0.237049 -0.189970 -0.175307 -0.025038 0.227691 0.082415 0.055693 -0.059688 0.042131 -0.017284 -0.195256 -0.048926 0.240060 0.151304 -0.107628 -0.148246 -0.056832 -0.180113 -0.432234 0.199924 0.273991 0.070251 0.164096 0.117239 -0.181763 -0.184647 0.154428 -0.132532 0.050179 -0.188571
286 0.286511 -0.058653 -0.213996 0.351857 0.493134 0.143705 0.305200 -0.247581 0.148015 0.101792 -0.053207 -0.185245 -0.302613 -0.100343 -0.307253 -0.123512 -0.098649 0.096405 -0.042689 -0.189167 0.218972 -0.025738 -0.172775 0.126788 -0.031970 0.119144 -0.118129 -0.103766 0.276236 0.208267 0.130235 -0.043106 0.102248 0.193518 -0.159737 -0.288999 -0.060396 0.112823 -0.151533 0.009009 0.063386 0.055885 -0.061121 -0.092936 0.103579 -0.040262 -0.171389 -0.338250 -0.012246 -0.079129 -0.055680 -0.257420 -0.056887 0.002431 -0.002093 0.032937 0.127760 0.142234 -0.287294 0.005013 -0.039668 -0.021004 0.164544 -0.051299
264 -0.005382 0.197678 0.361941 0.049669 -0.225550 -0.422107 -0.062440 -0.196822 -0.107138 -0.121937 0.072712 0.055953 0.097534 -0.048841 -0.034262 0.078791 0.113007 0.246925 0.000338 0.244913 -0.314647 -0.076445 0.027451 -0.055833 0.418428 -0.033869 0.515488 -0.217708 0.324767 -0.389805 0.454829 -0.288779 -0.257926 -0.508625 0.093352 -0.096438 -0.118504 -0.309529 -0.154747 0.174616 0.262754 0.172694 0.145143 0.142904 0.600474 0.252148 -0.443724 -0.243735 -0.222296 -0.147571 -0.347772 -0.271732 0.364824 0.297628 -0.328110 0.077805 -0.154841 0.227439 -0.268791 -0.155022 -0.291858 0.053674 0.239122 -0.304946
266 -0.439371 0.067245 -0.037693 0.062526 -0.251534 0.149551 -0.321633 -0.165490 0.105558 -0.495665 0.000223 0.037315 0.353233 0.209023 -0.123972 0.040025 -0.071871 0.270499 0.221009 0.061450 0.122272 -0.556184 -0.570397 0.116827 0.545959 -0.212869 -0.183402 0.195158 -0.008334 -0.145111 -0.279723 0.135576 0.513884 -0.190770 0.171938 0.532720 -0.007595 0.244091 0.003389 -0.184456 0.072501 -0.398595 -0.005434 -0.105369 0.208521 -0.251453 -0.558262 0.010529 0.041440 0.373174 -0.064985 0.248300 -0.001507 0.529066 -0.076256 0.555207 0.014624 -0.151667 -0.434213 0.080227 -0.066084 -0.021024 0.047444 -0.218871
151 -0.293204 -0.125293 0.007267 -0.151819 0.138820 0.089581 -0.384264 -0.059246 -0.457878 -0.106259 0.070107 -0.112747 -0.345731 0.517056 -0.184550 -0.236289 -0.020919 0.063572 0.096290 0.236406 -0.021442 0.120412 -0.151745 -0.061028 -0.232972 0.356106 -0.080171 -0.203322 0.010091 -0.136227 -0.069805 0.071810 0.061879 0.025522 -0.294582 0.133195 -0.039053 -0.027896 -0.068380 0.170825 -0.027562 0.202084 0.017190 0.289543 -0.016557 0.178712 -0.067150 -0.083656 -0.045596 -0.145828 -0.216836 -0.209755 0.025676 0.265940 0.113495 0.216043 0.043228 0.505222 0.121893 -0.351121 -0.317367 0.010187 0.116832 0.122413
150 -0.294246 0.094687 0.179679 -0.463314 0.273899 -0.384609 0.288180 0.067057 0.328086 0.117065 0.130894 -0.113245 0.001950 0.244334 -0.575580 -0.059544 -0.281220 0.401029 0.064776 -0.054385 -0.510309 -0.054604 0.196431 -0.472720 0.312699 0.492849 -0.897903 -0.009142 -0.085649 0.274517 -0.198232 -0.460602 -0.560932 0.102129 -0.198310 0.466512 -0.017290 -0.650339 0.437985 -0.227500 -0.203833 0.231797 -1.137427 0.491961 0.229445 -0.234495 -0.252662 -0.066355 -0.062747 -0.016167 -0.310271 -0.053103 0.135137 0.430568 0.002874 0.351646 -0.090712 0.179483 0.181465 0.296511 0.091518 -0.317424 -0.048776 -0.007136
143 0.373949 -0.115180 -0.508130 -0.682158 0.326282 -0.186318 -0.275809 0.581885 -0.843509 0.140607 0.333936 -0.324646 0.036946 -0.127863 0.529201 0.286277 0.049649 0.438887 -0.805389 -0.100788 -0.575886 0.246739 0.729391 -0.304952 0.320999 -0.070790 0.318075 0.032809 -0.048035 0.588521 0.410709 0.448251 -0.004312 0.181850 0.002545 -0.079296 -0.296701 0.002779 0.031614 -0.697124 0.042841 -0.601848 0.317478 -0.475630 0.467507 0.377317 -0.096072 0.320644 0.320676 0.414151 0.604721 0.648583 0.366311 0.614762 -0.031862 -0.206993 -0.534193 0.259875 -0.724659 0.113587 1.224391 -0.520688 -0.347927 -0.039314
121 -0.077365 0.074527 0.177315 -0.053940 -0.097758 0.142266 -0.054450 0.240536 -0.119527 -0.128921 0.049306 0.052393 -0.053675 -0.015111 -0.301177 -0.049052 -0.250917 -0.089832 -0.109628 0.191616 0.000411 -0.094502 0.193444 -0.038216 -0.070660 0.181956 0.103882 0.043656 0.312423 -0.048097 0.072073 -0.210889 0.169034 -0.122816 -0.209771 -0.060825 0.108738 0.326490 -0.336963 0.122368 -0.245510 -0.127455 0.108355 0.236544 -0.302549 0.008197 -0.044908 -0.184775 -0.022112 0.014699 -0.045551 0.083961 -0.067711 0.164838 -0.430447 0.539221 0.184037 0.537419 -0.100764 0.006806 0.191578 -0.328561 0.315028 0.002420
191 -0.030969 -0.051646 0.481018 -0.217319 -0.031543 -0.137270 -0.114499 0.542996 -0.367442 -0.378817 -0.410152 -0.064707 -0.067004 0.250059 0.688060 -0.023648 0.033682 0.134229 0.019144 0.113263 -0.472544 -0.111443 -0.145938 -0.261063 -0.251839 0.231395 0.258268 0.635405 -0.208896 0.280438 -0.100795 -0.034617 0.254003 0.103620 0.357874 -0.267679 0.173257 0.235223 -0.230615 -0.170286 0.122807 -0.214731 -0.138751 -0.078075 0.092523 -0.077207 0.035688 0.112038 0.288436 0.680228 -0.453826 0.187512 0.164543 0.245317 0.271223 -0.147991 0.002528 0.116105 -0.223582 -0.075028 0.200776 -0.531925 0.409051 0.082401
644 0.048696 -0.008170 -0.176227 -0.151675 0.179433 -0.069925 -0.186174 -0.152357 0.381650 -0.079683 -0.196635 0.190203 -0.003268 0.022996 -0.194996 -0.258188 -0.286665 -0.052583 0.077290 -0.032822 0.198254 0.002153 -0.495104 -0.060968 -0.301052 0.157115 0.029689 -0.321510 0.033404 0.111981 0.033353 0.125038 -0.153850 -0.059709 -0.343656 -0.140529 0.017799 -0.055880 -0.307198 0.627338 0.122710 -0.081038 -0.019246 -0.080084 -0.022933 0.080251 0.142232 0.076164 0.136589 -0.244159 -0.187728 -0.083672 -0.333878 0.143769 0.074909 0.125454 -0.135033 0.283704 -0.334563 -0.251912 0.043333 0.049522 -0.157079 0.235462
10 -0.042486 0.236216 -0.150644 -0.062841 -0.196699 -0.079042 -0.296202 -0.187878 0.143962 -0.406069 -0.357502 -0.089471 -0.252342 0.406816 -0.375004 -0.073126 0.028887 -0.058239 -0.305960 0.036339 -0.202477 0.162718 -0.025297 0.004299 0.242687 0.018996 0.093713 0.229221 0.155456 -0.324081 -0.106600 0.083303 0.147810 -0.277175 -0.049187 -0.028897 0.269613 0.199343 -0.202816 0.259515 0.122370 -0.130973 -0.185523 0.295114 0.145159 0.041385 -0.142332 -0.214500 0.225903 -0.278024 -0.225163 0.375596 -0.194162 0.112736 -0.260742 0.065246 -0.026046 0.281991 0.094523 -0.096296 0.108508 0.203858 0.020395 0.270207
3747 0.192743 0.143161 0.255576 -0.245410 -0.042285 0.100817 -0.190512 -0.039720 0.068440 -0.161124 -0.244929 0.134127 -0.215481 0.069680 0.067141 -0.296010 -0.260435 0.098148 0.342015 0.031422 0.063954 -0.142495 0.047965 0.032685 -0.214668 0.284301 -0.067808 0.118305 0.146263 0.321776 0.123946 -0.273147 -0.014246 -0.119545 -0.070276 -0.053893 -0.000999 0.271235 0.202320 -0.152555 0.055411 0.004895 0.121105 0.071156 0.056371 0.137567 -0.258997 0.069834 0.075824 -0.194262 -0.026161 -0.066414 -0.509343 0.185566 0.044656 0.287833 -0.095957 0.021250 0.086457 -0.339960 -0.076570 0.317765 0.074422 0.111465
512 0.207922 0.192837 -0.122451 0.006626 0.319707 -0.061271 -0.315097 -0.427319 0.023728 0.180099 -0.224189 0.202382 -0.132177 0.074350 -0.233542 -0.007568 0.280996 0.370661 0.166512 -0.113268 -0.196942 -0.192537 0.205088 0.095704 -0.100605 0.173238 -0.188270 -0.014466 -0.101395 0.200613 0.021311 -0.298114 -0.156115 0.268997 0.076704 -0.232956 0.125932 0.039132 0.446515 -0.172890 0.027933 0.046593 -0.036062 -0.189596 -0.165553 -0.033114 0.221153 0.162419 -0.385643 -0.313324 -0.084705 -0.114788 -0.087886 0.054501 0.339896 0.102015 -0.293053 -0.083525 0.001335 -0.230182 0.078731 -0.107490 0.282661 -0.144741
2270 0.120143 -0.244793 0.165827 0.104696 -0.155551 0.066918 -0.054219 -0.072591 0.034245 -0.065429 -0.048436 0.218664 0.046873 0.055231 0.025640 -0.100269 0.092263 -0.109905 0.169435 -0.256288 0.082275 -0.022897 -0.114436 0.105892 0.100065 -0.175152 -0.023490 -0.065002 0.046602 0.112215 -0.092457 -0.044179 0.089525 0.252758 0.017840 -0.348184 -0.039233 0.119243 0.014084 0.047902 -0.197916 0.186760 -0.031904 -0.122902 -0.084328 -0.054614 -0.118921 -0.205958 -0.132214 -0.293324 0.005519 -0.046876 0.277531 0.126655 0.079450 0.156547 0.175849 0.095739 -0.345275 -0.078195 -0.108978 -0.153056 0.246559 -0.188347
246 -0.288314 0.006074 -0.169526 -0.102353 0.382405 -0.348411 -0.025002 0.147057 -0.374019 -0.131576 -0.010643 -0.222823 -0.143983 0.124523 -0.165085 -0.156408 -0.110768 -0.181737 0.471065 -0.461733 0.258038 0.165303 -0.365591 0.437796 0.357646 0.083748 -0.092604 -0.186882 -0.250166 -0.233471 -0.222092 -0.102853 -0.293344 -0.363614 0.115322 0.159437 -0.173948 0.065291 0.052441 -0.504574 -0.038280 0.292904 0.127639 0.577100 -0.030994 -0.098150 -0.346435 -0.124188 0.333344 0.002507 0.074095 -0.066051 -0.354908 0.714917 -0.218851 0.062963 0.209336 0.141278 0.110442 0.144714 0.099119 -0.129717 -0.018699 -0.175435
106 0.231343 0.074773 0.383269 -0.279452 -0.227955 0.197202 0.295072 -0.076791 -0.687323 0.078788 -0.473852 -0.236646 -0.448623 0.201185 -0.087119 0.164487 0.337954 0.518921 -0.171981 -0.260744 -0.329032 0.147133 -0.609560 -0.573950 0.446208 0.051729 -0.047111 0.014127 -0.288775 -0.251755 0.117994 -0.472382 0.482189 0.024512 0.165089 -0.271568 -0.180453 -0.239495 0.608440 -0.140757 0.105093 0.695476 0.406397 0.106441 -0.365368 -0.093416 -0.098983 0.213382 -0.210123 0.369174 -0.280921 -0.124486 -0.005967 0.002770 -0.129009 0.174717 0.039202 -0.099723 -0.084067 -0.182084 0.263187 0.180887 0.463040 -0.238724
12 -0.135982 0.206264 -0.290727 0.183704 -0.159383 -0.142673 -0.469807 -0.027755 -0.012945 -0.162596 -0.075990 0.211993 -0.147770 -0.188196 -0.206407 -0.472423 0.266164 -0.102905 0.062817 0.626120 0.074379 -0.268504 0.191816 -0.628626 0.397957 -0.050659 -0.354054 -0.214527 -0.226349 0.175888 0.186925 -0.130017 0.377993 -0.069160 -0.266531 -0.098831 0.193601 0.035423 -0.083026 0.190526 -0.012238 -0.248866 0.394809 0.410219 0.045330 0.153383 -0.055881 -0.180664 0.163695 0.163420 -0.346988 0.054803 -0.433760 -0.017847 -0.038858 -0.123020 -0.090254 0.132381 -0.506445 0.011263 0.220800 0.346012 -0.190860 0.129702
1091 0.196593 -0.328797 0.086033 0.084504 0.018287 0.272825 0.340497 0.033678 0.100257 -0.041805 -0.320093 -0.025579 0.041538 0.099462 -0.092215 -0.136577 -0.284155 -0.080865 0.260063 -0.056679 0.303417 0.191292 0.193121 0.106302 0.030367 0.155654 0.092896 0.041039 0.077518 0.194157 -0.182834 -0.138130 -0.185007 -0.048448 -0.140715 -0.154763 0.169022 -0.361124 0.207223 -0.239644 0.093117 0.036213 0.180777 -0.337601 -0.198303 -0.143785 -0.000571 -0.143683 -0.331587 -0.045819 -0.260947 -0.110621 0.097240 0.252411 0.092371 0.043635 0.147839 0.122779 0.020873 0.124443 0.051979 -0.103141 0.190363 0.101391
218 0.233615 -0.144002 0.103738 -0.033410 0.172047 0.379395 0.034484 -0.244488 -0.250807 0.028202 0.096065 -0.429547 -0.008065 -0.001406 -0.020285 -0.198046 0.355275 0.193200 0.056403 0.187961 -0.146240 -0.004867 -0.058283 0.271096 0.057988 -0.444512 -0.146348 0.332847 0.045876 0.145110 0.028557 0.032257 0.195972 -0.348409 -0.085439 0.329988 0.035984 0.156900 0.036358 0.429961 -0.295827 -0.076222 -0.098655 0.025809 -0.303771 0.109133 -0.230737 -0.261771 -0.012873 -0.095055 -0.345189 0.149817 -0.500649 0.464196 -0.247035 -0.057462 -0.335145 0.110977 -0.015529 -0.006897 -0.310254 -0.362196 0.341134 -0.025998
565 0.092869 -0.241412 -0.072951 0.310946 0.025731 0.003583 0.156676 -0.038247 0.093253 -0.007194 0.147903 0.289766 -0.010748 0.210449 0.229200 -0.119871 -0.167140 -0.107713 0.287631 -0.186870 -0.045711 -0.209147 -0.231348 0.189145 -0.028880 0.211550 -0.071664 -0.036489 -0.203767 -0.150019 -0.204770 -0.010635 -0.005047 -0.241402 -0.285799 -0.229411 0.357886 0.334283 0.059936 0.135069 -0.116161 -0.190979 -0.013806 -0.345467 -0.048115 -0.095263 0.135428 -0.214880 0.187422 0.042629 0.040826 0.170962 -0.004613 -0.147128 0.162203 -0.050289 0.102156 0.146250 -0.178112 -0.100833 -0.215086 -0.114506 0.331331 -0.032179
3741 0.324537 -0.322744 0.203035 0.229190 -0.132350 0.050854 0.003930 0.223842 -0.090956 -0.170514 -0.069353 -0.228075 0.050171 0.348174 -0.009989 -0.292771 0.056129 -0.147251 0.369372 -0.093227 0.326532 0.054349 0.070686 0.339878 0.066248 -0.055866 0.060973 -0.203325 -0.261036 -0.091962 -0.021739 -0.342435 -0.088777 -0.041166 0.134634 -0.120656 -0.243214 -0.087931 -0.071149 0.028549 0.057236 0.014758 0.051385 -0.240765 0.142478 0.311245 0.063335 -0.132613 0.002669 -0.052406 -0.375631 0.215423 -0.004740 0.227050 0.115430 0.092888 -0.187242 0.013194 -0.202902 -0.028772 0.045603 -0.102247 0.562995 -0.173376
3677 0.125416 -0.108709 -0.097173 0.111664 0.145108 0.012922 0.060555 -0.124670 0.097061 0.035661 -0.009667 -0.027376 -0.148071 0.111689 -0.039528 0.054407 -0.091085 -0.074339 0.111111 -0.405692 0.016322 -0.012412 -0.230125 -0.054466 -0.161877 0.135834 -0.102897 -0.045752 0.058616 0.171550 0.078072 0.000305 -0.025702 0.117487 0.196499 -0.128415 0.050061 -0.031270 -0.069563 0.058447 -0.102321 -0.017093 -0.031203 -0.062286 -0.014251 -0.396254 -0.076065 -0.094949 0.035034 -0.016489 0.279458 0.036108 0.050940 0.355392 -0.162952 -0.155291 0.081214 -0.081592 -0.271458 -0.304715 -0.081296 0.226877 0.201841 -0.018286
78 -0.094889 0.022615 -0.268832 0.015621 0.137972 -0.005279 -0.580864 -0.095499 0.133030 -0.184066 -0.141095 0.145689 -0.143629 0.121742 0.039818 -0.402918 -0.097653 -0.064237 -0.192683 -0.115771 0.204947 -0.148731 -0.244935 -0.288395 0.287996 0.238814 -0.171606 -0.116234 -0.492787 -0.036837 0.595705 -0.262177 0.038699 0.042043 -0.276111 -0.113310 0.205111 0.238234 -0.401221 0.149934 0.090662 0.247724 0.088173 0.475696 0.052326 0.000024 -0.122965 -0.007620 -0.025115 -0.241452 0.078111 -0.434849 0.400727 -0.196778 -0.370946 -0.050782 -0.830356 -0.079205 -0.309824 -0.231033 0.246794 0.171495 -0.147645 0.448973
3013 0.055734 -0.114848 -0.038123 0.037183 -0.086278 -0.020612 -0.151869 -0.080009 -0.007053 -0.115627 -0.127651 -0.164483 -0.068317 0.013154 -0.343202 -0.409383 -0.125186 0.000505 0.108275 -0.067268 0.089445 -0.059500 -0.177735 -0.150023 -0.190483 -0.022225 0.020335 -0.021385 0.337393 0.172155 -0.107424 0.085672 0.138356 -0.025939 0.070902 -0.221697 0.183389 0.202295 -0.084018 0.143390 -0.173421 0.047730 0.182264 -0.089016 -0.082984 0.022128 -0.169620 -0.188345 0.192513 0.187115 -0.018330 0.283690 0.057228 0.066800 0.016909 0.036405 0.133858 0.165046 0.135741 -0.261194 0.154410 0.090447 0.153804 0.101384
833 0.465613 -0.223727 -0.115606 0.261810 0.135399 0.088857 0.052946 0.266800 -0.064934 0.218653 0.088945 0.010486 0.145866 0.120118 -0.171596 -0.114789 -0.066010 -0.175896 -0.204008 0.061806 -0.259096 0.036749 -0.499099 -0.123861 -0.026692 -0.250778 0.269494 0.120668 -0.446097 -0.086795 -0.050504 0.049747 0.312868 0.251164 -0.155054 -0.048566 0.005972 0.041622 -0.032352 0.397078 0.077749 -0.218123 0.011817 -0.041245 -0.300031 0.058926 0.298323 0.071015 0.149542 -0.426992 -0.049647 -0.295315 0.108117 0.193351 0.161789 0.120424 -0.085525 0.216727 -0.137371 -0.377307 -0.100933 0.182853 -0.072897 0.224723
4 0.095556 0.561494 0.113367 0.142935 0.037781 0.228179 -0.344631 0.322809 0.317157 -0.622479 -0.287790 0.617859 -0.158535 0.111989 -0.055986 -0.054963 -0.513967 0.261509 -0.489369 0.181411 -0.351457 -0.287367 0.142740 0.895060 -0.008639 0.517268 0.261995 0.048793 0.249064 -0.584469 0.151401 -0.106397 -0.042419 0.103364 0.066757 0.449174 -0.017948 0.158123 0.321800 -0.404264 -0.237702 -0.111314 0.068780 0.462091 -0.481588 0.170508 0.373606 -0.209149 -0.346300 0.745326 -0.374596 0.081501 0.570565 0.049345 -0.602766 0.354672 -0.093243 0.098997 -0.473660 0.407251 -0.080264 0.160078 -0.100798 0.148165
580 0.078224 0.046704 0.348021 0.231661 -0.004403 -0.066278 0.045314 0.181938 -0.090353 0.054853 -0.031410 -0.174930 -0.109557 0.121019 -0.128511 -0.043126 0.224123 -0.043189 0.429258 0.019486 -0.027828 0.032741 -0.135539 0.092359 0.041231 0.323482 0.043491 0.042523 0.087586 0.221777 0.019848 -0.239819 0.087895 0.051114 -0.041022 -0.025363 -0.116496 0.063367 0.061258 0.073113 0.093955 -0.061630 0.255290 -0.210180 -0.026955 -0.257446 -0.025808 0.139760 0.324487 -0.034647 -0.050174 0.101462 -0.197229 0.258203 0.032783 0.007527 0.360870 0.161582 -0.398895 -0.188226 -0.289145 0.143299 0.057544 -0.060545
584 0.162980 -0.008983 -0.003301 0.156814 -0.180814 -0.165399 -0.071413 -0.184816 -0.100258 -0.022000 -0.225413 0.238070 0.029577 0.003474 -0.078405 0.041873 -0.129985 -0.209838 0.023367 -0.261946 -0.068947 -0.171352 -0.025235 0.177284 0.049535 -0.040071 0.224332 -0.160885 0.012906 0.089261 0.226110 -0.150535 0.076191 -0.051191 -0.080162 -0.119822 -0.092675 0.171037 0.150170 0.169277 0.107930 -0.199135 -0.172574 0.101934 0.026329 -0.216605 -0.020240 0.091204 -0.363080 -0.181748 -0.063313 0.117540 -0.288125 0.096881 -0.129959 0.331035 0.054072 0.124370 -0.104220 -0.078502 0.132793 0.212418 -0.118460 -0.216074
3097 0.221000 -0.191347 0.056134 0.068569 -0.001470 -0.021611 -0.073839 0.212705 0.130443 -0.034229 -0.181739 0.176175 -0.021046 0.070936 -0.066606 -0.034872 0.050502 0.018028 0.236123 -0.181028 0.183828 -0.085287 -0.083468 0.107230 -0.021394 -0.023603 -0.005410 0.067306 0.275331 -0.045896 -0.050705 -0.226004 0.042993 -0.038410 -0.007093 -0.363626 -0.212960 0.163161 -0.058992 0.102453 0.084327 -0.271539 -0.082536 -0.124681 0.080316 -0.210955 -0.010206 -0.013096 -0.148098 -0.310006 0.185087 0.064225 0.011223 0.004646 -0.246750 0.143346 -0.037138 -0.049805 -0.125510 -0.325329 -0.107315 -0.007699 0.117477 -0.167993
140 -0.266007 -0.250683 0.166217 -0.278582 -0.239362 -0.131150 0.103899 0.085433 0.102210 0.245123 0.143636 -0.110609 0.216304 -0.057500 0.053384 -0.265008 0.235679 -0.126130 0.231866 -0.303114 -0.042711 -0.191365 0.095149 0.013461 -0.209676 0.224578 -0.009536 0.235128 -0.117901 0.089324 0.490957 0.056270 0.212626 0.087347 -0.072452 0.023036 0.108634 -0.137315 -0.071584 -0.026323 0.109557 -0.245103 -0.067727 0.000746 -0.103489 -0.240993 0.008408 0.022420 -0.251061 0.028064 0.007579 -0.091513 -0.061798 0.122606 -0.270740 0.163487 0.070829 0.323446 -0.246510 -0.112525 -0.033496 -0.110062 0.399169 0.211435
2328 0.196530 -0.065735 0.096148 0.114960 -0.095740 -0.129977 -0.093403 -0.147965 0.301369 0.011749 -0.002485 0.067847 -0.183551 0.150215 -0.036274 -0.269504 -0.031305 -0.017177 0.299928 -0.239455 -0.059061 -0.222201 0.162546 0.032422 -0.131237 0.278648 -0.024356 -0.042674 0.181459 -0.161789 0.059606 -0.240716 -0.100978 -0.082870 -0.113288 -0.309044 -0.160581 0.226101 -0.046502 0.099095 0.073421 0.147500 -0.174598 -0.210494 0.158677 -0.162266 0.079921 0.323165 -0.124601 -0.088777 -0.151488 0.123611 -0.113306 0.109758 -0.184142 0.388766 0.032805 0.079569 -0.064051 -0.186278 -0.107905 -0.072159 -0.070996 -0.186870
1482 -0.050412 -0.257762 0.071659 -0.198826 -0.144615 0.005897 0.258109 -0.016111 -0.100232 0.212976 -0.025748 -0.130907 0.028296 0.098094 -0.389443 -0.210000 -0.171877 -0.093853 0.178615 0.185138 0.370090 0.036380 0.255108 0.253765 0.053979 -0.034496 -0.212919 -0.104683 0.088254 0.152991 -0.031948 -0.281193 -0.028489 -0.142906 -0.083477 -0.095932 0.095157 -0.206601 0.121004 0.352095 0.353593 -0.309612 -0.159324 -0.285921 0.053160 0.017745 0.229662 -0.087057 -0.174484 0.058425 -0.096094 0.048118 -0.163069 0.073281 0.102296 0.157113 0.134307 -0.134698 -0.123756 -0.118619 -0.018904 0.055955 0.080357 0.015778
1739 -0.037495 -0.058531 0.202515 0.089802 -0.257568 0.071813 -0.051556 0.060796 0.005965 -0.447505 -0.022435 -0.132798 0.127417 0.193668 -0.083069 -0.164704 0.243349 0.041522 0.059243 0.334967 -0.030391 -0.097432 -0.010035 -0.011845 0.152421 0.255429 -0.063537 0.057169 0.160012 0.077269 -0.286474 -0.149863 -0.002813 -0.112245 -0.152489 -0.069696 -0.112351 0.050477 0.021803 -0.089459 -0.173743 -0.232641 -0.064206 0.043955 0.313724 -0.063164 -0.336735 -0.369863 0.099518 0.094052 -0.145654 0.235413 -0.088427 -0.056389 -0.264547 0.281877 0.299583 -0.005807 -0.066616 -0.334260 -0.267632 0.182222 0.070666 -0.144816
4046 0.173767 -0.088619 0.101006 0.131813 -0.114995 0.207480 0.148974 0.067239 -0.014356 0.109820 -0.223764 0.040150 0.161714 0.025787 -0.309772 -0.202219 -0.093386 -0.071784 0.020907 -0.239824 0.107498 0.066237 -0.037883 0.127653 0.104337 -0.024909 0.112880 -0.055163 0.236350 0.086764 -0.220078 -0.090033 -0.288805 0.181538 -0.138921 -0.206920 0.015292 0.215021 0.038119 -0.068887 -0.103038 0.039389 -0.069344 -0.480527 0.050985 -0.100690 0.032486 -0.276186 -0.209305 -0.014796 -0.096450 -0.052057 0.151437 0.081839 0.054544 0.119142 0.080495 -0.119162 -0.060123 -0.157190 0.111237 0.013454 0.382563 0.231249
301 0.390875 -0.346963 -0.094895 0.016801 -0.052294 0.045941 0.294239 -0.179182 0.068743 0.190156 -0.002962 0.182810 -0.247615 0.136424 -0.265871 -0.376965 -0.250606 0.110550 0.361865 -0.268268 0.310446 0.088297 -0.311471 0.061512 -0.142017 0.111980 0.064092 -0.129768 -0.123672 0.324028 0.203232 -0.074254 -0.161903 0.155756 -0.030643 0.020768 0.181804 -0.185926 -0.303193 0.040568 0.035012 0.189966 0.090613 -0.180279 0.020030 -0.037028 0.051531 0.053676 -0.136657 -0.142772 -0.074645 0.033323 -0.210354 -0.009986 0.332327 0.046628 -0.092059 -0.042893 -0.267134 -0.114120 0.022304 -0.093809 -0.150838 0.141263
220 -0.234881 0.403530 0.012111 0.128496 -0.082007 -0.124728 -0.335395 0.090611 -0.121756 -0.327690 0.006857 0.277355 0.278285 -0.175278 -0.434451 0.018921 0.089010 0.167184 -0.199723 0.037435 0.131961 0.049473 0.155875 -0.224501 0.001472 0.351190 -0.194750 0.235327 -0.070042 -0.058570 -0.043336 0.258999 -0.029695 0.157347 0.031278 -0.500942 0.091413 0.369940 -0.014346 -0.007831 -0.166228 0.125560 0.088748 0.024920 -0.263165 0.034019 0.011345 -0.195892 -0.005902 -0.001520 -0.257344 0.054936 0.089396 0.174024 -0.444607 0.301433 0.104040 0.288597 -0.017396 -0.045138 -0.168443 0.114288 0.259451 0.150014
182 0.077104 -0.181066 0.148333 0.358883 0.156775 -0.121551 -0.064834 -0.159741 -0.336637 -0.216210 -0.403121 -0.058678 0.317223 0.421352 -0.362967 -0.132162 0.470784 -0.000539 0.322080 0.212740 -0.193440 0.128979 -0.008226 0.084208 0.143620 -0.063923 0.447962 0.236645 -0.197190 0.187003 0.114781 0.003011 -0.229409 0.006140 -0.119166 0.283543 -0.176169 -0.185930 -0.092288 -0.212330 0.153562 0.317034 -0.258571 0.239965 0.222524 -0.289915 -0.088181 -0.113781 0.184163 -0.059121 -0.578564 0.074148 0.098031 0.002518 -0.224058 -0.064860 0.032391 0.343824 -0.123551 0.248583 -0.018926 -0.173735 0.026524 0.075626
101 -0.176036 -0.431985 0.223257 -0.396065 -0.105810 -0.057453 -0.198768 0.246570 -0.493521 0.375406 -0.373956 -0.057277 0.254757 0.226805 -0.219690 -0.221896 -0.353424 -0.213759 0.311494 0.035674 0.244808 -0.292034 0.274766 -0.130011 -0.060640 -0.347428 0.070178 0.050718 -0.108466 0.097437 -0.002302 -0.031037 0.051577 -0.249346 -0.385077 0.005014 0.086006 -0.179867 -0.083930 -0.026846 0.299289 0.139441 0.103945 0.043860 -0.138705 0.167483 -0.050008 0.058362 -0.154184 -0.093521 -0.141890 -0.295760 -0.127388 0.062587 -0.441782 -0.026911 -0.020903 0.419561 -0.366208 -0.041377 0.064991 -0.093602 -0.280422 -0.244630
526 0.400571 -0.079483 0.062828 0.061133 0.165358 0.050166 -0.035618 -0.118977 0.094171 -0.084066 -0.062871 0.242399 0.169479 0.249851 0.083989 -0.275341 -0.120723 0.052582 -0.034979 -0.057888 -0.282090 0.016346 -0.129688 0.191129 0.018675 0.075392 -0.224135 -0.159025 0.207421 -0.290932 0.128785 0.451867 0.008763 -0.049960 -0.295877 0.147492 -0.015043 -0.176653 -0.003609 -0.066302 -0.019442 0.263547 -0.299015 -0.224667 -0.175761 -0.006759 0.031794 -0.084621 0.064864 -0.177449 -0.223632 0.133891 -0.429710 -0.067105 0.226261 0.078658 0.269960 0.146467 0.241793 -0.175534 -0.019734 0.031559 0.087084 -0.041732
214 -0.225064 -0.198182 -0.112054 -0.386764 0.148869 -0.066710 -0.159165 -0.049603 0.180401 0.040902 -0.139310 0.213506 0.109853 0.082795 0.050453 -0.020499 -0.306859 0.002891 0.077397 -0.022360 0.081655 -0.040935 -0.052938 -0.165094 -0.097771 0.176290 -0.039681 -0.098958 -0.109898 -0.089551 -0.077692 0.074474 0.201395 -0.040128 0.207341 -0.272097 0.141456 0.014817 0.264016 0.240230 0.451333 -0.055916 0.384212 0.275610 -0.368656 -0.037944 -0.131406 -0.057331 -0.191692 -0.161694 0.275605 -0.360696 -0.013769 0.175438 -0.225692 -0.047762 0.101852 0.274570 -0.172452 -0.178020 -0.240085 -0.054241 -0.034107 0.025582
1190 0.171234 -0.080681 0.087195 -0.024146 -0.321732 -0.137495 -0.207957 0.247417 0.156417 0.099503 -0.071325 -0.012018 0.056406 0.122461 -0.243580 -0.080870 0.032931 -0.016147 0.334663 -0.542787 -0.535723 0.098158 0.125085 0.206189 -0.298965 0.125394 -0.199419 0.288227 0.053119 0.283961 0.182924 -0.371996 -0.211406 0.256037 0.128840 -0.044990 0.054767 0.066856 0.302857 -0.004093 -0.041127 -0.167816 0.120274 0.050910 -0.170668 0.082896 0.023041 -0.074139 -0.015585 -0.204904 0.079008 0.118102 -0.435234 0.152463 0.169048 0.000394 -0.139914 -0.065966 -0.209905 0.052752 -0.160750 0.385878 0.183665 0.030289
1874 -0.004108 -0.163317 0.200797 0.199468 -0.112418 -0.030113 -0.031811 -0.045799 -0.157099 -0.353251 0.013578 0.057324 0.128649 0.297464 -0.445638 -0.419439 -0.144253 0.157300 0.097600 0.132403 -0.010730 0.396955 0.186449 -0.095255 -0.011664 -0.187166 -0.130643 -0.084042 0.035406 -0.042145 -0.165532 -0.160392 -0.003068 0.077385 -0.068590 0.001182 0.262683 -0.028942 0.210796 -0.184738 -0.285525 0.241745 -0.283983 0.166377 0.004724 0.132181 0.076042 -0.083661 -0.167178 -0.051938 0.146917 0.351633 -0.042609 0.019225 -0.284795 -0.182134 0.016492 0.282534 0.102158 0.324787 -0.036392 -0.110143 0.478827 -0.082487
27 0.027185 -0.336240 0.228064 0.071013 0.089439 0.018836 -0.245398 0.019574 -0.118029 -0.036147 0.180161 -0.051279 0.020173 0.048050 -0.023643 -0.296388 -0.302596 -0.187172 0.155923 -0.036845 0.248214 -0.235217 0.120969 -0.208824 -0.070606 0.292723 -0.073528 -0.045988 -0.125527 0.013574 0.257889 -0.178586 0.250458 -0.299601 -0.000937 -0.041387 0.109223 0.022959 -0.209776 0.321039 0.066889 -0.343505 0.333103 0.205405 -0.220024 -0.004644 -0.365224 -0.396680 0.034031 0.127670 -0.102026 0.148724 -0.209289 0.308048 -0.136980 0.125241 0.292280 0.136976 0.132703 -0.151240 -0.156529 -0.070638 -0.003466 -0.161922
4133 0.455313 0.039517 -0.508642 0.095381 0.191008 -0.108238 0.273889 -0.134991 0.092784 0.094195 -0.293345 -0.108399 0.044379 0.085659 -0.210446 -0.207036 -0.237611 0.208535 -0.352071 -0.152104 0.148167 0.000232 0.144985 0.095677 0.128501 -0.180549 -0.110595 0.086865 0.234152 0.063262 0.109871 -0.111444 -0.290230 0.256743 0.024972 -0.365711 0.091663 -0.090816 -0.275549 0.062581 0.208756 -0.372237 0.068833 -0.155215 -0.094103 -0.148003 -0.165493 -0.233670 -0.209479 0.076614 -0.085386 -0.517458 -0.167628 0.065873 -0.128359 0.183892 0.052245 0.017921 -0.098065 0.336991 -0.210600 -0.244918 0.080331 0.377694
2285 -0.082156 -0.045525 -0.063748 0.174180 0.021515 -0.159128 0.087819 -0.151564 0.014648 0.068346 0.007222 0.278434 -0.093617 -0.128069 0.184057 -0.320829 0.079781 -0.281759 0.271991 -0.005180 0.099980 0.200831 0.008847 -0.042530 0.131824 0.183741 -0.083633 -0.015064 -0.163860 -0.005045 -0.000440 0.056611 -0.233113 0.078041 -0.146639 -0.195713 -0.032148 0.184951 0.139783 0.083955 -0.345998 -0.063513 0.380527 -0.339298 -0.079845 -0.126528 0.350205 -0.066261 -0.240120 0.022592 -0.019211 0.005197 -0.040093 0.268344 -0.019005 0.291463 0.027844 -0.374295 0.017827 -0.209548 -0.279557 0.158057 -0.083828 0.226553
111 -0.173797 0.273622 0.050438 0.045991 0.908798 -0.101596 -0.216022 0.160309 0.043105 0.037139 0.318671 0.627907 0.114936 0.558769 0.383584 0.337020 0.253843 0.222069 -0.414286 -0.019063 0.427980 0.329501 -0.092044 -0.571258 0.333795 0.269297 0.304672 -0.102863 0.066911 -0.412800 0.191893 0.451921 0.069350 -0.326979 0.416276 0.588835 0.350961 -0.262702 0.072102 -0.078806 -0.607732 -0.271161 -0.083572 0.374010 0.346172 0.235902 0.555380 0.178402 -0.005807 0.152847 -0.151257 0.038555 -0.156082 0.229465 0.094415 0.227845 -0.235649 0.874985 -0.255865 -0.106863 -0.773608 0.229052 0.443457 0.472221
48 0.199989 -0.393029 -0.296673 -0.242588 -0.011797 0.695439 0.044335 -0.301264 -0.385868 -0.384998 0.583234 -0.273040 0.118713 -0.197076 0.352869 -0.615066 0.037204 0.036846 0.312897 -0.100990 -0.375858 -0.045218 -0.056124 0.254993 1.078291 -0.088209 0.804819 -0.019260 -0.017296 0.206026 -0.263422 0.588979 -0.192481 0.519881 -0.039371 0.202044 0.283484 -0.048851 -0.694601 -0.576733 0.380371 0.048063 -0.063944 -0.302057 -0.416001 0.180510 0.241986 0.294062 -0.081794 -0.176102 -0.547155 0.217137 -0.003228 -0.301847 -0.105664 0.336447 -0.461013 0.133378 0.449829 -0.099961 -0.105492 0.436537 -0.206949 -0.764749
63 -0.053525 -0.370199 -0.432775 -0.395364 0.454784 -0.411347 0.226198 0.093417 -0.139266 -0.332148 0.443312 0.054398 0.459540 0.739586 0.129198 0.214893 -0.043750 -0.018774 0.064559 0.140899 -0.303925 -0.108658 -0.116649 0.374091 -0.274377 -0.201980 0.009010 0.100910 -0.737181 -0.616355 -0.383898 0.007140 -0.133138 0.180310 0.566753 -0.430716 0.225246 0.206505 0.168395 0.322531 0.454214 0.071219 0.089634 0.408959 0.073949 -0.472589 0.503861 -0.300639 -0.356502 -0.395412 -0.129158 -0.154159 -0.312657 0.355911 0.226401 0.301802 -0.187259 -0.248375 -0.078312 -0.020571 0.208842 -0.299149 -0.055245 -0.092205
113 -0.097856 0.098630 -0.061797 -0.011746 0.293495 -0.069515 -0.249224 -0.268615 0.154744 0.009745 -0.133060 0.003344 -0.242459 0.342594 -0.248686 -0.077942 -0.308297 0.092523 0.050252 -0.289357 -0.131078 -0.253401 0.082730 -0.202135 -0.240696 0.043356 -0.024337 -0.078924 0.347254 -0.277278 0.081039 0.006665 0.153607 -0.455307 0.196295 -0.130736 0.282286 -0.475914 -0.115685 0.130229 0.188435 0.014286 0.121090 -0.249978 0.172451 0.010608 -0.457426 0.052912 -0.102797 0.539098 -0.371240 0.172260 -0.139649 0.145230 0.033482 0.410100 -0.338340 0.428406 0.387884 -0.087764 -0.111392 -0.429782 0.479771 0.163387
72 -0.336336 -0.308737 -0.170179 -0.225745 -0.069120 -0.133700 0.222436 -0.009074 -0.012842 -0.313304 -0.044446 0.206330 -0.050164 0.055345 -0.144331 -0.032040 -0.233904 0.282106 -0.006395 0.127313 0.524343 -0.010073 0.055334 -0.325655 -0.281924 0.193958 -0.154438 0.288575 0.176263 0.079743 -0.008880 0.132439 -0.164013 -0.150798 -0.015383 -0.438966 0.238427 0.026626 -0.285501 0.156185 0.144452 0.013317 0.086687 0.335300 -0.117609 -0.269651 0.063200 -0.430193 0.082800 0.259806 0.001801 0.258202 -0.151783 0.141896 -0.262174 0.302036 0.002455 0.077014 -0.144291 0.047669 0.010892 -0.203446 0.017221 -0.142331
4065 0.108068 -0.146338 -0.057888 -0.027083 -0.160716 -0.243995 -0.041718 -0.069336 0.275992 -0.091666 -0.211473 0.276189 -0.176266 -0.068142 -0.204485 -0.218596 -0.021775 -0.033945 0.114730 -0.381948 0.026942 -0.008483 0.010366 0.234290 -0.158473 0.065946 -0.113818 0.082205 0.363868 0.265934 0.072821 0.096619 -0.265338 -0.058323 -0.105309 -0.213492 -0.102830 0.105670 -0.089068 0.038291 -0.064403 -0.183959 -0.016301 0.015892 0.002240 -0.148334 -0.096398 0.026439 -0.086232 -0.209926 0.172853 0.096812 -0.062754 0.275363 -0.417819 0.074533 0.189835 -0.145828 -0.108493 -0.201879 -0.294812 0.217176 -0.280194 -0.069722
1880 0.042161 -0.015343 -0.084201 0.223377 0.064323 -0.340923 0.253806 -0.009762 0.108023 0.167296 0.135848 0.020214 -0.019403 0.062495 -0.223782 -0.188073 0.235394 -0.055770 0.263913 -0.113331 0.222669 0.083285 0.137936 0.153591 0.025235 -0.153200 -0.275311 0.017948 -0.020980 -0.003517 -0.223624 -0.027091 -0.374859 -0.023911 -0.024557 -0.214152 -0.065411 0.126334 0.029437 -0.086933 0.112031 -0.022742 0.306605 -0.444478 -0.113102 -0.235200 0.119189 -0.500062 -0.092109 0.012074 0.056276 -0.062300 -0.001423 -0.059617 -0.020262 0.334789 0.157498 0.004503 -0.187306 0.112101 -0.316918 -0.031372 0.080727 -0.024649
165 -0.125255 -0.035126 0.165177 -0.157799 -0.299853 0.087345 -0.184089 -0.070289 0.015982 0.073504 -0.240285 0.127667 -0.045582 -0.041201 -0.100977 -0.214607 0.406507 0.054225 0.137397 -0.157055 -0.283993 0.260030 -0.191810 -0.112433 -0.067373 0.330962 0.291951 0.157596 0.335081 -0.210834 0.212396 -0.018543 0.137030 0.001344 0.077757 -0.005526 0.284672 0.169823 -0.002466 0.024340 0.172019 -0.217226 0.120858 0.135686 0.007988 0.004483 -0.115193 -0.428099 0.162812 -0.093515 -0.056209 0.153983 -0.287037 -0.109121 -0.083603 0.284007 0.013304 0.270880 0.094397 -0.060812 -0.048696 0.069762 0.296299 0.079469
260 -0.324083 -0.114145 0.463518 0.560189 0.015793 -0.178333 0.261442 -0.157632 -0.266977 -0.426525 -0.162258 -0.021130 -0.188194 0.209662 -0.054046 -0.156331 0.129124 0.081860 -0.309479 0.066435 -0.217758 -0.091317 -0.123362 0.028993 -0.081671 0.122695 0.180214 -0.298867 0.035800 -0.046296 -0.015416 0.182075 0.126607 0.202999 -0.057564 -0.151231 -0.123505 -0.190483 0.085939 -0.204821 -0.073053 0.213418 -0.262004 -0.045204 0.036459 0.052106 0.100548 -0.071545 0.156281 -0.446059 -0.519508 -0.171368 0.247225 0.077361 -0.236509 -0.380886 -0.414100 0.183765 -0.467078 0.295795 -0.060070 0.031125 0.500918 -0.364003
2516 -0.062865 -0.360173 0.140013 0.014661 -0.264769 -0.063396 0.152164 -0.151218 -0.118968 0.064628 -0.173357 0.061079 0.048688 0.204642 0.056992 -0.020937 -0.109137 -0.144492 0.183961 -0.193924 -0.150996 0.226362 0.152094 -0.038571 0.073536 -0.065404 -0.031338 0.111637 0.120875 0.082249 0.043221 -0.307035 -0.354608 0.140506 -0.056983 -0.261944 0.038176 -0.132583 -0.131509 0.395074 -0.017416 0.059973 0.321822 0.159458 0.093128 -0.115911 0.000771 -0.113065 -0.377200 -0.252124 0.109706 0.174537 0.110939 0.256442 0.089652 -0.414620 -0.101628 -0.215079 -0.334512 -0.268172 0.030169 0.191807 0.331148 -0.031747
18 -0.110828 -0.068612 0.350378 -0.010635 -0.097257 0.112826 0.314812 -0.066675 -0.082760 0.025197 -0.123076 -0.327862 -0.109955 0.107514 -0.055687 -0.000488 0.058528 -0.097484 0.002067 -0.248600 0.214880 -0.144959 -0.121269 0.052069 0.117571 -0.022994 -0.177103 0.011718 -0.194234 -0.032740 0.222361 -0.058349 0.187607 -0.101419 -0.034568 0.087382 0.156615 0.031521 -0.128820 -0.252077 0.284568 -0.137306 0.316912 0.101172 -0.330184 0.013525 -0.037357 -0.263015 0.109509 -0.147144 -0.001633 0.262638 -0.492683 0.097880 -0.490567 0.133026 0.069307 -0.048868 -0.093143 -0.155276 0.161999 0.093329 0.009040 0.053275
455 0.095219 -0.020882 -0.169678 0.081445 0.155068 0.204086 0.033111 -0.013063 -0.090345 0.085382 -0.143823 -0.101017 -0.213366 0.294261 -0.341210 -0.290639 -0.393112 -0.146982 -0.063124 -0.058341 0.119591 -0.138466 -0.095600 0.407807 -0.129116 0.174375 -0.087938 -0.099666 0.234030 0.007931 -0.010268 -0.109244 0.069665 0.293256 -0.233185 -0.055039 0.405419 0.112659 -0.193359 0.339378 0.172370 0.004890 -0.146369 0.157551 -0.245397 -0.113214 -0.024676 -0.419530 -0.234772 -0.095399 0.032560 -0.144190 -0.102000 -0.191346 0.130467 0.185962 0.172173 0.294198 -0.144922 -0.148532 0.269292 0.032425 -0.017982 0.317307
167 0.168420 0.405368 -0.045633 0.159460 0.118921 -0.013406 -0.258788 0.092374 -0.053284 -0.118853 -0.156630 -0.098171 -0.344404 0.293940 -0.312093 0.026238 -0.353743 -0.194583 -0.049824 -0.073575 0.010811 0.224955 0.154984 -0.146541 0.160508 -0.182761 -0.101129 -0.151492 -0.054905 0.139203 0.300239 -0.228354 0.028086 -0.021964 0.372281 -0.213854 0.139491 -0.221185 0.041413 0.170986 0.252258 -0.307747 0.195381 0.747620 -0.076098 -0.153941 -0.345836 0.006372 -0.070794 -0.115134 -0.451657 0.191022 -0.292224 0.506465 -0.235267 0.082986 -0.145062 0.254377 0.236768 -0.125421 0.117833 0.087906 0.041483 -0.077586
1766 0.160487 -0.184943 -0.045432 0.159667 -0.112155 -0.074694 0.013663 -0.024896 0.232788 -0.068436 -0.007429 0.027526 0.078262 -0.044591 -0.206837 -0.165686 0.008180 -0.127934 0.115145 -0.353234 -0.006066 -0.298602 -0.221268 0.166239 -0.045390 -0.043986 0.120302 -0.152537 0.318287 0.119617 -0.079577 -0.087337 0.078136 -0.176466 -0.140428 -0.227867 0.131585 -0.106375 -0.092050 0.067537 -0.008819 -0.105798 0.223981 -0.154534 -0.075606 -0.036142 0.015166 0.214429 0.021556 -0.009608 -0.033671 0.184223 -0.206102 -0.006349 -0.153129 -0.046782 0.122683 0.101229 -0.245273 -0.153489 -0.118979 0.214683 -0.116693 -0.041847
314 -0.099674 -0.094376 -0.165955 0.389176 -0.298658 0.277824 -0.275231 -0.200924 -0.141684 -0.222474 -0.117319 0.051551 0.308640 0.264947 -0.100887 0.285557 0.094689 0.118374 0.000328 -0.476110 0.130524 0.422931 0.126496 -0.112807 0.252336 -0.030175 0.045860 0.215525 -0.222373 -0.226217 -0.050251 0.144647 0.292525 0.390811 0.338689 -0.458495 0.025052 0.371193 0.211391 0.084602 -0.326283 -0.306898 -0.258790 -0.103267 -0.200719 -0.045341 -0.053931 -0.283421 -0.034818 -0.403604 0.379281 0.255076 -0.148147 0.291493 0.029071 0.130790 0.227954 -0.140317 -0.117835 -0.264757 0.215719 0.067358 -0.098712 -0.007758
3428 0.003685 -0.056098 0.266467 0.561555 -0.023423 -0.171787 -0.172097 0.256174 0.052577 0.037631 0.020330 0.068661 0.025604 0.144111 -0.524567 -0.133468 0.077359 0.300423 0.204675 0.257639 0.096268 -0.046735 0.043612 -0.066263 -0.172052 -0.193219 0.611001 0.075940 0.074073 0.193036 0.147640 -0.302809 -0.381076 0.167648 0.142804 -0.028623 -0.153123 -0.032992 -0.093263 -0.055584 -0.175738 -0.366250 -0.348672 0.166042 0.356903 0.173965 0.064603 -0.319410 0.420394 -0.073114 -0.466431 0.120481 0.082434 0.268594 0.284205 0.132685 -0.063218 0.306565 -0.028107 -0.184647 0.229457 0.050951 0.495553 -0.101178
2613 0.502627 0.011405 0.297183 0.152240 0.188730 0.135351 0.183221 -0.080145 0.165541 0.357398 0.026469 0.275113 -0.240272 0.166180 -0.066840 -0.003771 0.050496 -0.072940 -0.133594 -0.065412 -0.053047 -0.213816 0.091262 0.457382 0.023310 -0.185347 -0.017494 0.372792 -0.072655 0.222451 -0.119842 -0.175807 -0.081256 0.095858 -0.041878 -0.260730 0.303590 0.070851 0.012826 -0.011273 0.355768 -0.256610 -0.202370 0.241632 -0.060522 -0.248752 0.225141 -0.085047 0.151512 -0.153370 -0.167883 0.137613 -0.069504 0.013864 0.015242 0.028454 0.130615 0.143079 0.192718 -0.055598 -0.044438 -0.079566 -0.099566 0.156872
164 -0.221004 -0.023684 0.366585 -0.117255 0.073411 -0.062225 -0.174530 0.204101 -0.174162 0.010868 -0.391886 -0.342119 0.002025 -0.141773 0.062590 -0.263190 -0.064668 0.085954 0.331801 -0.051332 -0.099715 0.035974 -0.140384 0.200827 0.007946 -0.023524 0.066305 -0.004686 0.259354 0.032599 -0.042572 0.087879 0.046110 -0.179777 -0.061342 0.084125 -0.070631 0.171896 0.035809 0.029024 0.250061 0.073979 0.064978 0.182750 -0.257278 -0.048491 -0.145275 -0.177646 -0.038722 -0.134572 0.153227 -0.160104 0.222120 -0.018422 -0.534810 0.070900 -0.068697 0.346134 -0.119092 -0.115566 -0.329024 -0.192764 0.293614 -0.073053
185 -0.267568 0.498728 0.443085 0.175593 0.038003 0.082706 -0.015716 0.067145 -0.014230 -0.001515 -0.288703 -0.029243 0.215937 -0.359329 0.326536 -0.338850 0.065926 0.081603 -0.105336 0.148773 -0.007376 -0.011590 -0.051582 -0.038761 0.202649 0.100579 -0.151108 0.111809 -0.078274 0.198607 0.223173 0.164248 0.036992 0.332137 -0.031536 -0.299479 -0.370210 0.202776 0.203115 0.035244 0.207863 -0.069978 0.197449 0.163054 -0.088301 -0.298263 -0.081544 -0.285247 0.208061 -0.413410 -0.093793 0.211335 -0.163080 -0.348448 -0.551326 0.136496 0.004595 0.148906 -0.152960 -0.187165 0.109897 -0.219229 0.393077 -0.136921
125 0.230975 0.340902 0.444398 -0.299644 0.283945 -0.504464 -0.177966 -0.041224 0.044204 -0.119580 -0.084202 0.134425 0.013142 0.422316 -0.309076 -0.427307 0.672392 -0.036557 -0.209899 0.309653 -0.160602 -0.182424 0.133534 -0.235675 0.252552 -0.162528 -0.057754 0.055648 0.403960 -0.592036 -0.215774 -0.335061 0.586416 0.039548 0.064970 -0.153548 0.022269 0.107733 0.146627 -0.005183 0.398037 -0.271951 -0.074623 0.188349 0.327729 -0.179115 0.236145 -0.017476 -0.008425 0.294985 0.037057 0.284378 0.143220 0.355451 -0.112850 0.102115 -0.366971 -0.147599 0.043492 0.222868 0.054399 -0.135188 0.087645 -0.042288
3971 0.007680 0.267755 0.339524 0.198667 -0.130304 0.174706 0.242727 -0.293571 -0.269940 0.247984 -0.039868 -0.185742 0.005942 0.057908 -0.159621 -0.149355 -0.102331 -0.171951 0.108327 -0.314151 0.380356 -0.201646 -0.188176 0.121983 0.040887 0.156814 0.014391 -0.272344 -0.072399 0.005513 0.121605 -0.107981 0.054667 0.060964 -0.121617 0.198396 -0.076374 -0.083699 0.307308 0.010382 -0.067289 -0.312626 -0.193254 -0.107673 -0.154507 -0.250580 -0.194535 -0.267208 -0.206969 -0.256607 0.066328 0.087171 0.078261 0.051521 -0.149679 0.111813 0.219955 0.153313 0.020514 -0.075331 0.072143 -0.064926 0.059569 -0.098343
3705 0.081677 -0.017373 0.105089 0.296308 0.037120 0.130260 -0.178412 -0.082970 0.104255 -0.192853 -0.191608 -0.021275 -0.194650 0.239901 -0.124029 -0.261978 -0.129980 -0.071320 0.062157 -0.148456 0.489939 0.070884 -0.159931 0.145199 0.042591 0.279038 -0.048753 0.093401 0.204153 0.298914 -0.107938 -0.058590 -0.184973 -0.064195 -0.015085 -0.157987 0.006114 -0.033375 -0.185304 0.275987 -0.022150 0.050458 0.118668 -0.396719 0.134658 -0.127259 -0.021599 0.138717 -0.050776 -0.035699 -0.104749 -0.036662 0.182620 0.172552 0.106274 -0.060599 0.143173 -0.011191 -0.080961 0.004128 -0.154299 0.099988 0.138271 0.128171
225 -0.230979 0.076475 -0.327879 0.035002 -0.016497 0.002768 0.100434 0.252269 -0.159314 0.063640 -0.264323 0.098162 -0.142468 -0.084715 -0.074360 -0.118320 0.041305 0.025051 0.031162 0.078698 0.147257 -0.169797 -0.025648 0.025236 0.182418 0.195523 0.015998 0.168693 0.153548 -0.023157 -0.031679 0.204712 0.455876 -0.010934 -0.102447 -0.272924 0.100901 0.150417 -0.015301 0.000753 0.268365 -0.077749 0.168115 0.016170 0.035118 -0.171957 -0.282401 -0.327362 0.071692 -0.038412 -0.033790 0.018708 0.049060 0.221632 -0.442371 -0.212800 0.173820 0.280148 -0.184299 -0.247059 0.113863 0.248236 0.247665 -0.070334
4187 0.226615 -0.074097 0.253641 -0.086228 -0.055236 0.276708 0.280258 0.140135 -0.105136 0.020034 -0.269440 0.159580 -0.070762 0.065738 -0.138339 -0.222442 -0.147048 -0.167681 -0.000036 -0.053060 0.439854 0.143625 -0.073609 0.136327 -0.009834 0.201705 -0.227114 0.053216 -0.067607 -0.098572 -0.074442 0.033163 -0.147080 0.060490 -0.124170 -0.366974 -0.243823 0.118798 0.220936 0.032597 0.120084 -0.139279 -0.142134 -0.313333 -0.334044 0.180456 -0.050451 -0.242732 -0.341421 -0.091106 -0.323023 -0.051621 -0.035991 0.225511 -0.087544 0.109323 0.284581 -0.432101 -0.020469 0.126016 0.111236 -0.004461 0.159210 -0.092072
198 -0.060955 -0.152168 0.274369 -0.043336 -0.213635 -0.100879 -0.126583 0.004207 -0.160487 -0.067457 0.152771 0.102640 -0.217736 0.221776 -0.430987 -0.167034 0.020996 -0.112737 0.152248 -0.123918 0.025312 0.253358 0.038169 0.001675 0.228905 0.231503 -0.258057 -0.082877 0.049947 -0.004979 -0.192699 0.086440 0.021368 -0.013576 -0.060896 0.007251 0.184958 -0.099418 -0.296705 -0.285196 0.140009 0.129467 -0.188489 0.311358 0.100910 -0.012165 -0.015869 -0.039881 -0.402681 0.004913 -0.180287 -0.107444 -0.326159 0.216393 -0.265151 0.090463 0.033593 0.358408 0.260600 -0.090233 0.057518 0.066803 0.023221 -0.216113
4118 0.229788 0.028457 -0.001399 0.167800 0.116259 -0.229544 -0.109366 0.296329 -0.048071 0.138585 -0.212783 -0.101681 -0.260827 0.354494 -0.637214 -0.088374 -0.143225 -0.267126 0.221827 -0.123957 0.364430 0.058848 -0.117757 -0.004993 0.145185 0.035684 -0.141744 0.205957 0.125740 -0.071945 -0.164449 -0.191565 -0.247297 0.200999 0.196795 -0.313881 0.032128 0.076887 -0.049539 -0.232608 0.240423 0.213416 0.013276 -0.025319 -0.039664 0.041523 0.002083 0.090881 -0.154728 -0.001558 -0.040405 0.061484 -0.116512 0.027939 -0.169153 0.034463 0.046667 -0.025540 -0.105975 0.052189 0.363547 0.046914 -0.217094 -0.187077
1514 0.089766 -0.047782 0.086414 0.051943 -0.047954 0.168776 0.095953 -0.056698 0.132889 -0.057560 0.125376 0.296021 -0.003569 0.086838 0.137883 -0.182031 -0.034864 -0.333042 0.147562 -0.118750 -0.146674 0.465223 -0.233510 0.201491 0.279280 0.211053 0.195970 -0.180516 -0.024627 -0.158147 -0.279008 -0.329788 -0.249135 0.152199 -0.040823 -0.220706 -0.104974 0.342623 -0.077517 -0.398961 0.175964 -0.003298 -0.080169 -0.046552 0.143382 0.140174 0.574616 0.046248 -0.214552 0.224405 0.097233 -0.175205 -0.316858 -0.115514 -0.158881 0.121463 0.257671 0.096643 0.041340 0.020839 -0.118680 -0.056915 0.068139 -0.115190
3748 0.272110 -0.071569 0.148372 0.254745 -0.066400 0.156143 0.163130 -0.064664 0.304109 -0.074573 -0.307285 -0.069381 0.080241 -0.079745 -0.342653 -0.285887 0.310887 -0.023890 -0.046021 0.134482 0.107378 0.103094 -0.089819 -0.045675 0.006858 0.043107 0.042082 -0.061023 0.383854 0.173566 -0.136464 0.007356 -0.374424 0.154035 -0.128274 -0.064939 -0.086363 0.098577 0.127151 -0.005775 -0.143815 -0.062557 -0.134244 -0.153401 -0.045068 0.031106 -0.162916 -0.129170 0.197734 0.146753 -0.362790 -0.012851 -0.107733 0.129995 -0.108051 0.099445 -0.015739 -0.194503 -0.071721 -0.050711 0.288496 0.015710 0.216277 0.090022
3814 0.130548 -0.166771 0.025333 0.016356 -0.181059 -0.187244 -0.131653 -0.234690 -0.266564 0.128572 -0.010711 0.141796 0.264074 0.240659 -0.330856 -0.267445 0.079066 -0.110556 0.177025 -0.114610 -0.125719 0.039254 -0.462898 -0.328577 -0.463897 0.135219 0.114650 -0.081284 0.215897 -0.120829 0.459329 0.337729 0.103914 -0.200366 -0.035162 -0.269324 -0.037787 -0.349789 -0.075365 0.207623 -0.031080 0.182056 -0.082746 -0.422304 -0.177858 -0.199361 -0.355066 0.269450 -0.130368 0.209637 0.145279 0.019813 -0.274542 0.039585 0.049458 -0.034215 0.240574 0.170471 -0.068242 -0.344396 0.122519 -0.075345 0.115678 0.032713
133 -0.089718 -0.207179 0.137986 0.094093 0.113418 0.155700 -0.226277 0.000420 -0.152348 0.169212 -0.057534 0.311316 0.110421 0.134433 -0.211854 -0.177995 0.119248 0.050256 0.456650 -0.119606 0.217387 -0.089314 0.124662 0.168351 0.059038 0.564774 0.049356 0.083995 -0.239030 0.050193 0.321319 0.129412 0.103314 -0.030022 0.132948 0.067016 0.216315 -0.300831 -0.184863 0.024022 0.228473 0.054995 0.262992 -0.138547 -0.278902 -0.045251 -0.317467 -0.168802 -0.194168 -0.128581 -0.364932 0.160374 -0.083230 0.230358 0.117613 -0.032012 0.413855 0.134942 0.055337 -0.114740 -0.003884 0.087185 0.173074 0.103654
64 0.021512 0.366579 0.119035 -0.102532 -0.071933 -0.000278 -0.342836 0.211889 -0.249096 0.018561 -0.203740 0.028824 0.066691 0.117114 -0.121617 -0.296013 0.168935 0.034945 0.291171 -0.200782 0.180807 0.111154 -0.059198 0.162892 0.352334 0.269898 0.164728 0.227529 -0.146058 0.203882 -0.015634 0.143898 0.019698 0.091263 0.090006 0.075645 0.015003 0.110812 0.111818 0.034437 0.352419 -0.071484 0.047437 -0.062186 -0.229652 -0.163875 -0.005087 -0.039720 -0.084969 -0.270070 -0.111117 0.106518 -0.070692 0.311031 -0.100534 0.067171 0.095674 -0.068711 0.098735 0.079504 -0.036516 0.211583 0.224192 0.215900
206 -0.193194 0.342250 -0.042128 0.225444 -0.120172 0.039883 -0.032626 0.142977 -0.161697 -0.011686 0.011326 0.239842 -0.090768 -0.080243 0.076722 0.238132 0.385716 0.149174 -0.025388 -0.280441 0.028247 -0.256235 -0.030784 -0.026271 0.457748 0.461677 0.322686 0.003265 0.379034 0.163957 -0.121927 -0.027253 0.313296 -0.020836 0.146333 0.012297 -0.166292 -0.200846 0.042654 -0.161689 0.127687 0.316934 -0.179963 0.035522 -0.117773 0.129358 0.126038 0.005730 -0.213584 -0.146690 0.132158 -0.044010 -0.073294 0.082187 -0.639050 0.322797 -0.102753 0.229107 -0.320464 -0.108355 0.087805 0.030062 0.083944 -0.263539
215 -0.324661 0.254390 -0.124509 0.335513 0.288332 -0.218640 -0.129344 -0.598606 -0.051067 0.317273 -0.082824 0.025871 -0.165361 -0.104549 0.162380 -0.188074 0.066435 0.076230 0.380086 -0.163137 -0.354351 -0.078418 0.105797 0.321012 0.049481 0.018911 -0.320383 -0.055124 0.226869 -0.014359 0.200663 -0.221333 0.254806 -0.196614 0.142542 0.203898 0.127405 0.317142 0.204823 -0.061311 0.334149 0.124403 -0.085981 -0.000808 -0.291990 -0.383051 0.073099 -0.277402 -0.260110 0.053098 -0.041916 -0.063672 -0.127410 -0.248516 -0.172202 -0.352309 -0.309434 0.287106 -0.196788 -0.082624 0.124215 -0.208456 0.125863 -0.372424
26 -0.627030 -0.142503 0.071466 0.165881 -0.669474 0.105608 0.642658 0.606408 -1.062851 -0.144898 0.164797 -0.229489 -0.429110 -0.143403 -0.208296 -0.050631 0.706697 0.175569 0.269592 -0.107846 -0.294731 0.149063 -0.392936 -0.458289 -0.521149 0.166890 -0.079506 -0.117075 -0.259992 0.188913 0.277091 -0.313401 0.140831 -0.029887 0.432751 -0.039478 0.114571 -0.229594 0.291664 0.111283 -0.097119 -0.268187 0.299678 -0.330989 -0.233096 0.270976 -0.163289 0.179625 -0.649198 -0.132869 -0.002266 0.152569 0.117234 -0.072900 0.382140 -0.308831 0.173891 0.556610 -0.287653 0.385415 -0.957392 -0.200680 -0.463533 -0.404032
