5 64
1 -0.012038 0.051130 -0.162881 -0.077057 -0.142861 -0.154179 -0.141533 -0.052689 -0.044613 0.003734 -0.038901 0.079780 -0.108151 0.132929 -0.162746 0.049281 -0.070042 0.003517 -0.159300 -0.108311 0.137192 0.135587 -0.037709 0.015504 0.095753 0.077982 -0.128252 -0.144157 -0.078642 0.095628 -0.111793 -0.034981 0.118075 -0.020198 0.087801 -0.090793 0.054492 0.093982 -0.166228 0.115261 0.131574 0.104712 -0.073446 0.087286 -0.145503 -0.074210 0.138052 -0.054258 -0.064913 -0.137307 -0.119859 0.066549 -0.118784 -0.091180 -0.030952 -0.146498 0.062740 -0.065770 0.087392 0.067574 -0.159389 -0.019135 0.071286 -0.081438
3 -0.208411 -0.022026 -0.069659 0.180055 -0.010377 -0.273875 0.118505 -0.152894 0.122288 -0.025607 0.157395 0.120875 -0.019817 -0.091337 -0.283467 -0.118513 -0.159067 -0.138362 -0.143524 0.038524 0.039611 -0.085597 -0.260096 0.313846 0.148462 0.021982 -0.213843 0.003804 -0.244358 0.154755 0.093167 0.144124 0.030454 0.045106 0.056758 0.145065 -0.104217 -0.118827 -0.278754 0.004489 0.194921 0.056129 -0.132576 0.293352 -0.029558 0.014596 0.101808 0.041911 0.027944 -0.160870 -0.348784 -0.025400 0.028673 -0.155034 0.147537 -0.292896 -0.144154 -0.011511 -0.195706 0.099399 -0.034335 0.158004 -0.070844 -0.137808
2 -0.194625 0.067881 -0.081518 0.012854 0.033107 -0.140701 0.078013 -0.165201 -0.083802 0.092399 0.002067 -0.021368 0.044554 0.023102 -0.107194 0.077782 0.067893 0.027735 -0.043454 -0.092797 0.001231 0.197617 -0.140891 0.262828 0.167181 0.154686 -0.253330 0.004760 -0.165663 0.152253 -0.111414 -0.048759 0.233281 0.055982 -0.083447 0.038977 -0.020344 0.070926 -0.073413 0.014453 0.291207 0.097531 -0.220074 0.264302 -0.055538 0.145089 0.027985 -0.136952 0.072291 -0.059976 -0.327431 0.099407 0.020954 0.030616 0.089472 -0.284574 -0.156351 -0.221658 -0.182073 0.010630 0.001385 0.037089 0.044619 0.060890
5 -0.112782 0.008050 0.005024 0.067404 0.061345 -0.053657 0.104688 -0.074792 0.011035 0.028038 0.047314 -0.011796 0.047687 -0.053764 -0.045595 -0.011002 0.021379 -0.017630 0.014032 0.009418 -0.041799 0.015763 -0.097076 0.165057 0.068910 0.046558 -0.097499 0.046259 -0.091649 0.064231 0.010655 0.024994 0.060743 0.041651 -0.050731 0.078131 -0.044984 -0.025956 -0.031106 -0.037621 0.109111 0.008862 -0.082210 0.129104 0.024092 0.090649 -0.011860 -0.027083 0.050473 -0.009993 -0.160996 0.008297 0.054785 0.009416 0.080144 -0.116206 -0.114371 -0.073981 -0.144515 0.001879 0.049605 0.048179 -0.023111 0.029731
4 -0.005464 -0.020606 0.083115 0.053438 0.065675 0.057979 0.080868 0.021571 0.031631 0.000927 0.032535 -0.033907 0.053797 -0.070613 0.068671 -0.026626 0.037333 -0.000416 0.071555 0.060349 -0.072577 -0.071444 -0.001776 0.013820 -0.044133 -0.027013 0.052631 0.066177 0.019463 -0.039642 0.051421 0.026721 -0.053330 0.020438 -0.043583 0.058922 -0.027513 -0.044240 0.069588 -0.056910 -0.044550 -0.050604 0.024221 -0.021769 0.063343 0.044185 -0.065811 0.029382 0.033748 0.066747 0.036693 -0.036196 0.066332 0.042410 0.017977 0.051390 -0.040148 0.032036 -0.065750 -0.022597 0.077439 0.024696 -0.036001 0.042246
